<?xml version="1.0"?>
<opencv_storage>
<my_svm type_id="opencv-ml-svm">
  <svm_type>C_SVC</svm_type>
  <kernel><type>LINEAR</type></kernel>
  <C>1.0000000000000000e-002</C>
  <term_criteria><epsilon>1.1920928955078125e-007</epsilon>
    <iterations>10000</iterations></term_criteria>
  <var_all>576</var_all>
  <var_count>576</var_count>
  <class_count>2</class_count>
  <class_labels type_id="opencv-matrix">
    <rows>1</rows>
    <cols>2</cols>
    <dt>i</dt>
    <data>
      -1 1</data></class_labels>
  <sv_total>1</sv_total>
  <support_vectors>
    <_>
      9.68203023e-002 5.11172190e-002 1.62532590e-002 1.80893112e-002
      4.95187892e-003 2.21185274e-002 5.15061468e-002 7.13206902e-002
      8.70029256e-002 3.94061655e-002 -1.91828161e-002 -5.09580038e-002
      -3.25680524e-002 2.08746493e-002 5.19814827e-002 6.19046055e-002
      6.24292009e-002 4.09366302e-002 6.10741861e-002 1.17094144e-002
      -6.52677640e-002 -7.04315826e-002 -3.95850241e-002 2.19867975e-002
      4.69293110e-002 2.23096069e-002 5.03088124e-002 -8.25282633e-002
      -1.57670781e-001 -1.91579103e-001 -1.58022061e-001
      -6.15126677e-002 9.42237023e-003 8.76948121e-004 -2.52633300e-002
      -6.64689168e-002 3.68491225e-002 -1.56695601e-002 -1.33148776e-002
      8.09072182e-002 1.43160418e-001 1.48550302e-001 1.30931482e-001
      9.43415239e-002 5.98258451e-002 -9.25635993e-002 -6.63072243e-002
      -1.29836993e-002 7.57174790e-002 1.28642872e-001 1.05595991e-001
      4.57576700e-002 8.40105757e-004 -4.33171242e-002 -1.16888739e-001
      -1.36916816e-001 -1.24298327e-001 -5.50059602e-002 6.57508522e-002
      8.64832699e-002 -4.99012768e-002 -8.86950046e-002 -1.17210455e-001
      -1.20359391e-001 -7.58180693e-002 -2.62532737e-002 2.22335011e-002
      1.22267706e-002 -5.39419428e-002 -1.17639683e-001 -1.09110497e-001
      -1.39779627e-001 -9.12370309e-002 -1.51040088e-002 2.03895010e-002
      4.56329882e-002 1.57679275e-001 1.15010574e-001 -1.87786948e-002
      -9.32296365e-002 -1.25838041e-001 -3.46939415e-002 2.50092596e-002
      4.80025075e-002 1.00243762e-001 2.22055510e-001 1.14532575e-001
      -6.59083724e-002 -1.38953313e-001 -1.13701165e-001
      -4.98623699e-002 9.30103194e-003 3.50011066e-002 2.62449887e-002
      1.58598684e-002 -1.19406193e-001 -2.22940013e-001 -1.66778013e-001
      -1.07699335e-001 3.34582813e-002 8.66808146e-002 1.11724645e-001
      1.33362710e-001 8.68330523e-002 -7.68914893e-002 -2.00728506e-001
      -1.57835916e-001 -5.49573489e-002 -1.92126445e-002
      -9.31547768e-003 -8.25454574e-003 1.11559965e-002 1.00137115e-001
      4.05360805e-003 -1.25547215e-001 -1.43603459e-001 -8.12954977e-002
      1.52093275e-002 -1.63998678e-002 -2.69207619e-002 -1.16545884e-002
      7.36875758e-002 6.41320050e-002 -2.49279547e-003 -4.06064428e-002
      8.06648470e-003 2.66823191e-002 5.56257553e-002 4.59916629e-002
      3.09812445e-002 -1.84416324e-002 -1.04221717e-001 -2.08452210e-001
      -1.32576004e-001 -3.62679735e-002 7.86977820e-003 -9.48990230e-003
      -3.33488584e-002 -2.56735422e-002 -2.62455959e-002
      -7.47891217e-002 -5.52603714e-002 -3.07182502e-002 2.31453148e-003
      8.36589858e-002 7.94945210e-002 3.22780870e-002 1.42705757e-002
      2.65271254e-002 1.18489258e-001 1.06821269e-001 5.05410731e-002
      5.76603115e-002 -4.72909808e-002 -9.55190137e-002 -1.37208566e-001
      -1.30709201e-001 -2.88422126e-002 7.31491223e-002 5.19756787e-002
      3.18727009e-002 -3.75798754e-002 2.14531738e-003 4.81963232e-002
      7.04920143e-002 4.58278880e-002 2.04264279e-002 8.87811929e-002
      1.13265045e-001 6.19614869e-002 6.99226605e-003 -1.04374677e-001
      -8.71864036e-002 -5.72541207e-002 -7.79589042e-002
      -5.82277365e-002 -2.02091001e-002 -1.69843994e-002
      -1.05426777e-002 -7.81864971e-002 -6.44529462e-002
      -3.76366451e-002 -1.83155518e-002 2.11547408e-002 1.36016279e-001
      1.21215500e-001 1.81563701e-002 -3.24515486e-003 -7.00705871e-002
      -1.12203294e-002 6.25769049e-002 9.60728526e-002 1.10683285e-001
      5.32811247e-002 -3.45341936e-002 -9.34729800e-002 -4.85488325e-002
      -4.22470048e-002 -8.00809488e-002 -4.02377993e-002 2.25859098e-002
      6.04335070e-002 8.13541189e-002 5.27735390e-002 4.19078059e-002
      2.81998776e-002 -4.73931581e-002 -9.28846770e-004 4.85102534e-002
      5.08286953e-002 6.94046244e-002 2.24689990e-002 -3.77238891e-003
      -2.68174782e-002 2.32864991e-002 1.89059097e-002 6.42368570e-002
      8.05694237e-002 8.18406045e-002 6.53697178e-002 1.91721716e-003
      -1.36852503e-001 -1.56372413e-001 -3.72443758e-002 4.40573134e-002
      1.32201269e-001 1.38229221e-001 1.49841756e-001 1.41735688e-001
      5.88721000e-002 -9.12802070e-002 -1.16476819e-001 4.17126380e-002
      1.27146393e-001 6.65198267e-002 5.27092665e-002 3.82514670e-002
      -7.09391059e-003 -8.93542618e-002 -1.08552083e-001
      -6.91175982e-002 3.96515504e-002 6.32015318e-002 1.38271421e-001
      1.36392564e-001 1.17883690e-001 2.03339681e-002 -5.13168164e-002
      -5.47089316e-002 1.93880256e-002 1.24133974e-001 1.24922328e-001
      9.08174589e-002 1.01629555e-001 8.42066109e-002 2.67340411e-002
      -6.71900362e-002 -1.75403222e-001 -1.38229430e-001 2.69180853e-002
      8.53570551e-002 6.32667243e-002 5.45708872e-002 2.64284369e-002
      1.72180627e-002 -7.75583740e-003 -4.44643684e-002 3.03768758e-002
      7.60646537e-002 7.79500529e-002 9.87698138e-002 1.01070881e-001
      4.63880561e-002 -1.03077702e-001 -1.31126046e-001 -1.07252285e-001
      -3.15704779e-003 8.94571394e-002 8.45327452e-002 8.96724015e-002
      9.44530442e-002 2.18764227e-002 -6.32864758e-002 -6.90604597e-002
      -2.21154746e-002 8.79882425e-002 9.70479697e-002 7.89127871e-002
      -3.17365229e-002 1.13902334e-002 8.10754970e-002 9.00019407e-002
      3.54421213e-002 7.53825530e-002 8.88892338e-002 6.70728236e-002
      -2.35067029e-003 -9.71729457e-002 -7.01878667e-002
      -1.50723401e-002 -3.30127217e-002 -8.50517675e-002
      -9.46496204e-002 -7.82221034e-002 -5.39921895e-002
      -7.89101869e-002 9.85996239e-003 1.46929696e-002 8.44682977e-002
      1.34558678e-001 7.37850219e-002 9.68918726e-002 1.28697738e-001
      1.12678379e-001 6.60118833e-002 -3.25376019e-002 -2.89705256e-003
      4.11201604e-002 6.40449300e-002 -3.35742496e-002 -8.43039826e-002
      -8.22319686e-002 -2.93702837e-002 -1.51500609e-002
      -7.11564943e-002 -4.72994670e-002 1.59238502e-002 7.29483590e-002
      3.02976444e-002 -3.25884460e-003 3.09023168e-002 2.20429879e-002
      -3.64261940e-002 -3.25486474e-002 -2.91330460e-002
      -4.20685634e-002 -7.33456807e-003 1.18048172e-002 2.61652004e-002
      4.87525463e-002 9.15360600e-002 3.11638638e-002 -4.53626066e-002
      -1.76226646e-002 4.82218340e-002 1.21330641e-001 7.76938125e-002
      -5.47488872e-003 -2.35645324e-002 2.23475005e-002 -6.82305731e-003
      -3.54381427e-002 -5.94608523e-002 -5.85875809e-002
      -2.98454594e-002 3.67566049e-002 8.52420852e-002 8.95308107e-002
      9.39731225e-002 2.30622273e-002 3.89599204e-002 1.10564055e-002
      -4.46561985e-002 -1.15411468e-001 -9.47337002e-002
      -2.57647727e-002 -8.05858464e-004 8.02891329e-002 7.02567846e-002
      1.05395198e-001 1.15877941e-001 7.93934520e-003 -1.21748447e-001
      -7.95754716e-002 5.68736568e-002 7.85214156e-002 1.19071417e-001
      9.75162014e-002 2.63717808e-002 1.58172473e-002 -1.04142807e-001
      -1.83882266e-001 -3.27381492e-002 8.21060389e-002 8.61254334e-002
      9.19961929e-002 5.54420017e-002 1.08710788e-001 6.22224696e-002
      -9.24735591e-002 -1.54857948e-001 8.01810704e-004 1.83260098e-001
      1.56363681e-001 1.24608323e-001 9.22152400e-002 7.20054209e-002
      6.91656321e-002 -7.59258941e-002 -2.29960918e-001 -1.47982776e-001
      -1.00984168e-003 4.46580164e-002 9.58552957e-002 6.83107600e-002
      8.75800028e-002 1.05198890e-001 9.21622757e-003 -1.42597347e-001
      -8.12931657e-002 6.06617630e-002 9.68598947e-002 1.01542279e-001
      7.32681677e-002 5.99554591e-002 4.94551659e-003 -1.92420602e-001
      -2.67404735e-001 -7.55232200e-002 1.00713752e-001 9.59249064e-002
      8.01702961e-002 5.90072870e-002 9.03907791e-002 5.80532029e-002
      -6.03205562e-002 -1.46964997e-001 1.76702756e-002 1.22252308e-001
      9.06791016e-002 6.18825331e-002 6.57945648e-002 -2.92138625e-002
      -4.43280898e-002 -5.34198945e-004 2.95678750e-002 8.23186897e-003
      1.19792409e-002 5.18727861e-002 3.62289734e-002 1.40719404e-002
      -5.75439371e-002 -3.66807468e-002 -1.83534585e-002 1.80654600e-002
      -6.51706234e-002 -9.96340141e-002 -1.15279116e-001
      -9.07770321e-002 -6.36489987e-002 4.58756536e-002 2.58525815e-002
      4.13424242e-003 8.44045822e-003 4.84370533e-003 1.21733230e-002
      5.00926860e-002 3.10338121e-002 4.55391742e-002 4.31851558e-002
      5.25463112e-002 1.86182763e-002 1.69217810e-002 -2.62082051e-002
      -3.52517180e-002 -8.66548531e-003 -1.36438515e-002 2.49592327e-002
      -8.02192762e-002 -4.94912341e-002 -3.23614366e-002 5.20070270e-002
      2.78992057e-002 -8.04493576e-002 -1.61644712e-001 -1.36428058e-001
      -9.77428928e-002 -1.45816222e-001 -8.03963393e-002
      -1.05123743e-001 -1.06842086e-001 3.52563756e-003 1.84397548e-002
      -5.81500083e-002 -1.17610693e-001 -1.51054442e-001 6.83946162e-002
      1.25022680e-001 9.14802477e-002 7.78168365e-002 7.92189166e-002
      6.35823831e-002 3.56120542e-002 -1.79883111e-002 3.29717807e-002
      1.24669420e-002 7.55066499e-002 6.63460270e-002 1.03427852e-002
      6.56861514e-002 7.47296512e-002 2.93561574e-002 -4.79621217e-002
      -4.21217605e-002 -1.11465886e-001 -7.09076300e-002
      -1.58575863e-001 -2.31837094e-001 -4.97443452e-002 2.76135728e-002
      -1.01041356e-002 -6.32700548e-002 -1.07723147e-001
      -8.66128802e-002 -1.03060946e-001 -1.53929234e-001
      -1.86252862e-001 -3.81995318e-003 9.14002657e-002 4.40151282e-002
      -2.29894388e-002 -6.21859170e-002 -6.71316311e-003 6.45421445e-002
      4.38029580e-002 -2.63314396e-002 4.99033332e-002 5.64042181e-002
      2.95980014e-002 -2.52585206e-002 -4.60710898e-002 -2.81837322e-002
      1.59853548e-002 -6.75005722e-004 -3.15641845e-003 8.30461457e-002
      1.01665556e-001 5.70843704e-002 -5.52742276e-003 -2.74086259e-002
      -7.96940848e-002 -1.15265131e-001 -2.03417525e-001
      -2.25645930e-001 -1.83731634e-002 4.88124862e-002 3.08184279e-003
      -3.34603153e-002 -5.16513325e-002 -4.69159149e-003
      -1.39110424e-002 -8.52107406e-002 -1.17733777e-001 3.81044112e-002
      4.68900874e-002 -1.18236830e-002 -3.10119614e-002 -3.57578173e-002
      -3.73205580e-002 -3.22090983e-002 -5.60781509e-002
      -3.85617055e-002 6.02247380e-002 3.64703648e-002 5.24496660e-004
      -3.73093374e-002 -2.68738717e-002 4.74722078e-003 2.37363372e-002
      1.33139631e-002 3.40035334e-002 8.55493173e-002 6.47834986e-002
      1.91677697e-002 -8.44400842e-003 -1.99036077e-002</_></support_vectors>
  <decision_functions>
    <_>
      <sv_count>1</sv_count>
      <rho>-8.9351509035424070e-001</rho>
      <alpha>
        1.</alpha>
      <index>
        0</index></_></decision_functions></my_svm>
</opencv_storage>
