<?xml version="1.0"?>
<opencv_storage>
<my_svm type_id="opencv-ml-svm">
  <svm_type>C_SVC</svm_type>
  <kernel><type>LINEAR</type></kernel>
  <C>1.0000000000000000e-002</C>
  <term_criteria><epsilon>1.1920928955078125e-007</epsilon>
    <iterations>1000</iterations></term_criteria>
  <var_all>1296</var_all>
  <var_count>1296</var_count>
  <class_count>3</class_count>
  <class_labels type_id="opencv-matrix">
    <rows>1</rows>
    <cols>3</cols>
    <dt>i</dt>
    <data>
      1 2 3</data></class_labels>
  <sv_total>3</sv_total>
  <support_vectors>
    <_>
      9.26366262e-003 2.55075619e-002 2.70034987e-002 1.83677766e-002
      -1.37910731e-002 -1.81119870e-002 -7.57591333e-003
      -1.00155883e-002 9.64850653e-003 1.73769351e-002 2.75557302e-002
      3.07453275e-002 1.86761860e-002 -4.45055310e-003 -6.57801470e-003
      -9.50629730e-003 -2.98416056e-003 1.01510799e-002 1.87163521e-002
      1.90497581e-002 2.59794891e-002 1.03111137e-002 -6.72925916e-003
      -1.30022513e-002 -6.69305027e-003 1.32031587e-003 2.00057756e-002
      2.52431370e-002 1.37914224e-002 1.90714970e-002 7.39516458e-003
      -8.65783077e-003 -1.42654050e-002 -2.48103519e-003 7.70730525e-003
      2.26917751e-002 5.11790719e-003 1.19042546e-002 1.52510079e-002
      -3.41025111e-003 -1.27656069e-002 -1.18083591e-002
      -4.38715424e-003 -7.66946981e-003 2.55637127e-003 3.88834742e-003
      6.03657868e-003 -4.94206045e-003 -1.13776615e-002 -1.93538442e-002
      -1.97111536e-002 -1.14276810e-002 -2.61960714e-003 6.18743803e-003
      2.14431658e-002 1.35801351e-002 1.40238022e-002 -1.76072016e-003
      -8.19144864e-003 -5.96881751e-003 9.18751955e-003 1.25483051e-002
      2.61388123e-002 1.41020175e-002 5.79935173e-003 -1.50662027e-002
      -3.59421410e-003 7.21437027e-005 -6.88664615e-003 -1.19007472e-003
      1.02132503e-002 2.63273921e-002 2.00823392e-003 1.12011554e-002
      -1.15698820e-003 -5.31880697e-003 -1.87113619e-004 6.67673303e-003
      2.10705143e-003 -9.65161249e-003 2.70307180e-003 -2.12496128e-002
      -5.01722237e-003 1.58405863e-003 1.49635542e-002 2.05407795e-002
      2.53547188e-002 -4.26355610e-003 -1.91538595e-002 -1.75080579e-002
      1.32980086e-002 -5.28427027e-003 -1.10440506e-002 8.93246662e-003
      9.16564092e-003 4.18119878e-003 -3.72385082e-004 1.46633238e-002
      3.32729705e-002 -1.61067359e-002 -1.51693700e-002 3.06780194e-003
      1.62814427e-002 2.50366312e-002 -2.10079667e-003 -8.58268049e-003
      -1.01378385e-003 -3.55808204e-003 -2.33602431e-002
      -5.89533010e-003 8.87260865e-003 3.11557315e-002 3.69091779e-002
      3.24313603e-002 -2.42683291e-003 -1.94818117e-002 -1.55729847e-002
      -2.31298711e-002 -1.31651331e-002 -4.98108752e-003 1.88728329e-002
      2.75946781e-002 3.31419446e-002 5.07635996e-004 5.05764212e-004
      -1.31865963e-002 -3.02090775e-002 -1.39944088e-002 2.23410539e-002
      3.96521986e-002 4.53502163e-002 4.22587711e-003 6.77555893e-003
      9.70309880e-003 -9.50096641e-004 -1.36896772e-002 -3.68562690e-003
      1.58899110e-002 2.96687856e-002 3.51049118e-002 5.98975923e-003
      1.27759213e-002 1.28569752e-002 -6.93773990e-003 -1.70058515e-002
      -6.12854026e-003 -6.35173917e-003 -2.48239655e-003 1.56274904e-002
      2.82904897e-002 1.07614072e-002 2.49719783e-003 -1.58044547e-002
      -5.93058718e-003 4.71780030e-003 6.08796440e-003 9.43277031e-003
      1.48783419e-002 1.92608833e-002 2.99555976e-002 -4.87492746e-003
      -1.40462555e-002 -5.19025791e-003 2.69831601e-003 7.56792538e-003
      9.00675636e-003 2.11286414e-002 1.69425514e-002 9.84094664e-003
      -4.92635835e-003 -3.68275889e-003 -4.20207297e-003 9.08671692e-003
      5.92263648e-003 7.73220230e-003 1.02132428e-002 1.83378663e-002
      1.02635110e-002 3.15277791e-003 -4.09753667e-003 -1.61583093e-003
      -7.31563475e-003 -1.00958068e-002 9.08438675e-003 1.03212446e-002
      1.10972598e-002 1.98564827e-002 -1.74623565e-003 -1.09926658e-002
      -7.79575948e-003 -1.66682061e-002 -9.01954249e-003 6.23520464e-003
      1.93465799e-002 2.42501833e-002 2.46133152e-002 1.09336488e-002
      1.58511323e-003 -8.34276900e-003 -1.31579931e-003 -1.05384202e-003
      1.27001759e-003 1.59826484e-002 1.72423217e-002 1.03114918e-002
      -3.45468812e-004 -8.71922541e-003 -2.14361940e-002
      -1.98096521e-002 -3.20705306e-003 2.14781761e-002 2.63846796e-002
      2.98478547e-002 1.70691460e-002 -4.22979007e-003 -1.69565305e-002
      -2.16789893e-003 -7.77416071e-003 6.27753511e-003 -8.94518290e-003
      -1.32138440e-002 -1.67172663e-002 -1.68270320e-002
      -1.41736967e-002 -8.78711697e-003 1.19518554e-002 1.51732815e-002
      2.23929435e-002 1.27233341e-002 -1.08255660e-002 -2.02699881e-002
      -7.35263992e-003 -2.41339905e-003 2.85121193e-003 -3.26587558e-002
      5.50393714e-004 2.39865091e-002 2.69648954e-002 3.06396857e-002
      2.38967463e-002 -1.06206518e-002 -4.24513929e-002 -5.07261567e-002
      -2.45588850e-002 1.97938941e-002 3.93689796e-002 4.50579710e-002
      4.77406047e-002 1.59098227e-002 -5.41125657e-003 -3.54205072e-002
      -4.69645932e-002 -1.29259378e-003 -8.81850719e-003
      -8.06572009e-003 -2.21300554e-002 -2.82671805e-002
      -2.00152304e-002 -7.12508149e-003 -4.89885407e-003 5.52468176e-004
      6.48873765e-003 2.50074011e-003 -2.36575771e-002 -2.33762227e-002
      -1.54050775e-002 -1.46304704e-002 -1.76229347e-002
      -5.18170418e-003 6.09081751e-003 -3.03753242e-002 1.42207751e-002
      3.00056878e-002 2.63381861e-002 1.91797037e-002 3.71023035e-003
      -1.33881625e-002 -2.73217764e-002 -3.50300111e-002
      -3.98425832e-002 5.56756416e-003 2.36588400e-002 1.38826091e-002
      1.40103279e-002 1.39527377e-002 -5.05778007e-003 -1.35245463e-002
      -2.60927826e-002 7.71546038e-003 -5.01856441e-003 -2.29046959e-002
      -7.66364671e-003 1.51118813e-002 -1.86514470e-003 -2.28168294e-002
      -7.82658160e-003 1.74007379e-002 -3.16424035e-002 -2.74286736e-002
      -1.84488613e-002 4.84286429e-004 2.40566097e-002 -2.52173282e-002
      -3.50657664e-002 -2.14886963e-002 -9.88252554e-003
      -3.02594937e-002 8.76645930e-003 3.81285101e-002 3.94306928e-002
      5.77960275e-002 4.07074727e-002 1.43617578e-002 5.04740188e-003
      -1.36742862e-002 -2.32682079e-002 -1.02812645e-003 2.02755816e-002
      4.10361029e-002 6.05471097e-002 1.47440499e-002 -1.83857940e-002
      -2.00481806e-002 -1.16862869e-002 -2.91740187e-002
      -1.52188120e-003 9.72741377e-003 2.71570589e-002 3.89880687e-002
      -2.74857059e-002 -3.16575095e-002 -2.65737437e-003
      -5.59000298e-003 -1.59097183e-002 -1.42191874e-003 1.23175746e-002
      2.41125897e-002 1.57247018e-002 -2.85968278e-002 -8.88624508e-003
      7.11223530e-003 -1.94913801e-003 2.05744570e-003 1.78253688e-002
      2.96186358e-002 4.65736873e-002 5.09798788e-002 -6.76052785e-003
      -8.99004843e-003 2.86449096e-003 6.03464711e-003 3.95733118e-003
      3.65042081e-003 1.67325623e-002 2.36690473e-002 2.05331529e-003
      -1.87214743e-002 -7.95883965e-003 3.06558423e-002 8.24679621e-003
      -1.64104942e-002 -1.46468915e-003 1.72044372e-003 4.89683775e-003
      3.02029774e-003 -1.41069368e-002 3.24906432e-003 6.28461875e-003
      -6.18086243e-003 -1.64794438e-002 -5.49568608e-003
      -5.18434774e-003 -6.03167899e-003 1.16840424e-002 1.20266085e-003
      -8.14839453e-003 -9.33796540e-003 -1.84416920e-002
      -2.47715297e-003 -4.47896821e-003 -2.86665955e-003 8.61130655e-003
      -4.64500487e-003 -3.85257741e-003 -5.59870480e-003 2.49219593e-002
      1.57474412e-003 -1.59252733e-002 -1.00330096e-002 -1.33212125e-002
      -7.66390888e-003 1.21208467e-002 3.20789567e-003 -3.52550461e-003
      -1.72959466e-003 -1.77054871e-002 -1.19684981e-002
      -2.29910901e-003 3.07781273e-003 -1.85729866e-003 2.21291892e-002
      1.85380317e-002 -1.43311685e-003 -8.25307798e-003 -1.30691668e-002
      -2.48669609e-002 -1.64747369e-002 -3.51409521e-003 1.33199980e-002
      2.72022840e-002 3.67278382e-002 9.67746414e-003 -1.89110264e-002
      -2.92116459e-002 -2.05125865e-002 -6.52416190e-003 6.39290840e-004
      2.35971529e-003 2.17744224e-002 1.87985469e-002 4.89534019e-003
      -8.54266342e-003 -2.37057079e-002 -2.47915965e-002
      -1.28559852e-002 1.04334066e-002 1.97505131e-002 3.93860862e-002
      3.05477791e-002 1.16397962e-002 -1.53699042e-002 -3.00978683e-002
      -1.05586469e-001 -4.05175611e-002 6.26674946e-003 3.44139747e-002
      5.91736436e-002 4.09784801e-002 -1.09045645e-002 -6.17471896e-002
      -1.13709360e-001 -9.47532654e-002 -2.15522759e-002 4.73002680e-002
      7.65367746e-002 1.00744866e-001 5.80904298e-002 -9.12860315e-003
      -6.95837140e-002 -1.14200123e-001 -1.74690023e-001
      -9.43532735e-002 1.42343780e-002 7.75975958e-002 1.16659462e-001
      1.05866492e-001 3.88677716e-002 -4.48064134e-002 -1.55296251e-001
      -1.44034967e-001 -7.32455924e-002 3.73433642e-002 1.33655712e-001
      1.68762103e-001 1.62363127e-001 6.22614138e-002 -5.21518365e-002
      -1.45335183e-001 -7.97195956e-002 -1.92973278e-002 3.43360454e-002
      4.86729853e-002 3.69723365e-002 5.07693319e-003 -3.90437469e-002
      -7.50560090e-002 -9.94629338e-002 -7.46567026e-002
      -1.41350422e-002 4.36443724e-002 3.78157310e-002 2.30396842e-003
      -2.45109275e-002 -3.08582056e-002 -5.34256473e-002
      -7.55283758e-002 -8.58853087e-002 -3.63306478e-002 1.12453960e-002
      5.71139418e-002 8.30390379e-002 6.69895858e-002 1.87382903e-002
      -6.38306662e-002 -1.04741119e-001 -2.49798018e-002
      -8.66592862e-004 1.91768948e-002 1.29597662e-002 -1.67474267e-003
      -2.26088706e-002 -6.01637224e-003 -1.75511762e-002
      -1.46791935e-002 -7.32762963e-002 -7.68462196e-003 4.52133715e-002
      4.25832272e-002 3.30942310e-002 -3.52286175e-003 -2.09215973e-002
      -3.73857170e-002 -6.34349808e-002 -4.38202508e-002
      -9.56682721e-004 3.21164392e-002 3.00560966e-002 1.73062868e-002
      -4.06063572e-002 -5.67137375e-002 -6.18960373e-002
      -5.24789318e-002 1.50422864e-002 2.39873175e-002 3.96766029e-002
      3.39998677e-002 1.61832850e-002 -1.04571003e-002 -1.09045277e-003
      3.79609829e-003 1.62173640e-002 1.34459892e-002 2.56616510e-002
      3.39611061e-002 1.49224168e-002 -1.01477169e-002 -3.79335396e-002
      -2.49451548e-002 -1.93389896e-002 2.83681531e-003 7.35074747e-003
      2.49043498e-002 4.25904468e-002 4.37992141e-002 4.26241234e-002
      -3.15440521e-002 -2.05143858e-002 2.80230632e-003 4.43769572e-003
      -1.26642652e-003 4.33271192e-003 1.76719930e-002 1.15923025e-002
      -5.06812287e-003 -4.25541252e-002 -1.60725508e-002 1.27959149e-002
      -4.96605737e-003 2.29585264e-002 4.19794172e-002 5.39525896e-002
      2.56183930e-002 7.37799238e-003 -1.69294085e-002 2.51394156e-002
      3.26917544e-002 2.11267471e-002 7.53226690e-003 1.89030692e-002
      2.75678709e-002 1.01512717e-002 -1.36582451e-002 -3.36214527e-002
      8.45295936e-003 2.21717022e-002 5.50170941e-003 -1.00041844e-003
      -1.32448459e-003 -6.78709068e-004 3.84077057e-003 -8.92296841e-004
      -1.21373460e-002 -1.10997651e-002 9.13066417e-003 2.64143245e-003
      -8.27688910e-003 -6.12299517e-003 -8.74590501e-003
      -1.73936668e-003 1.61460117e-002 -3.51202092e-003 -1.06580984e-002
      -1.40808104e-002 -7.19119282e-003 5.92521252e-003 1.22410525e-002
      1.50652798e-002 9.11529176e-003 -8.20478331e-003 -2.35762680e-003
      -4.38320829e-004 1.08047202e-002 9.41700023e-003 -2.46777036e-003
      -4.51953500e-004 5.74150681e-003 1.02609303e-002 5.59540093e-003
      1.07915374e-002 2.76861736e-003 -9.10655782e-003 3.76547291e-003
      -1.83999222e-002 -5.89783816e-003 5.92014939e-003 8.95251799e-003
      1.42310625e-002 1.21400962e-002 1.87696074e-003 -3.01092081e-002
      -1.97627116e-002 -1.75789744e-002 -1.06777847e-002 8.59559141e-003
      1.78105868e-002 2.98729278e-002 2.62942836e-002 -1.09180845e-002
      -2.70904303e-002 -2.57722829e-002 -9.86715034e-003 9.45994980e-004
      3.25150625e-003 1.58318169e-002 7.24887941e-003 1.69222709e-002
      9.50861722e-003 -1.53868040e-002 -5.90848178e-003 -1.64547190e-002
      -8.14069342e-003 -1.27602532e-003 2.44625472e-003 1.03653474e-002
      2.16316730e-002 -5.45273768e-003 -1.68155096e-002 -1.08832484e-002
      -1.89235643e-001 -9.31001753e-002 2.11338215e-002 8.24045390e-002
      1.28877208e-001 1.16479620e-001 5.17096482e-002 -1.67433117e-002
      -1.44048274e-001 -1.56539351e-001 -9.06002820e-002 1.97632741e-002
      1.36936277e-001 1.89029396e-001 1.68309048e-001 9.15453508e-002
      -2.05341745e-002 -1.18126459e-001 -1.51917323e-001
      -1.13787584e-001 7.36501580e-003 5.76722808e-002 8.18282440e-002
      7.15016872e-002 4.29183543e-002 1.99228618e-003 -9.25134644e-002
      -1.39616296e-001 -1.19913220e-001 -2.77930815e-002 6.50388375e-002
      1.18291713e-001 1.12663396e-001 6.39495477e-002 -2.21000868e-003
      -8.25118273e-002 -6.93039894e-002 -6.73322454e-002
      -3.13378274e-002 3.09539922e-002 1.03722163e-001 1.12107113e-001
      5.25517054e-002 -2.04030052e-002 -4.67947349e-002 1.05673391e-002
      -2.48747915e-002 -1.81190148e-002 -2.01668218e-002
      -1.32197328e-002 6.49051880e-003 2.86100935e-002 2.23176554e-002
      4.77734804e-002 -1.06564477e-001 -1.37193561e-001 -8.72191340e-002
      -2.29627732e-002 5.42768724e-002 7.56159648e-002 3.22436206e-002
      -1.23282690e-002 -4.03273962e-002 -6.86395615e-002
      -9.78610814e-002 -7.41419122e-002 -5.54855987e-002
      -1.90454815e-002 2.74900813e-002 3.60800102e-002 1.75659489e-002
      -4.03518439e-004 2.95732561e-002 1.06203584e-002 2.93007735e-002
      1.86879076e-002 -5.56889875e-003 -1.78709850e-002 1.79317556e-002
      3.47870700e-002 5.00408374e-002 9.92526393e-003 1.65347587e-002
      1.21890362e-002 -9.14123747e-003 -2.59304866e-002 -7.60481271e-006
      1.02809435e-002 1.80852916e-002 1.94160864e-002 -8.91029090e-002
      -7.53824636e-002 -9.48683545e-003 -4.79933107e-003
      -1.21438624e-002 3.28060566e-003 4.78982814e-002 2.77838744e-002
      -2.68562399e-002 -8.09059218e-002 -7.32279718e-002
      -4.78195846e-002 -3.96122634e-002 -2.63343714e-002 4.09384863e-003
      3.55169922e-002 5.20518050e-003 -4.70380895e-002 2.64008511e-002
      4.62669097e-002 4.27207537e-002 4.43401840e-003 -1.63858756e-002
      1.54203791e-002 5.01595698e-002 3.64067666e-002 2.06779763e-002
      1.61631964e-002 2.27223225e-002 3.18394750e-002 5.72845992e-003
      -3.91209312e-002 -1.15579274e-002 3.28222923e-002 2.29349788e-002
      9.01176501e-003 -7.36473128e-003 2.35815882e-003 -5.30795241e-003
      -1.93179622e-002 -1.53410863e-002 2.72405464e-002 5.78431636e-002
      2.44882293e-002 9.47769731e-003 3.69935879e-003 1.40373465e-002
      6.19074155e-004 -1.27295377e-002 -4.28206511e-002 -2.07555369e-002
      2.78420057e-002 1.27865246e-003 -9.29879956e-003 9.81765892e-003
      1.15780598e-002 2.07553133e-002 1.80501845e-002 -2.65517402e-002
      -1.27449268e-002 2.08553672e-002 1.14325806e-002 9.68703907e-003
      -3.36752902e-003 -5.62040186e-005 1.45643679e-002 1.52070168e-002
      -1.08572580e-002 1.67719107e-002 2.30385251e-002 9.44425724e-003
      5.61139500e-003 1.76234788e-003 2.15541981e-002 1.70548484e-002
      -1.85476616e-003 -2.51284149e-002 -2.35742927e-002 7.77971512e-003
      -8.53961427e-003 -1.20931827e-002 -2.50651431e-003 1.84304584e-002
      1.45135832e-003 -1.14329520e-003 -1.68329570e-002 1.20668369e-003
      1.08679300e-002 1.00882619e-003 -2.64112139e-003 -8.50253459e-003
      2.06944370e-003 -2.20938143e-003 5.25396178e-003 1.05148135e-003
      1.93260722e-002 1.89784635e-002 8.75926577e-003 1.16864219e-003
      -1.24051590e-002 -1.00841261e-002 -4.95439023e-003 3.38489306e-003
      9.37877595e-003 1.87636428e-002 3.86871910e-003 -5.81459701e-003
      -1.14705954e-002 -6.44670194e-003 6.12971326e-003 4.20839805e-003
      -3.80094745e-003 6.53512368e-004 7.70658487e-003 1.50190797e-002
      7.21905334e-003 -3.05218123e-006 -1.40852891e-002 -1.21828576e-003
      1.61199421e-002 1.24090286e-002 8.50168057e-003 4.40903893e-003
      4.24215337e-003 -7.50821899e-004 -1.23007940e-002 -9.81968343e-002
      -8.76540095e-002 7.43231457e-003 5.10736778e-002 5.80177307e-002
      6.29941896e-002 5.93760535e-002 4.37048487e-002 -1.62180569e-002
      -9.68076363e-002 -9.93358567e-002 -2.75724381e-002 3.97235639e-002
      7.76123926e-002 8.37080479e-002 7.45241418e-002 4.36931029e-002
      -8.41969531e-003 -7.36575574e-002 -7.34383240e-002
      -1.30290594e-002 1.84735507e-002 3.11613400e-002 3.51505987e-002
      3.59863341e-002 3.94444689e-002 1.80468650e-003 -5.76142557e-002
      -6.37677833e-002 -3.09789032e-002 -2.24428042e-003 2.25034151e-002
      3.54668908e-002 5.72182238e-002 4.78180423e-002 1.40495719e-002
      -8.62776935e-002 -1.07810631e-001 -7.39781484e-002
      -2.12386772e-002 5.29289693e-002 8.70289654e-002 6.54890314e-002
      2.15662606e-002 -7.26341223e-003 -5.89460880e-002 -7.34013990e-002
      -4.82534356e-002 -2.97970697e-002 2.92822961e-002 5.06578051e-002
      5.01141623e-002 2.90735252e-002 1.33341155e-003 -5.03554642e-002
      -6.87090755e-002 -5.74351139e-002 -4.04880419e-002
      -5.21971053e-003 2.02471633e-002 3.93963605e-002 1.88512318e-002
      -5.30702993e-004 -2.19331309e-002 -2.90475693e-002
      -2.37664506e-002 -2.99607161e-002 -1.51239533e-003 2.44524572e-002
      1.96019020e-002 9.74417198e-003 6.00143708e-003 -7.57156312e-002
      -2.86523066e-002 2.85675805e-002 1.74189340e-002 3.02657597e-002
      5.00575081e-002 5.46157621e-002 1.38277840e-002 -1.86352599e-002
      -6.38988540e-002 -4.09217924e-002 -1.09463639e-003
      -1.33742834e-003 1.65348649e-002 3.13821025e-002 2.44997628e-002
      -4.29853768e-004 -2.09606458e-002 -1.68402549e-002 2.60395603e-003
      2.08922196e-002 1.02067981e-002 1.99094228e-003 1.02428487e-002
      -1.64414626e-002 -2.94991452e-002 -7.73646170e-003
      -2.75539309e-002 -1.08645856e-002 -7.12975161e-003
      -1.53365228e-002 -1.48089323e-002 -1.66325597e-003
      -2.15545520e-002 -2.41620764e-002 -2.42043845e-002 1.13528327e-003
      1.86773147e-002 1.86623062e-003 -1.01525616e-002 3.21847619e-003
      2.45235283e-002 2.76871771e-002 1.36138462e-002 2.27188338e-002
      2.04221206e-003 2.58795638e-002 -8.66113044e-003 -8.04761145e-003
      -2.51284055e-002 9.48630564e-004 1.15767634e-002 -1.08199043e-003
      -6.56889938e-003 -4.19211434e-003 1.78168379e-002 1.18667667e-003
      -3.09514720e-002 -5.15734265e-003 8.62182863e-003 1.13627650e-002
      1.44871688e-002 7.75454938e-003 -2.48209946e-002 6.79303473e-003
      -1.47642680e-002 -1.91600956e-002 1.87938870e-003 6.81506144e-003
      2.99088843e-003 1.04661360e-002 -2.06947569e-002 5.59781771e-003
      2.45707966e-002 -4.39892802e-003 -6.06712746e-003 -1.93888899e-002
      -5.19325351e-003 2.72267993e-004 -1.82800007e-003 -9.44653619e-003
      9.25417617e-003 1.71801075e-002 6.31978037e-003 7.85006676e-003
      -1.00422679e-002 4.22524847e-003 4.01800638e-003 -8.40724970e-004
      1.91716175e-003 -1.48497457e-002 -8.75876099e-003 -2.36840155e-002
      -1.14037786e-002 -5.43904537e-003 3.45727196e-003 4.71217418e-003
      2.23665778e-002 -1.01751834e-002 2.11947188e-002 1.40104592e-002
      1.25726741e-002 1.03258500e-002 -9.24943294e-003 -1.94078404e-002
      3.69745772e-004 1.11613339e-002 1.99687704e-002 4.16759215e-003
      1.27184186e-002 1.63865257e-002 1.10820569e-002 5.05185053e-005
      -1.05822552e-002 -1.76876943e-004 -5.27235586e-003
      -7.86886842e-004 -4.43336600e-003 1.09917158e-002 2.86018401e-002
      2.20142324e-002 5.43515198e-003 -8.61220248e-003 -2.16065906e-003
      -9.23558418e-003 -9.40095354e-003 2.31280625e-002 2.36930177e-002
      2.08393317e-002 1.06905187e-002 -1.95705667e-002 -3.68047431e-002
      -1.68022383e-002 -4.34662960e-003 8.72248970e-003 1.13449013e-002
      2.96590105e-002 3.48653868e-002 9.74982791e-003 -9.60644428e-003
      -2.29390673e-002 -1.13690495e-002 -4.48217569e-003
      -1.22273830e-003 -2.61691548e-002 -3.62299271e-002
      -5.83791547e-003 4.03313934e-005 1.00813024e-002 1.06686298e-002
      1.58152860e-002 2.29852013e-002 2.14288710e-004 -1.02354810e-002
      -2.59764679e-002 -1.76184624e-002 -1.88637488e-002
      -1.43170282e-002 -9.10458714e-003 3.94094735e-002 5.05969524e-002
      2.86711957e-002 1.31079806e-002 5.97765378e-004 3.74725391e-003
      6.86978549e-003 -5.49919251e-003 7.18093151e-003 1.28717348e-002
      1.06173670e-002 1.05949864e-002 1.92980152e-002 1.24191027e-002
      1.36536767e-003 -1.21941753e-002 -2.37965882e-002 -1.35654379e-002
      2.35885195e-002 3.55381481e-002 3.91021185e-002 -4.74548014e-003
      -1.97595209e-002 -2.64557786e-002 -2.83485427e-002
      -2.88037751e-002 -1.65769793e-002 3.39598581e-002 4.30085696e-002
      2.25775074e-002 2.34658625e-002 1.06595177e-002 8.28371674e-004
      -7.80173112e-003 -1.35348504e-002 -7.43828015e-003 1.15711261e-002
      2.23506577e-002 3.57698686e-002 1.74769908e-002 1.98529894e-003
      -1.42648434e-002 -2.85699870e-002 -3.45525444e-002
      -3.68933901e-002 -1.00088562e-003 2.37975065e-002 2.69218795e-002
      3.55659351e-002 2.66937390e-002 -2.42616003e-003 -2.27775183e-002
      -3.50158103e-002 -3.05988751e-002 4.24104184e-003 1.90912411e-002
      3.36007141e-002 2.09341850e-002 2.28775479e-002 1.71021018e-002
      1.03611154e-002 -1.92752946e-002 -2.13092826e-002 -1.44906584e-002
      5.12216357e-005 1.94089022e-002 6.32040529e-003 9.41614562e-004
      -8.65479745e-003 -8.12486187e-003 -1.55089246e-002
      -1.48851303e-002 -2.02241130e-002 -7.08329072e-003 3.75012867e-003
      3.20103206e-002 3.44763212e-002 6.67810347e-003 -1.46991797e-002
      -4.59933206e-002 -4.47601080e-002 -3.38119850e-003 1.64475255e-002
      3.32246386e-002 1.73172466e-002 2.05252096e-002 2.45220354e-003
      -2.10004449e-002 -3.31564099e-002 -3.25134657e-002
      -1.37349758e-002 9.65454802e-003 2.44720709e-002 -2.24958640e-002
      -1.27071515e-002 -2.18636431e-002 -2.32787058e-002
      -8.46574828e-003 9.57597746e-004 -3.84564250e-004 1.00052054e-003
      -1.43980496e-002 -3.10051925e-002 -1.55883152e-002
      -2.31341682e-002 -1.83678195e-002 2.56467611e-003 8.11871327e-003
      -9.95052746e-004 9.49969143e-003 -2.37628296e-002 9.98024642e-003
      5.98804839e-003 -8.10822658e-003 -9.27318260e-003 -3.95065965e-003
      -2.09978339e-003 -2.00455682e-003 9.65727121e-003 2.13237200e-002
      8.65257811e-003 4.92970366e-003 -7.83427246e-003 -1.04530165e-002
      1.80171384e-003 7.29935011e-003 6.95044035e-003 1.25283916e-002
      8.83410126e-003 -1.49354907e-002 -1.36975097e-002 -2.25551352e-002
      -2.00595316e-002 -1.81156304e-002 -5.54011948e-003 1.31868105e-003
      1.84056349e-002 -5.86834364e-003 2.93426532e-002 2.39304919e-002
      1.75905332e-003 -1.24866823e-002 -4.16796468e-002 -4.58023809e-002
      -2.99061160e-003 2.13178433e-002 3.55465561e-002 1.58299152e-002
      2.22269092e-002 -6.84549392e-004 -1.59585010e-002 -1.91813856e-002
      -1.27717471e-002 5.52275591e-003 1.59704331e-002 8.47979914e-003
      4.60535549e-002 4.43947688e-002 1.77175626e-002 -2.01478880e-002
      -3.85004058e-002 -3.94055881e-002 1.20483432e-002 2.90361065e-002
      3.79075482e-002 3.97715271e-002 3.78846228e-002 2.01849416e-002
      -1.50422323e-002 -5.30291200e-002 -5.63934073e-002
      -1.81315765e-002 8.45239125e-003 2.52640545e-002 2.34194752e-002
      3.71235795e-002 2.68107839e-002 -1.26712658e-002 -2.67832521e-002
      -2.65092384e-002 -6.30933465e-003 8.19172058e-003 1.55898510e-002
      4.50182408e-002 4.01952006e-002 1.92976054e-002 -2.75521893e-002
      -4.63000759e-002 -4.75330465e-002 4.66482015e-003 3.20496559e-002
      4.06752974e-002 4.38734517e-002 3.50004323e-002 1.86017640e-002
      -2.24008448e-002 -3.32266688e-002 -2.40774751e-002 1.35198038e-003
      2.53252070e-002 3.46821621e-002</_>
    <_>
      -2.93447431e-002 1.71058606e-002 3.74178700e-002 3.23802382e-002
      3.51521908e-003 2.21048971e-003 -5.43279806e-003 -1.48143563e-002
      -2.88024414e-002 -2.06367783e-002 8.66592675e-003 4.71979938e-002
      4.74122986e-002 1.23399841e-002 1.85225904e-002 1.02242082e-003
      -3.22826952e-003 -1.59637574e-002 -2.43661013e-002 2.05918159e-002
      5.09794466e-002 5.63782267e-002 1.88251454e-002 8.58476106e-003
      5.88038377e-003 -3.44580691e-003 -2.22395174e-002 3.38192633e-003
      8.00404139e-003 4.85791117e-002 5.13027683e-002 2.49376390e-002
      3.11975759e-002 1.22474991e-002 1.85840335e-002 3.50483251e-003
      -4.23356779e-002 -1.85745489e-002 1.55663425e-002 1.79373045e-002
      -6.07487606e-003 -7.05081644e-003 -1.57924201e-002
      -2.26085465e-002 -4.62418124e-002 -2.48939972e-002 1.53743131e-002
      3.17975320e-002 2.55553201e-002 -1.14622945e-002 -1.95319206e-002
      -3.67504917e-002 -2.64826547e-002 -4.14281040e-002 3.12933349e-003
      1.54284090e-002 5.35457879e-002 4.70874123e-002 6.76735165e-003
      2.96830619e-003 1.03087723e-002 1.76151451e-002 7.56096188e-003
      6.40871525e-002 9.02569667e-002 8.86883587e-002 6.95211291e-002
      5.63159306e-003 -5.55727864e-003 1.16488580e-002 3.62713486e-002
      4.88476567e-002 -1.60082560e-002 2.60457378e-002 9.66463704e-003
      -4.78372257e-003 -4.14401107e-002 -4.94229086e-002
      -7.87480995e-002 -6.28996491e-002 -4.51343469e-002 2.47861203e-002
      2.60072686e-002 1.81931667e-002 3.26534212e-002 -1.37198158e-002
      -4.02999260e-002 -6.20597862e-002 -3.86659577e-002 6.41622348e-003
      1.06496222e-001 1.08615249e-001 6.12421744e-002 2.73258910e-002
      -3.74516100e-002 -3.26334089e-002 1.41964285e-002 5.27672507e-002
      8.09128806e-002 1.13560565e-001 9.44475830e-002 6.10631704e-002
      3.36940251e-002 -1.76794361e-003 -7.85262231e-003 3.92383412e-002
      6.42522275e-002 1.02152124e-001 9.20264795e-003 6.71687396e-003
      1.31976511e-002 3.78534906e-002 -2.48106886e-002 -5.55633940e-002
      -4.18371037e-002 -2.02562734e-002 1.36271659e-002 2.39368435e-002
      1.82648767e-002 2.07430385e-002 9.65160225e-003 -7.82869160e-002
      -8.51442888e-002 -1.83207002e-002 1.14001492e-002 2.99513713e-002
      8.16669464e-002 6.07515462e-002 4.14154604e-002 4.01774533e-002
      -1.30502246e-002 -4.50964225e-003 9.61856246e-002 9.30601656e-002
      1.10321999e-001 7.32494816e-002 5.04985973e-002 1.52638191e-002
      -8.85046087e-003 -5.97348735e-002 -7.37294648e-003 1.05316557e-001
      1.16933279e-001 1.12341352e-001 3.57641540e-002 2.73506772e-002
      3.19917165e-002 2.02659443e-002 -7.77929798e-002 -6.36751279e-002
      2.68371049e-002 4.45530042e-002 4.42355648e-002 6.82510436e-003
      1.40352612e-002 3.14312503e-002 2.90474836e-002 -4.69887592e-002
      -2.82641891e-002 3.48609537e-002 3.49850692e-002 1.88966393e-002
      5.25167249e-002 3.74995396e-002 3.55637190e-003 -1.11605087e-002
      -6.74277917e-002 1.56455711e-002 1.23551808e-001 1.08527608e-001
      9.85211805e-002 -2.84828478e-003 1.16897216e-002 9.57866572e-003
      1.74192656e-002 -2.26339232e-002 4.19194251e-002 8.35467726e-002
      5.53320087e-002 3.47165503e-002 1.12047291e-003 1.40748378e-002
      2.92294752e-002 4.16547656e-002 -1.27722556e-002 -1.43483290e-002
      3.17755267e-002 4.65943180e-002 2.04317253e-002 -6.53780706e-004
      1.69215314e-002 3.03132851e-002 4.92230207e-002 -1.03482231e-002
      -1.80825647e-002 2.76748035e-002 4.54794765e-002 3.32274027e-002
      6.02601795e-003 2.79973745e-002 2.75504496e-002 4.22544330e-002
      1.50147928e-002 2.81028934e-002 5.96394613e-002 3.93351354e-002
      1.84180029e-002 4.17312281e-003 2.77655032e-002 2.87646372e-002
      5.58624938e-002 6.89643063e-003 -6.91038184e-003 1.46060111e-002
      8.77700839e-003 1.39711052e-002 -3.71359773e-002 -1.87167861e-002
      1.15696248e-002 2.49419399e-002 -1.76473446e-002 -3.32920700e-002
      -1.66238826e-002 5.73914591e-003 -2.22722609e-002 -9.77612101e-004
      1.11281211e-002 4.88165580e-002 5.92670999e-002 1.00420760e-002
      -6.28774462e-004 -1.23891728e-002 7.82440603e-003 -3.84111539e-003
      -2.79505998e-002 -2.80312318e-002 -5.88348415e-003 3.65546532e-002
      2.27071121e-002 -8.84711742e-003 -1.42882727e-002 2.17196010e-002
      -5.12959389e-003 -3.01167113e-003 2.63608694e-002 6.85625970e-002
      1.01150937e-001 7.28774741e-002 2.13361476e-002 -1.19135985e-002
      6.80845510e-003 2.31934362e-003 -3.38994972e-002 -1.98421385e-002
      1.72039438e-002 -1.13109881e-002 -7.30606094e-002 -9.36190113e-002
      -6.38094619e-002 -3.78419384e-002 -2.80385409e-002 3.88180725e-002
      6.29496649e-002 6.05881847e-002 2.03742739e-002 -7.90704340e-002
      -9.28813517e-002 -2.86181998e-002 1.99941602e-002 3.51036265e-002
      -1.25072636e-002 2.76706852e-002 6.70394152e-002 7.66428187e-002
      -4.45487723e-003 -7.85199031e-002 -6.68113232e-002
      -4.52870876e-002 -2.61400901e-002 6.97354227e-002 8.06557313e-002
      7.65695721e-002 5.37134558e-002 -3.32209803e-002 -5.72391972e-002
      -2.07424928e-002 1.76024809e-002 4.61871848e-002 3.80484872e-002
      2.92032361e-002 -1.17103886e-002 -3.65827978e-002 -1.00337252e-001
      -8.27030614e-002 9.88501590e-003 4.63336371e-002 3.75337340e-002
      -2.08387035e-003 -2.87427530e-002 -6.93311542e-002
      -5.63980378e-002 -6.58714399e-002 -2.28061806e-002 5.36549427e-002
      3.12240683e-002 1.42514901e-002 3.69167589e-002 6.45378372e-003
      -8.96626245e-003 -1.34453885e-002 -5.54617643e-002
      -1.96861606e-002 3.63151841e-002 4.94462550e-002 4.20106575e-002
      -3.22180614e-002 -5.24630956e-002 -6.11687042e-002
      -3.73822898e-002 -2.53925491e-002 1.26095777e-002 4.49592397e-002
      3.30045633e-002 2.47132988e-003 -2.82129850e-002 -2.78795771e-002
      -3.93062569e-002 -1.99315809e-002 -4.13311198e-002 1.31758861e-002
      9.76788253e-002 4.94155362e-002 -2.02791672e-003 -3.67234536e-002
      -4.19146940e-002 -5.73779158e-002 -6.64356798e-002
      -1.06775656e-001 -9.31805372e-003 1.11420505e-001 7.39910230e-002
      -2.12465832e-003 -4.41167913e-002 -4.75794971e-002
      -3.58480811e-002 -7.33016618e-003 9.12819337e-003 6.05390109e-002
      9.69956294e-002 2.98797973e-002 -2.48852074e-002 -6.68512061e-002
      -7.59553388e-002 -6.55685589e-002 -6.75494224e-002
      -6.01388477e-002 2.44573671e-002 7.76894465e-002 1.68391708e-002
      -4.56177518e-002 -2.94102896e-002 -3.45230065e-002
      -4.90705557e-002 -5.95435128e-002 -9.26734135e-002 4.45224643e-002
      1.64096236e-001 8.37324038e-002 5.83139481e-003 -4.76340763e-002
      -3.74292508e-002 -4.47215922e-002 -4.68745194e-002
      -4.25505042e-002 5.25889955e-002 9.00169313e-002 -1.36360060e-003
      -3.60388644e-002 -5.34742698e-002 -5.68511859e-002
      -6.32197782e-002 -4.65728976e-002 -2.16603726e-002 6.64201751e-002
      1.18261501e-001 2.67124567e-002 -2.98549142e-002 -5.66264801e-002
      -5.62585220e-002 -6.28787279e-002 -4.12504189e-002 9.68499202e-003
      6.05815016e-002 6.50803894e-002 -3.03915665e-002 -5.89124300e-002
      -3.20897816e-004 1.91376302e-002 1.28050465e-002 3.47103402e-002
      2.76248828e-002 6.03636280e-002 6.32156134e-002 -4.15335555e-004
      1.80231163e-003 2.26102187e-003 2.64640301e-002 1.87768452e-002
      2.74743624e-002 8.24135076e-003 7.67594902e-003 -1.10860018e-003
      -1.68806445e-002 -4.80038580e-003 -4.43349127e-003 1.58638414e-002
      1.73267797e-002 5.72907552e-002 5.71544096e-002 4.84841280e-002
      2.78087258e-002 -2.32557077e-002 -1.87705699e-002 1.26321586e-002
      3.03806644e-002 4.58881371e-002 4.40191776e-002 3.63698490e-002
      1.81575883e-002 -1.30620794e-002 -3.53786498e-002 -1.68255456e-002
      -4.15173806e-002 -4.76831384e-002 -3.97708751e-002
      -1.11859171e-002 3.31077538e-003 -2.80344933e-002 -4.95575033e-002
      -1.63512696e-002 -2.83102263e-002 -3.60441878e-002
      -1.14254013e-003 5.55292554e-002 1.15185186e-001 1.00221053e-001
      2.98336651e-002 -1.20117702e-002 -2.16775537e-002 -3.25150825e-002
      -4.11622263e-002 -4.78277467e-002 -3.51555534e-002
      -1.09356139e-002 2.58231699e-003 -2.32406687e-002 -5.18614985e-002
      -2.88012121e-002 -3.76089439e-002 -3.16075012e-002
      -1.07368315e-002 3.76776718e-002 9.35868621e-002 9.52415541e-002
      6.83738142e-002 2.78672464e-002 2.12766859e-003 -2.13604942e-002
      -3.07211410e-002 -1.89677963e-003 3.52150500e-002 7.93399885e-002
      1.03012221e-002 -7.51169175e-002 -7.87942410e-002 -6.58801571e-002
      -4.66530174e-002 2.28993539e-002 3.58248390e-002 2.59341896e-002
      3.82144004e-002 -3.88813540e-002 -5.48194088e-002 -4.10695262e-002
      -3.52785178e-002 6.41262764e-003 -2.74151620e-002 -1.72554124e-002
      -3.55436234e-003 2.64151581e-002 2.97293570e-002 -3.79319838e-003
      -1.83475763e-002 -3.38724926e-002 -2.71552503e-002 2.42143869e-002
      1.48213422e-002 -8.07312783e-003 -2.79318402e-003 -2.43635457e-002
      -2.99831107e-002 -1.78562328e-002 -1.59604568e-002 2.07871404e-002
      9.74847749e-003 -8.87620822e-003 -1.50403818e-002 -2.68222336e-002
      -6.88610300e-002 -1.90133359e-002 2.49053328e-003 -5.98874781e-003
      1.27815697e-002 -3.19418870e-002 -5.44648394e-002 -5.27767055e-002
      -5.05059026e-002 -3.35313901e-002 3.87726887e-003 1.57027468e-002
      -9.76375490e-003 -1.14899734e-002 2.61951052e-002 -5.23902767e-004
      -7.35000847e-003 -3.14233340e-002 -5.05374856e-002
      -1.77681111e-002 -1.78892780e-002 -2.22253893e-002 1.67035293e-002
      -2.79098824e-002 -3.29879597e-002 -2.14901790e-002
      -1.88069940e-002 -2.36625094e-002 -6.87399274e-003
      -1.76914167e-002 -3.94591093e-002 -2.68773697e-002
      -3.72359231e-002 -3.11703719e-002 -2.51113027e-002
      -1.52588356e-002 2.21071336e-002 5.47811687e-002 6.26430288e-002
      -5.74747985e-003 -2.48710625e-002 -6.69694617e-002
      -7.30722025e-002 -6.81424066e-002 -5.53186052e-002
      -1.97127219e-002 2.33907998e-002 3.42386328e-002 -3.76601592e-002
      -5.19589856e-002 -3.98034640e-002 -2.21461635e-002
      -6.05785288e-003 1.66892391e-002 4.64515090e-002 4.04082201e-002
      2.73235664e-002 -2.87818052e-002 -3.90465483e-002 -7.07216486e-002
      -6.90808445e-002 -5.72601743e-002 -7.84203317e-003 2.75747739e-002
      1.29173265e-003 6.36502728e-003 -5.57764210e-002 -6.05296046e-002
      -5.68192042e-002 -6.47408739e-002 -6.57541379e-002
      -2.05384921e-002 9.37350653e-003 6.22888729e-002 5.12225218e-002
      -3.28917429e-002 -4.17113975e-002 -6.24567606e-002
      -6.67570680e-002 -7.24149644e-002 -2.38188393e-002 2.65377387e-002
      5.35699613e-002 2.44716182e-003 -5.87765016e-002 -6.21297359e-002
      -5.50896972e-002 -6.44814745e-002 -4.12154607e-002 3.79433185e-002
      5.75374253e-002 2.68672351e-002 2.22329833e-002 -4.40093093e-002
      -4.14293930e-002 -5.91569655e-002 -6.86344802e-002
      -5.27409427e-002 2.62624267e-002 4.99337316e-002 8.58016964e-003
      -3.00584305e-002 -6.82851970e-002 -5.33598624e-002
      -2.29218435e-002 -1.08127296e-002 -6.77712727e-003 4.93033752e-002
      5.57230115e-002 5.98008111e-002 -7.17293797e-003 -4.30937521e-002
      -2.46339589e-002 -1.09166848e-002 5.79865323e-003 7.34708179e-003
      2.29749549e-002 1.67979486e-002 -2.75296276e-003 -4.25568298e-002
      -3.99009921e-002 -3.35224010e-002 -2.08397787e-002
      -2.39975490e-002 -8.41486920e-003 7.48438165e-002 6.74139485e-002
      3.23585533e-002 -1.33241666e-002 -2.86935885e-002 -1.13014197e-002
      -1.84041932e-002 -1.46008721e-002 -2.14399165e-003 3.08240317e-002
      2.74910573e-002 -3.81280202e-003 -3.38474587e-002 -2.66777277e-002
      -1.31206801e-002 -3.37815545e-002 -3.22791636e-002
      -1.90012157e-002 -8.55464768e-003 9.59215278e-004 -3.30689214e-002
      -3.93104553e-002 -1.61526036e-002 -3.07503566e-002
      -2.36985143e-002 -1.14406375e-002 2.72847116e-002 8.48455429e-002
      8.91111121e-002 7.94079378e-002 5.29951230e-002 2.44228896e-002
      -9.70323943e-003 -2.05465723e-002 -2.42974609e-002
      -2.43681353e-002 -2.30389647e-002 -2.26821844e-002
      -4.57707681e-002 -5.20321652e-002 -2.32375413e-002
      -2.67203692e-002 -1.99111830e-002 -1.58121623e-002
      -1.13513239e-003 4.47341837e-002 5.79724237e-002 5.07030226e-002
      3.15796323e-002 5.42357098e-003 -1.73737630e-002 -2.44915057e-002
      -2.73377486e-002 -3.23330015e-002 -2.59404872e-002 3.69868316e-002
      4.71527874e-002 1.37725258e-002 -1.36630526e-002 -9.26560536e-003
      3.28724645e-002 4.81531722e-003 -2.30644699e-002 -4.91730720e-002
      4.05142899e-004 1.90547649e-002 1.40980482e-002 7.85551872e-003
      4.11258191e-002 -5.39727621e-002 -6.62961677e-002 -7.30363876e-002
      -7.49122426e-002 2.90581118e-003 4.45468463e-002 9.35354829e-003
      -3.22189629e-002 -3.53639908e-002 4.97518480e-003 -2.50440314e-002
      -5.61166517e-002 -8.97091329e-002 -1.97962057e-002 3.30606885e-002
      3.27916257e-002 3.89098423e-003 2.05576569e-002 3.30238156e-002
      1.13036893e-002 3.03852814e-003 -2.87739895e-002 -3.61286774e-002
      -1.34145897e-002 -2.74454225e-002 -2.21979562e-002 2.87157726e-002
      -1.41263837e-002 3.60965496e-003 1.79687645e-002 -1.45483366e-003
      -2.44255625e-002 -2.40748264e-002 -4.09330018e-002
      -5.39408997e-002 -2.18058825e-002 1.03053506e-002 8.71693715e-003
      -2.26130849e-003 -3.85111608e-002 -4.96656150e-002
      -2.01107673e-002 -2.08008606e-002 -3.32309715e-002
      -3.97572108e-003 -2.81470418e-002 -2.74414057e-003 1.87561829e-002
      4.60165134e-003 -2.32412219e-002 -4.88436706e-002 -6.73807487e-002
      -8.84573981e-002 -4.42694239e-002 -2.88030822e-002 2.81830877e-003
      1.99253894e-002 4.40939143e-002 3.62994485e-002 1.54678840e-002
      1.01313768e-002 -3.48348916e-002 -4.20881733e-002 -5.30710779e-002
      -4.53261733e-002 -2.26408821e-002 3.40073071e-002 3.36525142e-002
      -1.91142838e-002 -1.57772303e-002 -5.38610518e-002
      -5.87338544e-002 -3.74712385e-002 -2.31597554e-002 3.18594687e-002
      6.10129870e-002 1.74936261e-002 -2.03037709e-002 -1.26360459e-002
      -6.15979619e-002 -5.49816675e-002 -5.82965612e-002
      -5.52430972e-002 1.46773141e-002 5.36517687e-002 4.88614244e-003
      -6.18017428e-002 -6.07291609e-002 -7.33965710e-002
      -6.89853355e-002 -4.54045497e-002 -5.25436252e-002
      -2.80424277e-003 8.69580954e-002 6.13799095e-002 -1.79314185e-002
      -1.77854076e-002 -4.77528572e-002 -3.93395647e-002
      -5.72989509e-002 -6.89902157e-002 -1.88406799e-002 8.00443441e-002
      5.35080433e-002 -2.58009154e-002 -3.71514000e-002 -6.91853762e-002
      -5.22261523e-002 -5.63262068e-002 -5.74287362e-002 6.47346079e-002
      1.24066576e-001 3.51882465e-002 -7.15351179e-002 -6.61701113e-002
      -6.22313432e-002 -5.12494482e-002 -7.02494308e-002
      -6.16864264e-002 3.98786478e-002 1.17815785e-001 1.90086849e-002
      -9.01883841e-002 -8.32630247e-002 -8.33248496e-002
      -6.00558557e-002 -1.96569711e-002 -2.07895450e-002 1.34381140e-002
      9.72563997e-002 6.87131733e-002 9.77228861e-003 -2.04500444e-002
      -1.94758251e-002 -1.12354876e-002 -2.88787745e-002
      -2.89882086e-002 -1.44046051e-002 5.22547588e-002 3.14592421e-002
      -2.96527818e-002 -3.88087258e-002 -1.84510127e-002
      -1.58773437e-002 -2.47711129e-002 -1.16847083e-002 4.55429293e-002
      1.16647638e-001 4.62769791e-002 -2.31205225e-002 -2.65133306e-002
      -2.71759648e-002 -8.07594042e-003 -4.24154028e-002
      -9.04497318e-003 2.09297277e-002 7.64862224e-002 2.50533707e-002
      -4.19651158e-002 -3.73990834e-002 -3.82854743e-003
      -1.40594281e-002 7.20003620e-003 6.38145534e-003 -5.87773835e-003
      7.97890010e-004 -1.29377805e-002 -3.41302603e-002 -1.92917567e-002
      1.38732390e-002 9.95853450e-004 5.57263289e-003 1.42225316e-002
      9.22008883e-003 3.75436768e-002 3.82642113e-002 1.73220541e-002
      2.61979178e-002 3.86737287e-002 4.34612436e-003 1.03422964e-003
      8.11324827e-003 -3.14393808e-004 -4.38380009e-003 -6.00369065e-004
      -2.86908075e-002 -2.81456150e-002 1.27639528e-002 3.14917322e-003
      8.22977629e-003 1.25662014e-002 8.46495852e-003 1.31918229e-002
      1.89441908e-002 1.14561040e-002 1.13591840e-002 4.45267782e-002
      4.80067637e-003 -2.08830293e-002 -3.58288176e-002 -4.78660539e-002
      -4.17887084e-002 2.55861785e-003 5.30393235e-002 5.41826189e-002
      2.20888946e-002 -9.02783033e-003 3.58490236e-002 2.84931797e-004
      -2.97089368e-002 -6.04980178e-002 -2.77704996e-004 6.90836161e-002
      9.83961672e-002 7.70127997e-002 5.47624752e-002 -4.54714820e-002
      -4.88708466e-002 -5.10664172e-002 -6.27906919e-002
      -5.89387268e-002 -2.45704949e-002 1.82649854e-003 7.78655382e-003
      -2.68979594e-002 -2.22611870e-003 -2.13181041e-002
      -4.01429422e-002 -6.46454394e-002 -4.80737276e-002 2.88029425e-002
      6.25526384e-002 6.27257749e-002 2.82753203e-002 3.16918269e-002
      3.76671143e-002 2.42116675e-002 -2.70436890e-002 -4.34189811e-002
      5.06076217e-003 3.80225293e-002 2.31456254e-002 1.59316827e-002
      1.51568288e-002 3.46143767e-002 5.40720336e-002 2.62804255e-002
      -1.05157662e-002 -4.40302901e-002 -3.92550267e-002
      -3.27079482e-002 -4.50826390e-003 1.31775439e-003 -1.41001157e-002
      -1.43156238e-002 -4.93644550e-002 -8.56431201e-002
      -4.60350364e-002 -2.20411224e-003 2.53888238e-002 1.78856011e-002
      2.50117090e-002 1.02373539e-002 2.05234047e-002 -1.35639543e-002
      -6.75632209e-002 -7.81802163e-002 -6.14388697e-002 1.96574535e-003
      2.36031506e-002 4.18453384e-003 1.17113292e-002 7.50626624e-002
      8.88534337e-002 1.38496133e-002 -3.19350101e-002 -1.71638131e-002
      -3.20585854e-002 -1.47950556e-002 -3.56759541e-002
      -1.36097167e-002 5.14518023e-002 8.97510350e-002 -2.33169980e-002
      -6.91840351e-002 -5.60479984e-002 -4.91306521e-002
      -3.64362672e-002 1.38743771e-002 6.19402993e-003 3.95651087e-002
      2.86672767e-002 -3.33246440e-002 -5.70444427e-002 -3.98326144e-002
      -5.83703443e-003 1.95685383e-002 3.67269677e-004 1.50606530e-002
      2.72488296e-002 5.34815863e-002 -3.24586071e-002 -8.87319520e-002
      -6.30375147e-002 -2.44336464e-002 2.31992430e-003 -3.95136550e-002
      -1.01011491e-003 9.89889279e-002 1.35548711e-001 8.53816699e-003
      -7.88446814e-002 -5.75991310e-002 -4.10112031e-002
      -3.16810422e-002 -4.31911014e-002 -2.39265934e-002 9.63056758e-002
      1.33448660e-001 -1.08647626e-002 -8.82551223e-002 -6.66966438e-002
      -5.21043949e-002 -3.84343006e-002 2.17269920e-002 4.65762131e-002
      7.84546509e-002 8.85540992e-002 -3.20542343e-002 -7.82607868e-002
      -4.51672263e-002 -8.09502136e-003 2.07220647e-003 -1.04888743e-002
      1.41557297e-002 7.68027604e-002 8.31879601e-002 -4.05983068e-002
      -8.55627432e-002 -6.02438003e-002 -3.39928865e-002
      -2.18458325e-002 -4.12223453e-004 1.26043726e-002 7.37271756e-002
      9.78461355e-002 1.04901912e-002 -4.01561335e-002 -1.73189528e-002
      -5.42930374e-003 1.53131131e-002 -2.23734006e-002 1.73458736e-003
      3.57446708e-002 6.33210018e-002 1.65397348e-003 -3.85470986e-002
      -2.10028253e-002 5.63913956e-003 -4.34251997e-004 7.53922062e-003
      1.76096559e-002 5.69645166e-002 8.06999877e-002 -1.57185122e-002
      -4.55949754e-002 -1.73060670e-002 1.03975991e-002 2.07999814e-002
      -3.47925839e-003 2.13448331e-003 1.77567508e-002 2.91882399e-002
      -1.06609492e-002 -3.75284888e-002 -9.75245610e-003 2.44847685e-002
      1.98229346e-002 -8.38770159e-003 7.10847415e-003 1.08060101e-002
      1.92625634e-002 1.50427725e-002 8.15458247e-004 -2.22701170e-002
      1.16714193e-002 -1.24239991e-003 -1.34951230e-002 -4.05734591e-003
      1.10833896e-002 2.03247406e-002 1.36474147e-002 8.07627756e-003
      1.56845804e-003 3.26101668e-002 1.92016456e-003 -3.24424729e-002
      -1.64610129e-002 6.92732166e-003 3.66978310e-002 2.05633771e-002
      3.16354148e-002 -5.64880995e-003 1.11301756e-002 -1.27961151e-002
      -1.87660549e-002 -1.74201913e-002 1.81121547e-002 3.99321988e-002
      1.97766908e-002 3.45553569e-002 -2.74733896e-003 1.91255175e-002
      -8.27845000e-003 -2.46941596e-002 -1.62272565e-002 5.31090610e-003
      8.83733761e-003 -3.80676403e-003 1.21119870e-002 4.03011069e-002
      5.50189391e-002 9.72054712e-003 2.09653620e-002 8.81469576e-004
      1.84545033e-002 1.48763377e-002 9.75991320e-003 2.73699462e-002
      5.83818704e-002 8.70437175e-002 5.94433956e-002 -3.04689556e-002
      -3.16766873e-002 1.50602758e-002 2.71674674e-002 4.00225492e-003
      8.08125548e-003 -8.69459938e-004 3.00525352e-002 -1.70405791e-003
      -6.98508276e-003 -2.60937084e-002 5.48465969e-003 1.56328529e-002
      1.44433568e-003 2.91358377e-003 1.31340453e-003 5.07787615e-002
      1.43340705e-002 4.00170833e-002 5.16196806e-003 3.29193100e-002
      2.75404155e-002 -9.77275893e-003 -7.06278370e-005 4.38698083e-002
      8.31896141e-002 7.95371979e-002 6.39576614e-002 1.94640849e-002
      2.91356165e-002 5.12861051e-002 1.72395445e-002 7.09863193e-003
      3.12121622e-002 8.19663256e-002 9.20013413e-002 -1.69198271e-002
      -4.27561961e-002 -2.01303326e-002 1.21724454e-003 -2.62550469e-002
      -3.35269533e-002 -1.60193350e-002 3.06302160e-002 8.21143761e-003
      -2.10414417e-002 -4.66006845e-002 -3.25091444e-002 9.73204616e-004
      6.38481881e-003 4.49578092e-003 4.30514687e-004 2.92928293e-002
      1.00333849e-002 4.68463637e-002 7.80168595e-003 1.59247909e-002
      5.50737455e-002 3.33823338e-002 2.24155560e-002 3.16529423e-002
      6.27729073e-002 6.95227757e-002 6.05427325e-002 1.70524083e-002
      2.40623150e-002 5.00001386e-002 2.47369166e-002 1.50741432e-002
      1.59821305e-002 5.32654822e-002 6.98912367e-002 -3.27048190e-002
      -6.80803880e-002 -5.80582060e-002 2.86722556e-003 2.11719852e-002
      3.15012597e-002 1.22376559e-002 1.56535823e-002 -4.74555697e-003
      -2.08814740e-002 -5.39612882e-002 -3.86222862e-002 7.12543726e-003
      2.04835441e-002 2.74475161e-002 1.83849428e-002 1.62666552e-002
      3.16551508e-004 5.83350435e-002 4.40922342e-002 5.11831529e-002
      5.40150180e-002 -4.60555137e-004 -1.95198774e-003 1.37449140e-002
      4.83477004e-002 6.04794137e-002 3.57652381e-002 3.66323330e-002
      5.01004569e-002 6.48217052e-002 -1.64858662e-002 -1.64586287e-002
      -4.27773036e-003 1.49917081e-002 2.35460252e-002 -3.77270370e-003
      -1.72226634e-002 -1.40251331e-002 1.46833071e-002 -1.57938600e-002
      -3.60349170e-003 2.40932629e-002 2.43111532e-002 1.57314129e-002
      8.49559810e-003 8.76855385e-003 3.17539135e-003 -9.33351368e-003
      -3.21330875e-002 -1.62233654e-002 -6.31973706e-003 1.25269499e-003
      5.40728448e-003 2.29370296e-002 3.60492580e-002 4.47579473e-002
      5.30490838e-002 -7.07954401e-003 -1.51920067e-002 -9.51279234e-003
      1.76595300e-002 2.42334530e-002 3.67391892e-002 3.14195529e-002
      2.60428321e-002 1.55138513e-002 -6.06461009e-003 -2.66430601e-002
      -7.53014116e-003 3.33058573e-002 4.55229618e-002 2.39104275e-002
      2.28451900e-002 1.97429657e-002 -8.10639840e-003 -2.71872170e-002
      -2.85981931e-002 -2.00748984e-002 1.22366822e-003 1.78235136e-002
      5.32975942e-002 3.30837034e-002 1.90775730e-002 -1.26109030e-002
      -3.58225368e-002 -4.65087891e-002 -4.68420796e-002 1.52962767e-002
      3.90738696e-002</_>
    <_>
      -3.62871625e-002 -1.34213241e-002 -4.57349187e-003 4.72186570e-004
      2.25380771e-002 3.62182707e-002 1.76592190e-002 3.39177460e-003
      -3.17437239e-002 -3.80396731e-002 -2.63668317e-002
      -1.08657964e-002 -4.04636085e-004 1.70150641e-002 2.14131661e-002
      1.50421262e-002 3.61936493e-003 -2.47019771e-002 -4.87368256e-002
      -1.39190182e-002 2.61691655e-003 2.44506933e-002 1.88404769e-002
      3.23004797e-002 2.07848921e-002 -1.43529940e-002 -4.44734953e-002
      -3.34060676e-002 -1.87804345e-002 1.74352189e-003 1.69355366e-002
      2.11429019e-002 3.23386677e-002 1.88304149e-002 8.49133357e-003
      -3.17662172e-002 -3.03696748e-002 -2.32375730e-002
      -1.24005293e-002 1.00199962e-002 1.40391067e-002 4.71939379e-003
      -1.36553105e-002 -1.02674821e-002 -3.46562527e-002
      -9.37308650e-003 2.87313946e-003 1.64130591e-002 2.04693992e-002
      1.53740784e-002 5.63337840e-003 -1.76712107e-002 -2.33596005e-002
      -3.08667608e-002 -1.94362458e-002 -2.04881071e-004 2.00038310e-002
      2.67078225e-002 1.13355322e-002 5.66616701e-003 -3.69529240e-003
      -1.15492003e-004 -2.78112851e-002 1.87532604e-002 4.26241867e-002
      6.70497641e-002 3.94396186e-002 9.76635423e-003 -3.74138635e-003
      1.53140293e-003 5.30870631e-003 -1.70990929e-003 -7.43860286e-003
      1.78709824e-003 5.13462815e-003 -2.38185073e-003 -1.58167761e-002
      -2.91828290e-002 -4.88060005e-002 -3.34624536e-002
      -3.10818143e-002 3.79085653e-002 2.62093470e-002 1.68081969e-002
      3.53874057e-003 -1.83866676e-002 -3.52817960e-002 -3.18109207e-002
      -1.16212443e-002 6.67010853e-003 4.21200283e-002 5.82553297e-002
      5.34206480e-002 8.67211260e-003 -2.17916649e-002 -2.10514776e-002
      2.90234131e-003 1.41622424e-002 1.50572807e-002 7.56713822e-002
      6.32724315e-002 4.09815013e-002 6.18603267e-003 -1.87910888e-002
      2.33778148e-003 3.09541672e-002 3.05571333e-002 5.10405302e-002
      2.84243841e-002 1.85855161e-002 -1.09764631e-003 -1.04579972e-002
      -3.78501900e-002 -5.04950434e-002 -3.32477801e-002
      -8.96965340e-003 1.05596958e-002 3.86623628e-002 2.84311473e-002
      1.95202995e-002 -1.40750660e-002 -5.47213368e-002 -6.31092340e-002
      -1.59680769e-002 1.50910113e-003 2.36503799e-002 7.39172623e-002
      4.62854244e-002 8.15423392e-003 -1.71941109e-002 -5.13240620e-002
      -1.12049021e-002 4.35607657e-002 3.58367898e-002 6.24750592e-002
      5.42828813e-002 2.99596135e-002 -1.25882709e-002 -4.09811102e-002
      -7.26559162e-002 -1.79291908e-002 4.68522534e-002 4.69817817e-002
      7.42234662e-002 2.89912540e-002 2.27674358e-002 2.51856633e-002
      1.08768465e-002 -4.43619564e-002 -4.56532873e-002 3.24854092e-003
      1.31899044e-002 2.83524375e-002 1.29813468e-003 3.45543516e-003
      1.19298780e-002 1.01585565e-002 -2.13915315e-002 -1.96261629e-002
      -8.75744224e-003 8.59373063e-003 8.47529341e-003 3.45566981e-002
      1.58347003e-002 -1.88001115e-002 -2.35464685e-002 -5.90347387e-002
      -1.10770911e-002 6.15700185e-002 5.70519567e-002 6.01680242e-002
      3.46580357e-003 -5.24023036e-003 -8.74619931e-003 -1.33326778e-003
      -1.44470492e-002 2.35768985e-002 4.53528501e-002 2.63407156e-002
      2.43118312e-002 -1.76241749e-003 1.95067227e-002 3.28347906e-002
      2.12581176e-002 -4.56955750e-003 -6.51035039e-003 -3.51533992e-003
      7.85488822e-003 8.34753457e-003 9.55177471e-004 2.76504550e-002
      3.47832665e-002 2.52587572e-002 -1.50592066e-002 -1.66092440e-002
      -8.52389447e-003 -3.43793450e-004 7.35761411e-003 1.99000612e-002
      1.86203774e-002 1.93630885e-002 2.78983228e-002 3.98011971e-003
      1.16137490e-002 2.32750773e-002 9.53503326e-003 1.19622014e-002
      2.44028550e-002 3.52113992e-002 2.79515553e-002 2.48922501e-002
      -9.98721085e-003 -1.54175898e-002 -1.34959407e-002
      -1.42515718e-003 2.38039810e-002 -3.48836258e-002 -1.47985388e-002
      -3.61361634e-003 2.05831546e-002 8.19387753e-003 8.68721772e-003
      7.38890003e-003 5.15495520e-003 -1.49725033e-002 -2.41654627e-002
      -9.31895152e-003 1.38356080e-002 2.91241445e-002 1.90986227e-002
      1.87312253e-002 -1.90335803e-003 -9.45689273e-004 -1.90053284e-002
      -1.44162134e-003 -2.81626917e-002 -3.11931707e-002 1.81343185e-003
      3.05660907e-003 -5.99603495e-003 3.19039379e-003 4.17608581e-002
      3.21017206e-002 3.24104982e-003 -5.94058493e-003 9.04612150e-003
      2.21411791e-002 2.42495593e-002 6.88447244e-003 -7.14092050e-003
      2.20293123e-002 2.57726274e-002 -2.69489270e-002 -2.62883306e-003
      2.98257638e-002 2.56028194e-002 -1.53163951e-002 -3.25061306e-002
      -3.56068686e-002 -2.52555758e-002 -2.96130273e-002 1.66020598e-002
      3.50822993e-002 6.39559031e-002 2.87338328e-002 -2.39638239e-002
      -4.36233357e-002 -1.14159621e-002 8.23779404e-003 9.39611997e-003
      1.12373559e-002 6.63680537e-003 2.14778073e-002 2.49010697e-002
      -1.35415541e-002 -4.48077656e-002 -4.09781188e-002
      -1.85155924e-002 2.89754500e-003 7.23445192e-002 4.07050736e-002
      1.85690336e-002 1.15252128e-002 -3.00284736e-002 -4.05043215e-002
      -1.80489738e-002 1.05971023e-002 5.08818775e-002 7.52224354e-003
      1.06815873e-002 1.40377656e-002 -1.91889498e-002 -6.04260415e-002
      -3.73665541e-002 1.76950656e-002 2.38066036e-002 5.56223281e-003
      2.46657226e-002 4.46117669e-003 -1.97141841e-002 -3.72623578e-002
      -4.39351350e-002 1.98296979e-002 6.63481653e-002 2.49921270e-002
      1.37466881e-002 4.80346642e-002 -1.03945062e-002 -4.60234359e-002
      -5.44929355e-002 -7.93701261e-002 -3.55296768e-002 6.55486528e-003
      1.97667331e-002 3.94712798e-002 6.95369765e-003 -3.23081389e-002
      -6.49135113e-002 -7.42950812e-002 -5.90151958e-002 1.11299204e-002
      5.50335012e-002 3.27315032e-002 1.79933682e-002 6.82497537e-003
      -1.31512815e-002 -3.31251100e-002 -4.08570990e-002
      -5.47011159e-002 3.70094702e-002 9.54008177e-002 3.13512087e-002
      -2.36961176e-003 -4.72018821e-003 -2.37347670e-002
      -5.28722778e-002 -6.95612580e-002 -8.39538574e-002 1.50218774e-002
      8.20730254e-002 4.26499210e-002 4.38801944e-003 -2.92207524e-002
      -4.09695134e-002 -5.15487827e-002 -6.20800965e-002
      -4.03516069e-002 5.04914783e-002 8.09514299e-002 1.21793058e-002
      -2.76839659e-002 -4.63405177e-002 -4.40008081e-002
      -5.18668517e-002 -7.45980740e-002 -4.29287143e-002 3.49069536e-002
      6.35093600e-002 -8.92808009e-003 -3.60589921e-002 -4.52999305e-003
      -2.44344342e-002 -3.94985788e-002 -4.53603901e-002
      -6.98850006e-002 2.15554927e-002 9.76711288e-002 5.38917407e-002
      1.47545869e-002 -1.60173904e-002 -2.10983660e-002 -2.11303849e-002
      -2.59306170e-002 -3.37366164e-002 3.61940600e-002 7.46509358e-002
      2.53163371e-002 -4.00603237e-003 -4.02965248e-002 -3.47284675e-002
      -3.60981785e-002 -4.44186963e-002 -2.52273567e-002 3.80902253e-002
      8.12889710e-002 4.05499100e-004 -2.56120134e-002 -3.38431410e-002
      -3.56391445e-002 -2.60878988e-002 -2.02514790e-002
      -4.17208485e-003 4.25195992e-002 4.89273928e-002 -1.37697980e-002
      -2.89712995e-002 1.09452447e-002 6.77660340e-003 7.02930195e-003
      1.73752960e-002 -9.60016530e-003 2.37854905e-002 3.78977545e-002
      9.40785836e-003 1.47116287e-002 1.86494403e-002 2.30422262e-002
      1.67041440e-002 8.65704194e-003 -2.30922289e-002 -2.04565544e-002
      -9.59398225e-003 5.38468873e-003 1.91186462e-002 2.85366899e-004
      9.83240549e-004 5.73169766e-003 2.27343757e-002 1.24089802e-002
      2.64770128e-002 1.43363150e-002 -1.04241318e-003 5.25048282e-003
      2.07844935e-002 2.21603196e-002 1.86421406e-002 8.27277359e-003
      -1.86413582e-002 -1.16863996e-002 -1.01484247e-002
      -9.69323562e-004 8.20805877e-003 4.34390604e-002 -1.08265923e-002
      -4.48507778e-002 -3.59957963e-002 -3.15961614e-002
      -3.55652198e-002 -2.31932644e-002 3.08944918e-002 6.50587529e-002
      4.39794622e-002 1.47992177e-002 -1.09262774e-002 2.20514461e-003
      -2.04578112e-003 -1.28041944e-002 -2.26597302e-003 3.46623994e-002
      5.81252649e-002 1.03871755e-001 3.24912593e-002 -4.68302593e-002
      -7.62853622e-002 -8.40796828e-002 -9.00156572e-002
      -6.67621270e-002 6.83864532e-003 9.91166160e-002 8.72693062e-002
      4.69504222e-002 -2.43620351e-002 -4.94957417e-002 -5.63153736e-002
      -6.79669902e-002 -3.74319851e-002 3.29317451e-002 9.42773968e-002
      4.33630645e-002 1.53066302e-002 -9.55459103e-003 -7.52431166e-004
      -1.18693486e-002 -2.35943999e-002 -1.34322308e-002 1.64554156e-002
      4.28852215e-002 6.86426535e-002 2.39322390e-002 -3.08627095e-002
      -2.07547545e-002 -2.04882361e-002 4.47947672e-003 6.52837334e-003
      1.68109201e-002 5.88150732e-002 4.82991040e-002 1.83294825e-002
      -2.05247663e-002 -2.62570139e-002 -3.39139029e-002
      -3.01860906e-002 -2.21943632e-002 1.91606581e-002 5.15271276e-002
      1.28798205e-002 -4.41361452e-003 -3.11477818e-002 -2.49997526e-002
      -5.01149893e-003 1.49125978e-002 -3.33056552e-003 -8.54992773e-003
      -4.01756028e-003 5.86472414e-002 -1.05973920e-002 -6.04734495e-002
      -6.10674061e-002 -6.16770126e-002 1.16833942e-002 2.95782685e-002
      2.73441933e-002 5.83064444e-002 1.22258589e-002 -4.10300419e-002
      -7.62079582e-002 -6.74165562e-002 -2.34220549e-002 6.04247972e-002
      8.04463252e-002 5.80941923e-002 3.71008590e-002 -1.90751981e-002
      -3.79426256e-002 -4.92845140e-002 -5.36135770e-002
      -3.30487750e-002 1.67007949e-002 -3.05361743e-003 -2.10907478e-002
      -2.31250022e-002 -4.58618887e-002 -5.34850806e-002
      -4.97050062e-002 -2.76728384e-002 4.11391212e-003 4.47005592e-002
      3.06384955e-002 8.22141883e-005 -3.51040587e-002 -3.98793221e-002
      -4.78630625e-002 -6.21538572e-002 -6.54215589e-002
      -2.02653557e-002 7.31622428e-002 6.71080500e-002 4.54979111e-003
      -2.39879861e-002 -4.52045240e-002 -4.76727933e-002
      -5.22646569e-002 -5.67355901e-002 -1.35765802e-002 5.69564961e-002
      4.13650908e-002 -2.98346486e-002 -3.40162814e-002 -6.17996380e-002
      -5.88967353e-002 -5.81397712e-002 -1.93658751e-002 2.53034048e-002
      4.79197726e-002 8.30008928e-003 -4.19238098e-002 -5.58108091e-002
      -5.31634688e-002 -6.08315803e-002 -5.78565821e-002
      -2.54092868e-002 3.07089258e-002 3.81004028e-002 4.49308334e-003
      -5.23143709e-002 -4.65720929e-002 -4.21872698e-002
      -4.13095243e-002 -4.03741822e-002 -3.05400882e-002
      -1.00626866e-003 5.94066717e-002 5.07288836e-002 -2.44476777e-002
      -3.48620415e-002 -4.16848399e-002 -4.18495350e-002
      -3.98159288e-002 -2.00652387e-002 1.51769584e-003 5.62287755e-002
      2.62766350e-002 -2.57477164e-002 -3.72234322e-002 -4.09842022e-002
      -4.82717827e-002 -4.41308543e-002 2.64166039e-003 3.95993255e-002
      3.47231589e-002 2.62423400e-002 -3.32577862e-002 -3.84086072e-002
      -3.86286341e-002 -4.42502014e-002 -4.60574366e-002 5.29606920e-003
      2.45536026e-002 1.24123665e-002 -2.72849412e-003 -3.14612873e-002
      -4.05761041e-002 -1.30950855e-002 -8.97729304e-003
      -1.04299849e-002 1.94282085e-002 2.02213265e-002 4.44940738e-002
      8.22338741e-003 -3.51019250e-003 -4.77895886e-003 8.89098155e-004
      1.13746952e-002 5.55028301e-003 8.86927918e-003 -2.07662527e-002
      -1.19459992e-002 -7.34002842e-003 -3.44937318e-004
      -4.70613968e-003 -1.56124737e-002 -2.18892675e-002
      -9.75427777e-003 3.16761173e-002 3.18774208e-002 1.72892213e-002
      5.69073891e-004 -6.15080306e-003 -6.65529119e-003 -4.77874419e-003
      -4.92739433e-004 7.59355351e-003 2.53613852e-002 -2.48654140e-003
      -1.05778957e-002 -5.55004878e-003 -3.08290892e-003
      -1.42658874e-003 1.25298396e-001 5.23433350e-002 -3.79283242e-002
      -7.77683929e-002 -1.04668483e-001 -1.05154879e-001
      -6.58923462e-002 -3.28512257e-003 9.57632214e-002 9.84241143e-002
      5.56948446e-002 -1.57567821e-002 -5.90307601e-002 -7.57130906e-002
      -7.10333511e-002 -3.88369448e-002 3.00410818e-002 8.33998770e-002
      9.63198021e-002 7.58778751e-002 -2.78234817e-002 -6.20754734e-002
      -8.07364807e-002 -7.82841370e-002 -5.96635453e-002
      -2.23541819e-002 4.21754792e-002 8.50802213e-002 7.37313405e-002
      7.14680832e-003 -3.10471542e-002 -4.77137491e-002 -4.72761169e-002
      -3.21387909e-002 1.71211001e-003 4.13387008e-002 2.81371363e-002
      3.42129432e-002 -4.25878353e-003 -3.15953009e-002 -4.35900763e-002
      -3.55478041e-002 -2.87115350e-002 8.44483729e-003 2.69638803e-002
      -1.25585161e-002 1.31113632e-002 -1.43925846e-002 -2.72410829e-002
      1.37349311e-002 1.61001459e-002 -1.49371894e-002 -2.00882796e-002
      -2.10557077e-002 4.06431556e-002 6.55041113e-002 1.48018729e-002
      -2.10894179e-002 -2.86778361e-002 -1.41031565e-002
      -8.59072153e-003 -4.27421601e-003 4.86400817e-003 4.55716960e-002
      6.09439053e-002 1.49374502e-002 -9.10235010e-003 9.02354997e-003
      3.29887401e-003 -2.37675989e-003 -1.31435497e-002 1.14601199e-002
      -1.89059302e-002 -9.64296795e-003 -2.94382591e-002
      -4.15124819e-002 -1.44513967e-002 2.24565361e-002 -2.23101992e-002
      -4.20081727e-002 -3.36403139e-002 -2.29050890e-002
      -1.12736281e-002 4.58576856e-003 8.58012494e-003 1.63791105e-002
      -5.25572989e-003 -1.99459102e-002 -4.92176972e-002
      -4.94528450e-002 6.31922856e-002 5.74473925e-002 -2.17917011e-004
      -2.84027830e-002 -1.82213131e-002 -4.37720068e-004
      -3.37534063e-002 -4.26210053e-002 1.86477639e-002 4.32582386e-002
      6.04533292e-002 5.01921736e-002 3.16195861e-002 1.15722362e-002
      -2.41374541e-002 -6.16984516e-002 -6.49772808e-002 2.03258544e-003
      -4.95623052e-002 -3.98595743e-002 -2.04788391e-002 2.10322570e-002
      3.59798186e-002 3.61853815e-003 -3.38805206e-002 -6.22944050e-002
      -6.15607947e-002 -4.17086333e-002 -4.26139496e-002
      -3.91226634e-002 1.25623085e-002 5.33805192e-002 4.82636504e-003
      -2.85393298e-002 -5.63794672e-002 -4.17902954e-002
      -2.44805403e-002 -1.59470793e-002 2.03027744e-002 4.24356535e-002
      2.37786323e-002 -3.22616696e-002 -6.84136227e-002 -7.62462988e-002
      -5.78437783e-002 -3.41952182e-002 -4.69285473e-002 5.17371809e-003
      4.02925350e-002 4.03884202e-002 -1.10927923e-002 -5.14221974e-002
      -4.53079343e-002 -2.75348444e-002 -3.73275205e-002
      -4.01366316e-002 -2.74167228e-002 3.37574743e-002 5.20105436e-002
      1.94772577e-003 -1.98824815e-002 -3.53730544e-002 -3.13321799e-002
      -4.20421995e-002 -4.65583578e-002 -2.86883116e-002 3.82848829e-002
      4.39906344e-002 -2.04138532e-002 -3.15105021e-002 -4.52444553e-002
      -4.30115871e-002 -3.51354554e-002 -4.57934290e-002 2.64697094e-002
      6.88065812e-002 3.50997560e-002 -1.70544423e-002 -3.67175974e-002
      -2.47701127e-002 -1.72506850e-002 -4.44218926e-002
      -3.91948558e-002 3.36397104e-002 7.66514018e-002 2.87389867e-002
      -4.29755859e-002 -4.60785404e-002 -4.80011180e-002
      -3.89237367e-002 -1.76197533e-002 -1.67618431e-002 9.57877748e-003
      6.02914505e-002 3.93034294e-002 -5.27164014e-003 -1.99565906e-002
      -1.82398967e-002 -1.66754033e-002 -1.23179704e-002 4.65870416e-003
      5.85099775e-003 2.22358331e-002 -7.67053338e-004 -3.36987711e-002
      -1.82025936e-002 -5.87915815e-003 -5.78270154e-003
      -1.62235666e-002 -9.01952444e-004 3.91464457e-002 7.82704875e-002
      2.48705000e-002 -1.13920206e-002 -1.80361625e-002 -2.39293408e-002
      -1.41222365e-002 -1.52620701e-002 3.57533665e-003 1.38427252e-002
      2.73671206e-002 -3.50516173e-003 -2.43297331e-002 -9.43036936e-003
      8.07428223e-005 -2.95778899e-003 7.08092973e-002 7.28180334e-002
      -1.44067938e-002 -4.94155288e-002 -5.02294526e-002
      -5.64033128e-002 -5.17201573e-002 -3.55681330e-002
      -3.56244785e-003 6.59384355e-002 7.44320974e-002 1.21237924e-002
      -2.66160313e-002 -2.43097320e-002 -4.20167930e-002
      -4.48325723e-002 -2.71861739e-002 -1.28474040e-002 5.38035333e-002
      5.60996160e-002 4.33283625e-003 -3.30761857e-002 -2.41753515e-002
      -2.55617071e-002 -4.01711576e-002 -3.12183555e-002
      -5.20101050e-003 4.08555381e-002 4.34168763e-002 1.87163539e-002
      -5.02694724e-003 3.90037405e-003 -7.43816560e-003 -4.26066369e-002
      -2.23278683e-002 -1.87161826e-002 4.89957221e-002 5.62042296e-002
      1.86300240e-002 -1.24550899e-002 -1.85272135e-002 -1.70664508e-002
      -1.86087675e-002 -1.22804940e-002 -9.85955726e-003 5.79359829e-002
      4.65889312e-002 1.25130368e-002 -1.85328778e-002 -1.02200732e-002
      1.06637850e-002 1.52801592e-002 6.52589044e-003 2.25419533e-002
      1.04881674e-002 1.45395352e-002 2.65758811e-003 -1.01274895e-002
      -1.42520992e-002 -5.88834798e-003 -2.36741919e-002
      -1.50817856e-002 -2.75736805e-002 -1.69528869e-003
      -6.26665587e-003 -1.40956007e-002 -1.62635949e-002
      -9.38336272e-003 1.44363651e-002 2.27509104e-002 2.33332794e-002
      -3.00596724e-003 6.31270558e-002 2.69073509e-002 -2.00185403e-002
      -4.31515239e-002 -3.74105684e-002 -1.79142598e-002
      -1.21332575e-002 -7.92767480e-003 1.86751802e-002 4.86022681e-002
      4.14180271e-002 1.90263167e-002 6.83398731e-003 -1.89149939e-002
      -4.09339033e-002 -3.99721339e-002 -2.92776600e-002 9.96335875e-003
      -4.18490358e-003 -1.90490745e-002 -3.41322049e-002
      -4.24413607e-002 -3.60534340e-002 -1.84774455e-002 2.08276063e-002
      3.78251337e-002 9.12204385e-003 2.54510157e-002 7.00774137e-003
      7.61331851e-003 -2.73126364e-003 -2.78870817e-002 -4.01242673e-002
      -7.13379635e-003 2.28580218e-002 3.86333987e-002 -1.23536319e-003
      -1.22510847e-002 2.72564664e-002 4.99007665e-002 2.19482975e-003
      -3.69598195e-002 -4.22637612e-002 -3.46506536e-002
      -2.63796616e-002 -1.31787071e-002 -2.32526939e-002 4.49741930e-002
      5.80118410e-002 3.88902030e-003 -3.24993096e-002 -3.69298272e-002
      -2.21115239e-002 -8.32715537e-003 9.08606872e-003 -4.85348888e-003
      1.83625445e-002 2.91857496e-002 -2.79249959e-002 -5.04394919e-002
      -3.23176719e-002 -8.20555910e-003 8.07853695e-003 3.93857323e-002
      2.01152284e-002 4.43631485e-002 4.28125784e-002 -2.34198403e-002
      -6.44997135e-002 -3.94723378e-002 -1.56109352e-002 2.51087528e-002
      -2.10727248e-002 -1.30165890e-002 7.53030851e-002 7.93426186e-002
      3.88318440e-003 -4.98628803e-002 -3.15473713e-002 -1.81084704e-002
      -6.98832097e-003 -2.84411013e-002 -9.75653157e-003 7.16240779e-002
      7.36189857e-002 -9.35609918e-003 -5.73331788e-002 -3.65192555e-002
      -2.49446575e-002 -2.00911164e-002 4.05811854e-002 4.44572791e-002
      7.85344243e-002 5.56710400e-002 -2.73154210e-002 -6.81907535e-002
      -3.35662290e-002 -1.39301326e-002 1.18018184e-002 -1.70438197e-002
      1.19253304e-002 4.59433682e-002 3.82683240e-002 -3.49141732e-002
      -4.27536257e-002 -2.82057878e-002 -1.89822502e-002
      -1.87680665e-002 1.93992618e-003 1.20199779e-002 4.95837331e-002
      5.25122359e-002 2.04458670e-003 -1.34268934e-002 -1.58632430e-003
      -8.88767652e-004 8.42641480e-003 -4.56426665e-003 -1.29466585e-003
      1.06853629e-002 1.60997175e-002 -1.05587719e-002 -1.47181712e-002
      -1.76275999e-003 1.17851207e-002 8.44207965e-003 -1.30540989e-002
      1.46486782e-004 2.70946138e-002 3.63429748e-002 1.82465685e-003
      3.71125480e-003 1.03305485e-002 1.02031399e-002 5.54650370e-003
      -1.59357153e-002 -2.99850553e-002 -1.77323129e-002 6.00684434e-003
      -8.00256617e-003 -2.84522353e-003 1.11839334e-002 1.84804834e-002
      1.22138448e-002 9.79511440e-003 3.04188356e-002 5.94644388e-003
      -3.29729216e-003 2.27490743e-003 -1.26220041e-003 -1.86150707e-002
      -1.53652197e-002 -8.18126649e-003 -1.30520696e-002 1.74630969e-003
      5.69593720e-003 1.39145898e-002 2.40843967e-002 2.61012651e-002
      -2.21065804e-002 -1.80054456e-002 -3.32854949e-002
      -4.44942936e-002 -2.09924225e-002 -8.86302348e-003 7.53149856e-003
      2.15286762e-002 1.78526100e-002 -4.40929644e-003 -1.21693779e-002
      -2.67985892e-002 -3.85520235e-002 -3.43017057e-002
      -3.57389858e-004 2.77082231e-002 4.04445417e-002 4.37210463e-002
      -3.77427600e-003 -1.44330300e-002 -4.67818901e-002
      -2.20971014e-002 -7.17888493e-003 1.61095075e-002 2.38374695e-002
      2.20098197e-002 3.51281092e-002 7.78826699e-003 -2.43164203e-003
      -2.79795751e-002 -2.41172444e-002 -1.51919620e-002 6.64123474e-003
      2.05194131e-002 2.16409061e-002 2.23252568e-002 2.66075209e-002
      2.62905043e-002 -9.57387406e-003 -3.66588086e-002 -2.34456845e-002
      2.05082558e-002 3.75731252e-002 3.24489176e-002 4.31044437e-002
      1.54588167e-002 4.88608703e-003 -2.91281659e-002 -4.01374400e-002
      -3.04654893e-002 1.31029664e-002 3.70043926e-002 2.86485180e-002
      2.72079259e-002 7.89004937e-003 1.43893678e-002 -2.59968489e-002
      -9.14836768e-003 -1.65284723e-002 1.61556131e-003 7.67968129e-003
      6.42781472e-003 1.41785536e-002 2.86078099e-002 4.32641357e-002
      2.17993017e-002 2.11790577e-002 5.49432775e-003 1.65737867e-002
      1.83950998e-002 1.58277377e-002 1.27018550e-002 2.61471141e-002
      5.33665456e-002 4.98026051e-002 -3.90721485e-002 -4.13924977e-002
      -9.17708129e-003 1.87939722e-002 2.01508086e-002 1.30518395e-002
      -6.76035741e-003 1.70743908e-003 -2.10272614e-002 -2.58988217e-002
      -3.32387127e-002 -1.16689801e-002 2.15186775e-002 3.09465844e-002
      2.88864821e-002 5.81036555e-003 7.40294624e-003 -8.42937920e-003
      3.98519412e-002 2.09482592e-002 3.30221243e-002 3.38916481e-002
      1.07229277e-002 4.40726103e-003 1.57514233e-002 4.25657853e-002
      5.32320403e-002 6.41454682e-002 3.88143808e-002 4.72316220e-002
      4.42092903e-002 6.19753310e-003 -1.72133837e-003 1.39083089e-002
      2.47722026e-002 6.69137388e-002 -2.40040291e-002 -3.29796188e-002
      -1.69111528e-002 1.03744855e-002 9.28908680e-003 1.55343302e-002
      2.06565065e-003 -3.96086276e-003 -1.65301468e-002 -1.51897250e-002
      -1.87694747e-002 -6.75913063e-004 1.81176569e-002 7.17451097e-003
      4.55922727e-003 4.58211219e-003 3.91050780e-005 -3.26940906e-003
      5.77493720e-002 4.67389449e-002 5.57351448e-002 5.26460074e-002
      1.15053849e-002 -7.74461357e-003 1.12056620e-002 2.26864330e-002
      4.70984057e-002 -1.03098957e-003 8.61920416e-003 3.37649696e-002
      4.28514630e-002 1.44931125e-002 2.52814312e-002 9.84087121e-003
      6.89202966e-003 -5.04420605e-003 -1.51272323e-002 -1.92248709e-002
      -1.14092557e-003 1.38507327e-002 4.05038591e-004 8.57248844e-004
      1.26782637e-002 1.31132454e-002 1.25823601e-004 -3.17450762e-002
      -2.86108963e-002 -7.04178168e-003 3.84635804e-003 3.06853233e-003
      1.63738634e-002 -4.14035050e-003 -5.49979834e-003 -2.16613133e-002
      -1.87484156e-002 -1.18080052e-002 1.42830219e-002 3.93218212e-002
      3.44187506e-002 3.66365388e-002 2.38572918e-002 1.23354550e-002
      -1.89263746e-003 -4.37258743e-003 -1.56367086e-002
      -7.49081234e-003 1.67954694e-002 1.18864020e-002 1.02124866e-002
      1.29219778e-002 2.27660332e-002 1.78454909e-002 -2.27072630e-002
      -2.05335282e-002 -3.38716060e-003 1.41431298e-002 1.64878927e-002
      1.79747045e-002 2.17412738e-003 -5.50854579e-003 -1.53126558e-002
      1.21409725e-003 -6.85157196e-004 6.49851921e-004 1.20063135e-002
      -3.82299149e-005 -8.89944937e-003 -1.32733164e-002 7.52510596e-003
      5.31379459e-003</_></support_vectors>
  <decision_functions>
    <_>
      <sv_count>1</sv_count>
      <rho>-2.4972372426545439e-001</rho>
      <alpha>
        1.</alpha>
      <index>
        0</index></_>
    <_>
      <sv_count>1</sv_count>
      <rho>1.3819037452559870e+000</rho>
      <alpha>
        1.</alpha>
      <index>
        1</index></_>
    <_>
      <sv_count>1</sv_count>
      <rho>1.0548342011966712e+000</rho>
      <alpha>
        1.</alpha>
      <index>
        2</index></_></decision_functions></my_svm>
</opencv_storage>
