<?xml version="1.0"?>
<opencv_storage>
<my_svm type_id="opencv-ml-svm">
  <svm_type>C_SVC</svm_type>
  <kernel><type>LINEAR</type></kernel>
  <C>1.0000000000000000e-002</C>
  <term_criteria><epsilon>1.1920928955078125e-007</epsilon>
    <iterations>1000</iterations></term_criteria>
  <var_all>576</var_all>
  <var_count>576</var_count>
  <class_count>2</class_count>
  <class_labels type_id="opencv-matrix">
    <rows>1</rows>
    <cols>2</cols>
    <dt>i</dt>
    <data>
      -1 1</data></class_labels>
  <sv_total>1</sv_total>
  <support_vectors>
    <_>
      9.39642265e-002 4.94253337e-002 1.52602335e-002 1.66881327e-002
      9.54201166e-003 2.92208809e-002 5.90661727e-002 7.46054873e-002
      8.67104903e-002 3.81385870e-002 -2.65942346e-002 -5.74440770e-002
      -3.58899347e-002 1.78410131e-002 5.33509664e-002 7.14250430e-002
      7.00697228e-002 4.64356318e-002 6.05105311e-002 1.16007300e-002
      -6.29408732e-002 -6.85414150e-002 -3.74114253e-002 2.36527622e-002
      5.21186851e-002 2.57009286e-002 5.33708297e-002 -7.91926384e-002
      -1.55373931e-001 -1.92227483e-001 -1.60024911e-001
      -6.40411526e-002 7.64498813e-003 7.01490697e-003 -2.08161101e-002
      -6.09509125e-002 3.01709380e-002 -2.66411286e-002 -2.35942770e-002
      7.96047673e-002 1.46078214e-001 1.53185070e-001 1.35230675e-001
      9.68832150e-002 6.13231286e-002 -9.72915143e-002 -7.39024356e-002
      -1.82667822e-002 8.00790042e-002 1.35782659e-001 1.13606229e-001
      4.81176600e-002 2.28091748e-003 -4.12203223e-002 -1.14855230e-001
      -1.38306484e-001 -1.26862243e-001 -5.73244356e-002 6.86246604e-002
      9.29920748e-002 -4.29207347e-002 -8.55532438e-002 -1.12803951e-001
      -1.15984783e-001 -7.46460781e-002 -2.62721833e-002 2.81152539e-002
      1.97351798e-002 -4.75858971e-002 -1.15136206e-001 -1.08234309e-001
      -1.34643823e-001 -9.57315117e-002 -2.34661568e-002 1.47040896e-002
      4.68635857e-002 1.58277422e-001 1.11152336e-001 -2.26644296e-002
      -9.34992805e-002 -1.23078696e-001 -4.07557189e-002 2.18973178e-002
      4.98132035e-002 1.03598639e-001 2.24551320e-001 1.13355160e-001
      -6.33906350e-002 -1.28757149e-001 -1.10228434e-001
      -4.49941456e-002 1.27474600e-002 3.33304442e-002 3.02929264e-002
      1.85235254e-002 -1.25241548e-001 -2.23181739e-001 -1.66868404e-001
      -1.02927916e-001 3.74801308e-002 9.15055498e-002 1.13051802e-001
      1.35689110e-001 9.03613791e-002 -8.32274854e-002 -1.98908761e-001
      -1.48069859e-001 -4.46507111e-002 -2.89080590e-002
      -1.77837219e-002 -7.09495787e-003 1.44137153e-002 1.01886764e-001
      4.78719268e-003 -1.22498728e-001 -1.38306528e-001 -8.44404474e-002
      6.20157365e-003 -2.60076653e-002 -2.57262327e-002 -7.38109928e-003
      8.24045464e-002 7.17560649e-002 -1.39158481e-004 -3.61273065e-002
      3.55882244e-003 2.02385988e-002 5.06993644e-002 4.32222262e-002
      2.98030432e-002 -1.86671242e-002 -1.04890823e-001 -2.04146117e-001
      -1.28311053e-001 -3.53977382e-002 -1.09364185e-003
      -2.00401358e-002 -3.58469039e-002 -2.20452342e-002
      -1.97616648e-002 -6.46753684e-002 -4.52494398e-002
      -2.47038212e-002 1.60006317e-003 8.46727937e-002 8.09558555e-002
      3.45749632e-002 1.74246952e-002 2.57863197e-002 1.17050901e-001
      1.08026996e-001 5.19629829e-002 5.75559661e-002 -4.16437015e-002
      -9.18353721e-002 -1.36459798e-001 -1.32935897e-001
      -3.60051580e-002 6.67891279e-002 5.31037003e-002 3.37147489e-002
      -3.53053883e-002 1.21442527e-002 5.38559593e-002 7.14066997e-002
      4.60184738e-002 1.70141384e-002 8.57565179e-002 1.14325233e-001
      6.26967251e-002 1.48029318e-002 -9.44832563e-002 -8.34724009e-002
      -5.77076785e-002 -8.15834478e-002 -6.80649430e-002
      -2.80482955e-002 -1.98182203e-002 -8.43567960e-003
      -7.07703978e-002 -6.36316836e-002 -3.77197601e-002
      -1.90093704e-002 1.54066235e-002 1.29097462e-001 1.14837222e-001
      2.03954391e-002 -1.41687470e-003 -7.07686394e-002 -7.61538418e-003
      6.45622835e-002 9.89443362e-002 1.12493038e-001 5.34014367e-002
      -3.46885212e-002 -8.99448171e-002 -4.49416973e-002
      -4.14490551e-002 -7.44190142e-002 -3.85346040e-002 2.41003837e-002
      5.61805069e-002 7.42799714e-002 4.42197025e-002 3.46965045e-002
      2.99566574e-002 -4.34622467e-002 7.09618069e-003 5.72830625e-002
      5.96871115e-002 7.32286051e-002 2.46029943e-002 -6.54033152e-003
      -2.30317228e-002 2.75553279e-002 2.42506638e-002 6.76067546e-002
      8.34374428e-002 8.28411281e-002 6.73796162e-002 2.44514062e-003
      -1.41821414e-001 -1.58308044e-001 -3.10686082e-002 4.56960760e-002
      1.35297552e-001 1.38635814e-001 1.48554146e-001 1.43737584e-001
      6.03149198e-002 -9.39966887e-002 -1.14751160e-001 5.10625057e-002
      1.32239342e-001 6.95763007e-002 5.61842956e-002 4.29302938e-002
      -1.97219988e-003 -8.71449560e-002 -1.10312887e-001
      -6.67773858e-002 4.42129597e-002 6.57169670e-002 1.37975886e-001
      1.35098457e-001 1.21369459e-001 2.67577991e-002 -5.26012406e-002
      -5.67387007e-002 1.62511561e-002 1.28748015e-001 1.27060562e-001
      8.94409567e-002 9.97805446e-002 8.06716233e-002 2.61256490e-002
      -6.93328753e-002 -1.79120883e-001 -1.39699414e-001 3.20358314e-002
      8.72829705e-002 6.08563386e-002 5.06852791e-002 2.54076235e-002
      1.97889078e-002 -6.58344384e-003 -3.74877118e-002 3.79466005e-002
      8.01950991e-002 7.89536461e-002 9.76866037e-002 9.95047018e-002
      4.27405983e-002 -1.02047227e-001 -1.36271253e-001 -1.12340420e-001
      -6.64867368e-003 9.26984847e-002 8.49639401e-002 8.76263231e-002
      9.17578787e-002 2.21620612e-002 -6.06991090e-002 -6.90667406e-002
      -1.94901284e-002 9.37459320e-002 1.01588242e-001 7.90126622e-002
      -2.48297565e-002 1.51673369e-002 7.76103884e-002 8.45324174e-002
      2.83256881e-002 7.02189133e-002 8.62232223e-002 6.75538182e-002
      6.36953721e-003 -8.89975354e-002 -6.92804158e-002 -1.86234191e-002
      -4.03939113e-002 -9.16390941e-002 -1.01117767e-001
      -8.34643394e-002 -5.42689487e-002 -7.21357316e-002 1.39773656e-002
      1.54406345e-002 7.78177306e-002 1.28380716e-001 7.45447725e-002
      9.71628129e-002 1.24983266e-001 1.10775679e-001 7.08938017e-002
      -2.89964005e-002 8.88617709e-004 3.62634845e-002 5.92242032e-002
      -3.52375098e-002 -8.48442614e-002 -8.72980803e-002
      -3.32620665e-002 -1.33655705e-002 -6.62041083e-002
      -4.41283956e-002 1.64457597e-002 7.07918555e-002 2.79055927e-002
      -1.16155352e-002 2.09246185e-002 2.17207167e-002 -3.26253735e-002
      -2.57750694e-002 -2.07526870e-002 -3.47652212e-002
      -1.23535807e-003 1.70590524e-002 2.71721166e-002 5.00386953e-002
      9.49577540e-002 3.75015922e-002 -4.24539261e-002 -1.65294036e-002
      4.48367409e-002 1.15299799e-001 7.66007453e-002 -9.26505309e-003
      -2.98077799e-002 1.45454817e-002 -8.77987128e-003 -3.18042450e-002
      -5.41695729e-002 -5.46322837e-002 -2.70494167e-002 3.89882363e-002
      8.68307948e-002 8.47444087e-002 8.34926367e-002 2.12055352e-002
      4.28286567e-002 1.67772658e-002 -3.66414078e-002 -1.07753880e-001
      -9.24213603e-002 -2.47258749e-002 2.16206186e-003 8.10786039e-002
      7.19450861e-002 1.06414936e-001 1.18645608e-001 1.66973453e-002
      -1.13396041e-001 -8.19568411e-002 5.09848557e-002 7.58089051e-002
      1.19379967e-001 9.87453014e-002 2.80676819e-002 1.71211157e-002
      -1.03113845e-001 -1.79281816e-001 -3.38033810e-002 8.16855282e-002
      8.36440101e-002 8.54529366e-002 5.45173287e-002 1.10823140e-001
      6.34277239e-002 -9.11928415e-002 -1.58071429e-001 -6.05270360e-003
      1.74280614e-001 1.54560313e-001 1.25900716e-001 9.46393907e-002
      7.38756880e-002 7.37473816e-002 -6.85821250e-002 -2.23066986e-001
      -1.48638621e-001 -5.60663268e-003 4.53833081e-002 9.80475396e-002
      7.04914182e-002 8.67147595e-002 1.05016775e-001 1.47024971e-002
      -1.35149986e-001 -7.16003329e-002 6.36130273e-002 1.01776972e-001
      1.06541842e-001 7.43265226e-002 5.78894354e-002 2.18198472e-003
      -1.88346207e-001 -2.68855631e-001 -8.05653781e-002 9.10720229e-002
      9.38118547e-002 8.31846595e-002 6.14621677e-002 8.12879577e-002
      4.99183573e-002 -5.74331433e-002 -1.43801674e-001 1.85270868e-002
      1.20978624e-001 9.08594728e-002 6.36661574e-002 6.20262995e-002
      -3.18672955e-002 -4.49885540e-002 -1.54291571e-003 2.92209778e-002
      1.66039821e-002 1.65740736e-002 4.99113686e-002 3.48707139e-002
      1.58523917e-002 -5.95435053e-002 -3.67392562e-002 -1.85600519e-002
      1.56526137e-002 -5.94573207e-002 -9.25837755e-002 -1.17943361e-001
      -9.48018059e-002 -6.67178929e-002 4.66212407e-002 2.68259104e-002
      6.14246493e-003 1.17628006e-002 8.82965047e-003 1.25487214e-002
      5.13273403e-002 3.16263288e-002 4.68269400e-002 4.22541015e-002
      5.27353771e-002 1.89061705e-002 1.82729214e-002 -2.08529774e-002
      -3.11772581e-002 -1.02416072e-002 -1.65576264e-002 2.03781687e-002
      -7.77840912e-002 -4.72248681e-002 -3.30066122e-002 5.03161810e-002
      3.27735581e-002 -7.16688633e-002 -1.61077231e-001 -1.40992105e-001
      -9.89167690e-002 -1.45708233e-001 -7.67959058e-002
      -1.00636862e-001 -9.99765992e-002 8.55249353e-003 2.60304939e-002
      -6.19767345e-002 -1.27189353e-001 -1.53512344e-001 6.95979223e-002
      1.27784878e-001 9.27059874e-002 7.90697634e-002 8.43945593e-002
      6.64946511e-002 3.23888883e-002 -2.27170698e-002 2.84807533e-002
      1.06030377e-002 8.13669860e-002 7.32907504e-002 1.76465809e-002
      7.32652023e-002 7.83822909e-002 2.13379618e-002 -5.63578606e-002
      -4.69594412e-002 -1.13378376e-001 -7.22766668e-002
      -1.53543591e-001 -2.26041645e-001 -4.75100055e-002 2.98327319e-002
      -1.28693152e-002 -7.01562688e-002 -1.10847488e-001
      -8.64464119e-002 -1.04314961e-001 -1.49483144e-001
      -1.86171412e-001 -8.88141803e-003 8.96356404e-002 4.35142256e-002
      -2.10146122e-002 -6.09612204e-002 -1.20059913e-002 6.74442574e-002
      5.02998009e-002 -1.91906616e-002 5.27067743e-002 5.58040775e-002
      2.33318005e-002 -3.15422043e-002 -5.42182252e-002 -3.29401530e-002
      1.46450633e-002 4.49846918e-003 1.78309123e-003 8.40157345e-002
      1.00597657e-001 5.46823367e-002 -8.57961643e-003 -3.28319222e-002
      -8.39573145e-002 -1.18095256e-001 -1.98766246e-001
      -2.24304959e-001 -2.48595886e-002 4.88272235e-002 2.87258369e-003
      -3.07811499e-002 -5.31367622e-002 -1.03249634e-002
      -1.81213822e-002 -8.13497230e-002 -1.15688615e-001 4.00508344e-002
      4.92899939e-002 -9.41478834e-003 -3.01304273e-002 -4.02739272e-002
      -4.19175327e-002 -3.44746895e-002 -4.94539551e-002
      -3.48662958e-002 6.14902116e-002 3.89269553e-002 2.18986114e-003
      -3.57580967e-002 -3.32696885e-002 4.13272856e-003 2.42199842e-002
      1.93323977e-002 3.44750509e-002 8.88237655e-002 6.74242452e-002
      2.29858737e-002 -8.67798459e-003 -2.34836191e-002</_></support_vectors>
  <decision_functions>
    <_>
      <sv_count>1</sv_count>
      <rho>-8.4131344811015307e-001</rho>
      <alpha>
        1.</alpha>
      <index>
        0</index></_></decision_functions></my_svm>
</opencv_storage>
