<?xml version="1.0"?>
<opencv_storage>
<my_svm type_id="opencv-ml-svm">
  <svm_type>C_SVC</svm_type>
  <kernel><type>LINEAR</type></kernel>
  <C>1.0000000000000000e-002</C>
  <term_criteria><epsilon>1.1920928955078125e-007</epsilon>
    <iterations>1000</iterations></term_criteria>
  <var_all>1296</var_all>
  <var_count>1296</var_count>
  <class_count>3</class_count>
  <class_labels type_id="opencv-matrix">
    <rows>1</rows>
    <cols>3</cols>
    <dt>i</dt>
    <data>
      1 2 3</data></class_labels>
  <sv_total>3</sv_total>
  <support_vectors>
    <_>
      1.90674346e-002 1.90135278e-002 1.09840510e-002 -8.89689848e-003
      -3.27505209e-002 -3.09018455e-002 3.95336840e-003 1.03106722e-002
      2.08278932e-002 2.89950799e-002 2.85020247e-002 1.96322445e-002
      6.98701199e-003 -3.23729143e-002 -3.07033230e-002 7.04492629e-003
      1.27370255e-002 2.81784069e-002 1.65098440e-002 1.78170465e-002
      1.76917128e-002 1.99640388e-004 -2.69249808e-002 -2.25909986e-002
      6.92473724e-003 7.17108417e-003 8.16075876e-003 2.98159923e-002
      2.90592685e-002 2.72051692e-002 1.30407028e-002 -2.38310136e-002
      -2.97826044e-002 1.07422257e-002 8.61130189e-003 2.11477913e-002
      1.86212882e-002 1.55344335e-002 7.53895426e-003 1.21579193e-004
      -3.77510376e-002 -4.44339290e-002 -9.75009985e-003 4.44172462e-003
      1.45947877e-002 2.10098214e-002 2.03315374e-002 1.66776683e-002
      1.07649500e-002 -2.61748955e-002 -3.20288278e-002 -1.05329501e-002
      4.95033106e-003 1.49763050e-002 2.42395308e-002 2.60483213e-002
      2.95948554e-002 1.95560940e-002 -2.46738866e-002 -4.03402038e-002
      -1.60605852e-002 1.16115401e-003 2.07198113e-002 2.71342080e-002
      2.03947499e-002 2.20272895e-002 1.72563288e-002 -2.76991818e-002
      -3.93902138e-002 -1.69704910e-002 1.12622371e-002 2.95217559e-002
      1.31498128e-002 1.19918948e-002 6.91582821e-003 2.86036124e-003
      -1.06495591e-002 -1.97002832e-002 -8.12993478e-003 2.15382851e-003
      1.03439214e-002 6.84386957e-003 1.29047397e-003 -2.08289232e-002
      -2.50984170e-002 -2.41639856e-002 -7.63463648e-003
      -9.14509466e-004 8.20425805e-003 6.75695017e-003 8.08026176e-003
      2.59134523e-003 4.13048221e-003 1.32652500e-003 -1.01936497e-002
      -1.59699358e-002 -4.97661112e-003 1.92721672e-002 2.05608085e-002
      -1.20251607e-002 -1.83288865e-002 -2.17327215e-002
      -1.59027390e-002 4.50016791e-003 5.64833404e-003 5.94481686e-003
      1.53082870e-002 1.48466881e-003 2.59754360e-002 1.15248542e-002
      -2.36694738e-002 -4.79663648e-002 -3.41141820e-002 2.46599503e-003
      1.40577285e-002 3.69652994e-002 3.11014019e-002 5.01881242e-002
      2.17348970e-002 -3.29740457e-002 -8.02573189e-002 -6.10379241e-002
      -2.10234188e-002 2.14881003e-002 5.51161468e-002 5.88543229e-002
      1.85907970e-003 -1.52632697e-002 -3.58522423e-002 -3.34115140e-002
      -3.40464851e-003 1.25489384e-002 2.98202410e-002 4.41114828e-002
      2.47244965e-002 2.34621335e-002 -4.97144554e-003 -4.56307754e-002
      -6.28193095e-002 -4.37865742e-002 -9.57677606e-003 3.09820101e-002
      4.73344848e-002 4.92211543e-002 4.35529426e-002 1.68816298e-002
      -2.98220031e-002 -7.98216909e-002 -6.29063323e-002
      -3.70681696e-002 1.50670102e-002 5.81609569e-002 6.14342131e-002
      2.54160725e-002 2.57990160e-003 -2.51211748e-002 -5.55261336e-002
      -3.51123475e-002 -1.54401464e-002 1.19607747e-002 4.25241105e-002
      4.70545366e-002 2.01116074e-002 -1.75032974e-003 -3.48183699e-002
      -5.59494570e-002 -5.29589728e-002 -1.10384626e-002 2.03503631e-002
      4.99246940e-002 5.22410683e-002 2.37982208e-003 -4.92278300e-003
      -1.25217577e-002 -3.08667608e-002 -2.79636756e-002
      -6.55462407e-003 1.59068666e-002 3.46270613e-002 2.87985355e-002
      1.29317818e-002 3.00402055e-003 -1.61034707e-002 -3.29448804e-002
      -2.80103497e-002 -7.44279893e-003 1.56089393e-002 3.36763486e-002
      2.98557431e-002 1.94759537e-002 1.07984226e-002 -3.82928120e-004
      -2.32109781e-002 -3.64022814e-002 -2.99031530e-002 9.08171944e-003
      2.30425987e-002 1.52547760e-002 1.87975075e-003 -7.17322947e-003
      -1.46405166e-002 -2.32866388e-002 -2.82991827e-002
      -8.61989614e-003 1.24923959e-002 2.00852565e-002 1.50123043e-002
      1.79269314e-002 1.67813781e-003 -1.31623661e-002 -3.93068939e-002
      -3.97474021e-002 -2.90535297e-002 5.58814593e-003 1.55798402e-002
      1.70001071e-002 -1.21040212e-003 8.85947607e-003 1.33700753e-002
      7.28924898e-003 -1.67030413e-002 -1.30410455e-002 -8.97919852e-003
      -1.57898478e-002 -2.10118778e-002 2.58711912e-003 1.64092295e-002
      3.41287069e-002 3.21539007e-002 -1.29148737e-003 -1.95818506e-002
      -7.96141941e-003 -1.52598079e-002 -1.52887497e-002
      -3.01363934e-002 1.09960446e-002 2.55855899e-002 3.04706525e-002
      1.58452895e-002 7.86219537e-003 -1.05057622e-003 -2.86947992e-002
      -4.63070385e-002 -3.18256728e-002 3.71477916e-003 4.05040830e-002
      5.84921353e-002 4.71159853e-002 2.57553887e-002 4.58385004e-003
      -2.55016331e-002 -4.86261845e-002 -2.50581466e-003 5.30111138e-003
      2.98505574e-002 3.83755527e-002 -4.16758377e-003 -3.13180834e-002
      -2.39315052e-002 -2.01190542e-002 -1.93829369e-002 3.79378151e-004
      -2.56406027e-003 1.76992789e-002 2.99305059e-002 1.10548950e-004
      -2.96279564e-002 -2.17603967e-002 -4.44520789e-004
      -8.11188831e-004 -4.78716865e-002 -2.03437489e-002 2.74608266e-002
      6.26306385e-002 4.69178446e-002 -1.01896969e-003 -1.15168821e-002
      -3.45757417e-002 -5.46785444e-002 -5.00703789e-002
      -4.16346937e-002 -8.03197548e-003 3.81838195e-002 2.99167968e-002
      1.43149518e-005 6.84619532e-004 -1.96101274e-002 -4.71244007e-002
      -2.91057723e-003 -8.87898356e-003 -1.02936255e-003 7.80631322e-003
      5.23864944e-003 6.81090518e-004 -6.42618339e-004 1.54268350e-002
      6.78585237e-003 -3.31960469e-002 -3.27947550e-002 -9.61324945e-003
      -7.43953418e-003 1.13960281e-002 3.85353412e-003 -3.86646064e-003
      1.23054795e-002 -8.87174532e-003 -3.09663694e-002 -3.13969366e-002
      -2.40402780e-002 1.60883591e-002 1.12425080e-002 1.45239662e-002
      1.61203388e-002 7.57521112e-003 -2.31482033e-002 -2.82819197e-002
      -2.54464056e-002 -1.59623809e-002 -3.00962594e-003
      -4.03965777e-003 6.92688208e-003 -8.56810156e-003 5.82367275e-003
      -1.37554696e-002 -2.22427100e-002 -2.78942324e-002
      -1.24255298e-002 -4.41418169e-003 1.56238405e-002 1.11741824e-002
      2.24943236e-002 3.60630788e-002 7.49490922e-003 -1.37323448e-002
      -1.66736804e-002 -2.90284213e-002 -3.08340993e-002
      -2.97035538e-002 -4.95487219e-003 1.64543241e-002 3.01142354e-002
      1.33434497e-002 -1.35970023e-002 -1.28035611e-002 -1.41731976e-003
      6.87167095e-003 -3.56290652e-003 8.71350057e-004 1.40291685e-003
      1.17412638e-002 -2.88385409e-003 -8.39502364e-003 -6.71515847e-003
      -7.64869340e-003 -1.39117716e-002 -3.24947312e-002
      -4.79613664e-003 -5.48405899e-003 4.45551192e-003 -4.36504511e-003
      -5.34906657e-003 -5.55626256e-003 -1.30565912e-002
      -2.59460304e-002 -3.42958458e-002 7.08147069e-004 2.47568637e-002
      2.03429423e-002 9.13486723e-003 -5.76952100e-003 -5.86026581e-003
      -4.33050282e-003 -1.30276596e-002 4.82767675e-004 8.12484417e-003
      1.96774155e-002 7.02683907e-003 6.53192913e-003 -6.74544554e-003
      -3.37617146e-003 -4.95238183e-003 -1.16476240e-002
      -2.18236912e-002 -7.01737707e-004 -1.00226970e-002
      -6.94665965e-003 -6.78835157e-003 -7.51403486e-003
      -7.42040761e-003 -8.05659033e-003 -5.53814275e-003
      -4.19090409e-003 7.31673744e-003 -1.33938296e-002 -1.52879125e-002
      -5.11838542e-003 6.29520102e-004 -4.32875147e-003 -4.94701369e-003
      -1.10915583e-002 7.40501622e-004 7.55766360e-003 9.78019368e-003
      2.73743831e-003 8.26165546e-003 1.32697541e-002 7.13473884e-004
      -1.23787951e-002 -3.01004294e-002 -1.85078830e-002
      -1.33131593e-002 1.11605888e-002 1.00989519e-002 1.58928409e-002
      -6.46745600e-003 -1.37831122e-002 -1.19951116e-002
      -1.26088979e-002 5.58137335e-003 7.43608642e-003 -1.27955126e-002
      -7.61381350e-003 3.43553280e-003 -5.37573826e-003 -2.77160741e-002
      -2.35051829e-002 -2.20456980e-002 -1.77882854e-002
      -2.73904484e-003 1.34094199e-003 2.11293949e-003 8.62606429e-003
      -5.59382103e-002 -6.50649052e-003 1.82563495e-002 3.76255736e-002
      4.42442000e-002 2.10310146e-002 7.70688290e-003 -3.40345763e-002
      -7.96832889e-002 -4.84914370e-002 -1.02540432e-002 3.00949458e-002
      8.44176188e-002 8.98199603e-002 3.77553813e-002 1.71314981e-002
      -2.28996072e-002 -6.39269277e-002 -5.62594235e-002
      -1.23156840e-002 2.76033692e-002 6.52570873e-002 6.97307512e-002
      3.14785652e-002 4.77884803e-003 -4.92722951e-002 -9.01631340e-002
      -5.30119613e-002 -2.65055411e-002 1.85566675e-002 7.26844668e-002
      9.42859128e-002 3.66667211e-002 -1.61844632e-003 -3.83280888e-002
      -6.75396100e-002 -3.65853868e-002 -2.18557287e-002
      -3.20098479e-003 6.24948069e-002 6.94403723e-002 1.18212951e-002
      6.79392787e-003 -1.16753168e-002 -4.25764099e-002 -3.30363475e-002
      -3.80428471e-002 -3.16366293e-002 3.31187285e-002 3.62760238e-002
      7.43785501e-003 1.72002837e-002 -6.16479944e-003 -3.46493721e-002
      -3.37397978e-002 -4.32720222e-002 -3.69898453e-002 2.40094773e-002
      6.18475750e-002 7.97495060e-003 -4.42367978e-003 -8.72919708e-003
      -2.95564122e-002 -2.59673167e-002 -4.59387749e-002
      -5.16851209e-002 -8.08885135e-003 1.40788658e-002 -1.30450176e-002
      8.07345100e-003 5.25884284e-003 -1.85010117e-002 -1.89505182e-002
      -2.32516993e-002 -3.60904038e-002 1.17982589e-002 -2.54624872e-003
      1.11427167e-002 3.51905264e-002 1.09379413e-002 -1.14103705e-002
      -1.17998831e-002 -1.34786526e-002 -2.55059786e-002
      -5.91414748e-004 -2.78336443e-002 -7.33379461e-003 9.27102566e-003
      1.40296295e-002 -3.89861059e-003 -1.16853956e-002 -3.04139424e-002
      -3.79257612e-002 -4.65644058e-003 -4.66563506e-003 3.82278301e-003
      4.53949682e-002 2.44748574e-002 7.62013311e-004 -1.33073358e-002
      -3.00671812e-002 -3.65485176e-002 -3.24930176e-002
      -2.37691253e-002 -1.53602539e-002 4.88353074e-002 3.14858183e-002
      -1.91061443e-003 -3.61708389e-003 -4.07917006e-003
      -2.36596540e-003 7.46860960e-003 -2.04978660e-002 -1.81355793e-003
      1.93760041e-002 1.22483158e-002 2.15428346e-003 -3.46698752e-003
      -4.44826670e-003 -6.26466796e-003 -1.39033832e-002
      -2.46103108e-002 -1.05000716e-002 -4.12243605e-003
      -2.85283267e-003 -2.71856831e-003 -5.80541138e-003
      -1.80142336e-002 -1.82446875e-002 -1.25628328e-002
      -1.73632912e-002 -5.28887101e-003 5.28773181e-002 3.44397500e-002
      4.82876087e-003 -2.87282211e-003 -1.33846421e-002 -2.94794887e-002
      -3.38665433e-002 -1.35723241e-002 2.90891971e-003 1.77709106e-002
      1.43439714e-002 4.08039289e-003 -3.49719264e-003 -2.64960690e-003
      -4.26364737e-003 -1.08845001e-002 -3.82250082e-003
      -2.34806188e-003 -1.02462647e-002 -5.42815495e-003
      -3.83572141e-003 -2.99453922e-003 -6.97580958e-003
      -1.12574827e-002 -8.09145812e-003 7.14075565e-003 1.17914760e-002
      -1.52578391e-002 -7.99625274e-003 -2.79473420e-003
      -2.61143316e-004 -4.98161791e-003 -2.94805206e-002
      -3.81293148e-002 7.35888770e-003 1.28848581e-002 4.85629449e-003
      2.79701594e-003 2.19338643e-003 -4.86990437e-003 -2.55176593e-002
      -4.58021574e-002 -2.53427103e-002 1.43495640e-002 3.24648693e-002
      8.33750609e-003 3.67517280e-003 1.51714182e-003 -4.05017613e-003
      -2.09858939e-002 -1.84902363e-002 -7.46043632e-003 1.77281983e-002
      1.43718254e-002 5.99469896e-003 6.69170171e-003 5.71607938e-003
      -7.93995708e-003 -3.67254354e-002 -3.49816456e-002
      -8.57251137e-003 5.54251578e-003 1.28125325e-002 2.53316965e-002
      1.97666809e-002 1.46674095e-002 -1.49973007e-002 -3.46929058e-002
      -4.36820835e-002 2.09559198e-003 2.57948469e-002 3.57771404e-002
      1.54025890e-002 9.75535158e-003 3.91233061e-003 -2.05982607e-002
      -4.45227288e-002 -3.83211039e-002 1.98446424e-003 2.70409808e-002
      3.21937352e-002 3.03204693e-002 2.47724410e-002 8.61325115e-003
      -4.72700745e-002 -8.82955361e-003 2.68318038e-002 5.13169281e-002
      4.05393653e-002 1.39831379e-002 -6.79373136e-003 -3.88701446e-002
      -7.33055323e-002 -5.47867529e-002 -3.08656991e-002
      -1.19363854e-003 5.63995764e-002 6.61951602e-002 1.10291047e-002
      -7.25624058e-003 -3.81412432e-002 -6.13200553e-002
      -3.37337293e-002 -5.36429137e-003 2.17949897e-002 3.73722799e-002
      1.77072827e-002 -3.72684514e-003 -5.58261387e-003 -2.47541498e-002
      -4.66430858e-002 -4.54512537e-002 -2.28101425e-002
      -1.41443859e-003 2.94750426e-002 2.99347360e-002 3.58741358e-003
      4.81042749e-004 -1.99870653e-002 -4.86714467e-002 -3.19834761e-002
      -3.54292803e-002 -4.36697230e-002 5.57244662e-003 3.52752022e-002
      8.76607094e-003 -2.17642635e-003 -1.68525241e-002 -2.74821930e-002
      -2.72332504e-002 -4.11845595e-002 -4.94564660e-002
      -9.08055517e-004 2.09208839e-002 6.69982005e-003 2.18054093e-002
      4.33447678e-003 -1.28182154e-002 -2.90619638e-002 -1.91735122e-002
      -1.94830503e-002 7.82510731e-003 6.96599297e-003 -1.16264727e-002
      -1.01006040e-002 -2.43562069e-002 -3.15384381e-002
      -2.98671722e-002 -1.03485864e-002 -7.50081846e-003 1.67040527e-002
      2.22659558e-002 -5.16182417e-003 -6.61120145e-003 -2.46527791e-002
      -2.42685862e-002 -3.63105200e-002 -4.60623726e-002
      -4.53659780e-002 -5.70229953e-003 1.77935045e-002 2.29228996e-002
      4.42499854e-002 6.34355703e-003 -1.55552058e-002 -3.13994773e-002
      -4.74922732e-002 -4.77774069e-002 -3.32290716e-002 6.60150452e-003
      2.40021925e-002 6.23484738e-002 2.54996587e-002 -1.12495739e-002
      -4.58259024e-002 -2.76729111e-002 -1.54132834e-002 1.51339313e-002
      3.52623351e-002 1.28807295e-002 1.31917112e-002 -1.75831057e-002
      -3.08355000e-002 -4.90375720e-002 -5.01703583e-002
      -4.65595648e-002 -6.72606099e-003 2.16620658e-002 3.65680531e-002
      5.19815236e-002 8.07768386e-003 -2.86876485e-002 -7.11047696e-003
      -2.60628182e-002 -4.11508605e-002 -1.94436796e-002 1.31499534e-002
      2.06334405e-002 5.85315600e-002 3.69109437e-002 4.81894147e-003
      5.20222762e-004 -1.96651351e-002 -5.13645671e-002 -3.69083658e-002
      9.18149599e-004 2.90952865e-002 3.13190445e-002 2.43526008e-002
      1.05049675e-002 -1.65711716e-002 -2.96276920e-002 -5.07912189e-002
      -1.21101439e-002 2.44306978e-002 4.67798635e-002 6.06835410e-002
      2.52401065e-002 -1.90371077e-003 -5.05867181e-003 -2.62583233e-002
      -4.98591773e-002 -1.51605122e-002 8.61800369e-003 4.22119685e-002
      3.32736187e-002 1.87978409e-002 5.27870236e-003 -1.90953806e-003
      -1.21052256e-002 -4.73395474e-002 -3.45115997e-002 8.31807032e-003
      3.09488289e-002 1.68900918e-002 9.83198080e-003 2.51984573e-003
      -1.35944318e-002 -2.98289210e-002 -4.34708595e-002
      -1.66400336e-002 2.25297175e-002 4.23566662e-002 1.09036267e-002
      4.51756688e-003 -2.42304220e-003 -7.10024359e-003 -1.32957306e-002
      -2.57991515e-002 -3.77837988e-003 1.32328086e-002 3.08565386e-002
      1.65452287e-002 5.87488804e-003 -4.70806798e-003 -1.96115319e-002
      -1.29769109e-002 -1.08635398e-002 1.18608074e-002 2.75397468e-002
      2.84049343e-002 7.92865362e-003 -1.45825581e-003 -1.04549443e-002
      -3.00187208e-002 -4.06785943e-002 -2.59991568e-002 1.59788020e-002
      3.13858353e-002 4.13875319e-002 1.41858077e-002 9.05356556e-003
      -1.17297133e-003 -3.13743427e-002 -4.72597331e-002
      -2.26032082e-002 8.08235724e-003 3.08056232e-002 2.53811013e-002
      1.65906046e-002 1.61094666e-002 -1.85418711e-003 -2.83657033e-002
      -2.70721745e-002 -4.88098664e-003 3.05715259e-002 3.40926610e-002
      3.25255543e-002 1.21132592e-002 1.32028508e-004 -1.46791944e-002
      -2.29877774e-002 -2.79014613e-002 -3.33597395e-003 1.67790093e-002
      2.59574205e-002 1.53490053e-002 4.28466359e-003 3.30832973e-003
      -1.48701053e-002 -2.18552221e-002 -3.34150670e-003 1.74244586e-002
      3.01988404e-002 5.31310402e-003 -1.32046277e-002 3.94215155e-003
      5.91580814e-004 -1.82386655e-002 -1.61564369e-002 -5.06423600e-003
      1.81481428e-002 3.67707163e-002 5.29245101e-003 -9.43508651e-003
      1.97046772e-002 1.45086925e-002 -2.10257969e-003 -1.82125457e-002
      -1.47105344e-002 7.09316414e-003 1.64794363e-002 -3.99274006e-003
      -1.92194991e-002 -5.11859078e-003 2.68482813e-003 -7.99596310e-003
      -2.71879812e-003 -1.14991497e-002 1.38075873e-002 2.12899223e-002
      -1.36848865e-002 -1.19775301e-002 1.67366285e-002 3.29271778e-002
      1.71424728e-002 -1.13695180e-002 -5.96689340e-003 4.17579245e-003
      1.11419298e-002 -2.59578694e-002 -2.44400781e-002 1.42128253e-003
      1.27808703e-003 -9.19303764e-003 -8.63064546e-003 9.21895541e-003
      1.74474306e-002 2.05851234e-002 -1.52920256e-003 -3.32851782e-002
      -2.17427146e-002 -1.32883918e-002 -1.62277892e-002
      -5.72510203e-003 -1.62239596e-002 -2.97810533e-003
      -3.02473432e-003 -3.86749208e-002 -2.71356367e-002 1.89030468e-002
      3.51581797e-002 1.36295371e-002 6.18077174e-005 -1.06346570e-002
      -3.55410599e-003 3.85892834e-003 -3.00650392e-002 -2.98169758e-002
      1.61132757e-002 3.65362167e-002 1.16570191e-002 -9.92173515e-003
      1.07429130e-002 2.41814647e-002 4.52324674e-002 3.32218632e-002
      -3.83400568e-003 -3.87159013e-003 -1.09128244e-002
      -1.42584639e-002 -3.71346176e-002 -2.47211475e-002
      -1.97500437e-002 6.63032231e-004 2.37726849e-002 2.86409352e-002
      2.56884992e-002 -5.91398776e-003 -3.04459203e-002 4.05128114e-003
      -8.80620722e-003 -1.67647889e-003 2.88844220e-002 7.44300603e-004
      -1.63063779e-002 1.01725580e-002 1.39833093e-002 2.12556683e-003
      -1.77435894e-002 -1.76898316e-002 -1.85340866e-002
      -1.60723552e-002 -5.01443027e-003 -5.80160040e-003
      -8.11430346e-003 -1.13112386e-002 -3.42759527e-002
      -1.71726737e-002 -1.85357779e-002 -1.70980599e-002
      -5.14239306e-003 1.88253745e-002 4.16708514e-002 3.45727392e-002
      5.73284272e-003 -1.27870403e-002 -1.07698180e-002 -2.55191755e-002
      -9.35453735e-003 8.61041131e-004 1.45839695e-002 3.47816125e-002
      2.02418286e-002 4.43681888e-003 -6.55702688e-003 -2.31561884e-002
      -1.28042996e-002 -7.16446666e-005 9.97593254e-003 1.33434283e-002
      1.17157204e-002 5.85238775e-003 -2.71903514e-003 -2.99430788e-002
      -2.92671137e-002 -2.37268768e-002 -7.21847406e-004 2.75863670e-002
      2.66653448e-002 2.06515696e-002 6.39021909e-003 7.74979824e-004
      -1.79726873e-002 -1.04320934e-002 -2.50906646e-002
      -2.45163171e-003 -1.94298383e-003 4.60742624e-004 9.96298529e-003
      4.52622026e-003 -5.89423021e-003 -1.04375891e-002 -1.83314309e-002
      -1.66568980e-002 -3.06914822e-004 1.87299196e-002 1.40639255e-002
      8.39870889e-003 -1.19630340e-003 -1.04526300e-002 -1.80034302e-002
      -1.49951987e-002 -2.85977833e-002 8.83074885e-004 2.18604114e-002
      1.13967285e-002 6.61347900e-003 -1.62971637e-003 -3.34611139e-003
      -4.99230716e-003 -5.82400290e-003 -8.19388125e-003 8.76709539e-003
      4.12927121e-002 2.27462351e-002 9.83450375e-003 -6.06920710e-003
      -1.37705524e-002 -8.32096767e-003 -3.00241746e-002
      -2.37898733e-002 1.51334377e-003 3.11710797e-002 3.01890597e-002
      2.32229177e-002 7.05420412e-003 -1.08754924e-002 -2.22103354e-002
      -2.90294979e-002 -2.82534622e-002 -1.13800745e-002 1.05616553e-002
      9.03309509e-003 1.17735323e-002 2.51867622e-003 -9.66813974e-003
      -2.58843936e-002 -1.84698179e-002 -1.71224680e-002 9.05617431e-004
      2.56803073e-002 3.43628451e-002 2.63033286e-002 5.43192448e-003
      -9.20805056e-003 -1.01886159e-002 -2.33746693e-002
      -2.36544218e-002 -1.25156315e-002 4.25090129e-003 2.68344581e-002
      2.05568913e-002 8.19101091e-003 -1.21775735e-002 -1.82818584e-002
      -8.34780559e-003 -1.62184425e-002 1.51344240e-002 2.28062272e-002
      1.29226735e-002 2.15112860e-003 3.99244344e-003 2.58635660e-003
      -1.61061587e-003 -1.02555966e-002 -1.79758612e-002 9.45763011e-003
      3.27676982e-002 2.64566625e-003 -6.18384220e-004 1.77324731e-002
      2.55771410e-002 1.62829738e-002 -2.33311318e-002 -2.10114233e-002
      2.81249103e-003 2.74896137e-002 2.41192672e-002 9.58982296e-003
      5.48815494e-003 3.63444700e-003 -2.77623860e-003 -1.87275670e-002
      -2.83586625e-002 -4.79992526e-003 3.26424912e-002 1.17071988e-002
      1.00624040e-002 8.67680833e-003 8.09259154e-003 1.89828407e-003
      -1.17051546e-002 -2.63561048e-002 -3.86514794e-003 1.91853084e-002
      -1.25809107e-002 -7.15480698e-003 3.55673917e-002 4.16439623e-002
      2.20020749e-002 -2.30937288e-003 -2.98844650e-002 -2.23046727e-002
      3.96380579e-004 -8.61996599e-003 5.82248159e-003 5.44518456e-002
      6.26282394e-002 3.84973250e-002 -1.79640353e-002 -3.88769694e-002
      -2.35250890e-002 1.33668743e-002 -3.34899663e-003 -4.35559917e-003
      1.32953916e-002 1.99257154e-002 1.29785603e-002 -1.18207186e-002
      -4.21201847e-002 -3.50153260e-002 -1.06558567e-002
      -3.97145515e-003 1.36017632e-002 4.18440215e-002 4.70922515e-002
      3.09438631e-002 1.01781422e-002 -2.53265239e-002 -2.61617061e-002
      2.32597449e-004 5.18319570e-003 1.55480150e-002 4.78434823e-002
      4.91149761e-002 2.57793460e-002 1.98329496e-003 -1.45076085e-002
      -1.79675296e-002 -4.66275262e-003 7.21926568e-004 -1.24038837e-003
      6.81470381e-003 2.49694358e-003 -1.33037381e-002 -1.33651542e-003
      -3.95614132e-002 -4.26118746e-002 -1.88753381e-002 4.82870592e-003
      2.71199215e-002 2.83758752e-002 3.64453085e-002 2.77815312e-002
      4.12904704e-003 -2.09101345e-002 -2.94618718e-002 -2.07029842e-002
      3.88577045e-003 1.64378509e-002 9.63251851e-003 1.18910996e-002
      4.73304512e-003 -2.09096558e-002 -1.53894699e-003 6.09657308e-003
      7.28143845e-003 6.04549889e-003 1.18324929e-003 2.90116924e-003
      -5.86766098e-003 -3.86349000e-002 -2.66858079e-002
      -8.58641043e-003 5.41772740e-003 2.49352530e-002 2.41453666e-002
      1.32734589e-002 6.30898448e-003 4.02117427e-003 -2.53942497e-002
      3.81901651e-003 2.21073185e-003 -2.86294357e-003 -3.97416111e-003
      1.72863758e-004 8.38730671e-003 1.00874193e-002 5.84772974e-003
      -9.36153159e-003 -4.42607980e-003 -4.69522877e-003 9.73270088e-003
      3.66119272e-003 4.51326650e-003 3.51235340e-003 6.93387119e-003
      1.23001318e-002 2.22718008e-004 -1.65893454e-002 -1.04883742e-002
      4.84785502e-004 2.21475232e-002 1.71428788e-002 1.02896998e-002
      2.69605871e-003 5.10492781e-003 2.20623310e-003 -6.03347924e-003
      -1.03459228e-002 3.56727256e-003 2.24344358e-002 2.40650158e-002
      1.66184045e-002 -2.67869513e-003 -9.02021863e-003 2.65367435e-005
      -1.47305271e-002 -3.03849019e-002 -6.34403294e-003
      -3.08163883e-003 2.21106713e-003 -2.84700841e-003 -9.09519964e-004
      3.58398864e-003 4.80133342e-003 -2.21782513e-002 -3.10730021e-002
      -1.64833404e-002 6.23215269e-003 1.63492840e-002 1.37743494e-002
      1.43786543e-004 -8.46988801e-003 -1.17086293e-002 -1.00490917e-002
      -1.30204204e-002 -7.64636276e-003 1.55222798e-002 3.40506583e-002
      2.97297016e-002 3.30098951e-003 -6.03377260e-003 -3.48210125e-003
      -1.51242893e-002 -2.22876109e-002 -1.53531609e-002
      -1.31024106e-003 2.05584094e-002 1.78504698e-002 5.92441624e-003
      -6.57668896e-003 -1.26359230e-002 -2.11795978e-002
      -2.61095129e-002 -2.14943960e-002 7.91721046e-003 2.74217408e-002
      3.00102886e-002 3.99456406e-003 -9.76593886e-003 -1.64184198e-002
      -1.94782577e-002 -2.25028899e-002 -1.92720611e-002
      -9.25308000e-003 1.02063222e-002 1.28400549e-002 2.26779049e-003
      -2.80777994e-003 -1.30392844e-002</_>
    <_>
      3.97198601e-003 1.11101642e-002 2.49408185e-003 2.56603188e-003
      -8.15530424e-004 -1.45994015e-002 -1.49117382e-002 2.68031447e-003
      3.39847105e-003 1.14877746e-002 2.62616370e-002 1.15931518e-002
      1.32238576e-002 1.85094913e-003 4.16797865e-003 -1.44996606e-002
      -1.50509982e-003 5.20466408e-003 6.15245895e-003 8.37992225e-003
      6.30317070e-003 7.06138555e-003 1.15764374e-003 -9.51912254e-003
      -1.25015620e-002 3.55899963e-003 -3.39766429e-003 1.36897005e-002
      1.86172109e-002 1.31305130e-002 2.46931277e-002 3.62886442e-003
      6.66330848e-003 -4.85130865e-003 6.07973337e-003 5.61485207e-003
      -4.19540884e-004 7.10744178e-003 -9.39582009e-003 -2.48630461e-003
      -4.73237783e-003 -1.03508038e-002 -2.29652524e-002
      -1.01680961e-002 -3.02135921e-003 8.79851636e-003 1.57639757e-002
      -1.02898828e-003 -4.30555735e-003 -2.72194273e-003
      -1.52897546e-002 -2.81728134e-002 -9.59833991e-003 3.65180988e-003
      8.66988301e-003 1.28285140e-002 9.24445968e-003 2.22473554e-002
      7.07081519e-003 -1.94732402e-003 -2.05705669e-002 -2.85358587e-003
      6.68249233e-003 2.82711610e-002 2.02535950e-002 5.60441520e-003
      1.43629881e-002 3.04613030e-004 -5.25751477e-003 -1.31740849e-002
      1.82352625e-002 3.11007462e-002 7.73415016e-003 9.38954856e-003
      -4.41371743e-003 -1.77995693e-002 -3.19271721e-002
      -4.27554995e-002 -3.03116050e-002 -9.64187738e-003 1.49156235e-003
      3.53279375e-002 2.54216362e-002 2.01123487e-003 -2.66592950e-002
      -5.55510372e-002 -5.31135090e-002 -1.41016757e-002 1.45447589e-002
      2.49079093e-002 4.07241173e-002 2.90184859e-002 7.59885693e-003
      -3.08576762e-003 -2.46286411e-002 -1.94583274e-002
      -2.27503036e-003 3.80905271e-002 4.02129963e-002 4.92344648e-002
      4.53135818e-002 1.89831816e-002 -5.98083436e-003 -2.71033682e-002
      -2.44944971e-002 1.57992505e-002 5.41295409e-002 5.20664938e-002
      3.15074325e-002 1.88478418e-002 1.14237238e-003 -2.84377038e-002
      -7.94709921e-002 -6.91082552e-002 -1.22006945e-002 3.47951502e-002
      3.73195000e-002 4.73921411e-002 2.08764896e-002 -1.13419397e-002
      -4.41410281e-002 -8.06585178e-002 -6.61789253e-002
      -3.73865478e-003 5.46611063e-002 6.22879155e-002 4.57438678e-002
      3.53469774e-002 1.39297815e-002 -1.64070372e-002 -6.34070188e-002
      -4.58879285e-002 3.16559449e-002 6.08275272e-002 5.90292327e-002
      4.10245173e-002 1.60663445e-002 -1.02039753e-002 -4.58667688e-002
      -8.09742808e-002 -3.84469815e-002 5.00385836e-002 7.16793761e-002
      6.43911213e-002 3.74545753e-002 1.50232762e-002 -1.74632333e-002
      -4.02217396e-002 -6.35633096e-002 -4.64914180e-002 6.63046073e-003
      5.96239045e-002 5.85950986e-002 1.09875286e-002 -6.51458139e-003
      -1.48017835e-002 -2.11153738e-002 -4.56472896e-002
      -3.76577973e-002 -7.32258847e-003 3.43125425e-002 3.22949737e-002
      2.08731648e-002 3.85973346e-003 -2.84222215e-002 -5.23314066e-002
      -6.70374483e-002 -2.10097712e-003 7.29968846e-002 8.38571712e-002
      5.54364100e-002 -3.30338068e-003 -1.39368596e-002 -2.29644980e-002
      -3.59506793e-002 -4.53077443e-002 3.06243659e-004 4.27479036e-002
      4.68510166e-002 2.15497147e-002 5.71851991e-003 1.88763358e-003
      1.19134795e-003 -2.19691149e-003 -2.91759875e-002 -1.74493343e-002
      1.03511931e-002 3.89749147e-002 2.85094250e-002 1.08998865e-002
      1.30510833e-002 7.77038001e-003 -1.73086002e-002 -3.87178548e-002
      -3.75420116e-002 -4.54058498e-003 3.14523019e-002 1.28277671e-002
      1.82335079e-003 1.08673493e-003 1.58278551e-003 -1.06861610e-002
      -3.05638965e-002 -4.64710145e-004 2.33413037e-002 3.29170264e-002
      1.57327969e-002 1.79476272e-002 1.24132885e-002 1.05823986e-002
      -1.95588879e-002 -4.32683602e-002 -2.56152879e-002 2.11125775e-003
      1.84582081e-002 1.29635278e-002 -1.52646203e-003 2.36945307e-005
      -1.11666799e-003 1.09896634e-003 -1.04389768e-002 -1.18266335e-002
      -9.58117284e-003 3.93976923e-003 1.88902905e-003 3.51199764e-003
      5.75887598e-003 2.52703838e-002 3.57810371e-002 6.02500280e-003
      -3.06555047e-003 -1.43711464e-002 -9.04334709e-003
      -2.15531653e-003 4.54887608e-003 3.44977598e-003 -3.89046734e-004
      1.19337533e-003 -6.94780285e-003 -1.24496948e-002 -4.15268820e-003
      5.78062190e-003 8.10375717e-003 5.87227382e-003 5.71617717e-003
      2.97275800e-002 3.52663510e-002 2.33777612e-002 9.06830595e-004
      -1.11350799e-002 -6.64042495e-003 3.43733409e-004 -8.36637430e-003
      -1.04243578e-002 7.73210125e-003 1.98057257e-002 -5.16965054e-003
      -2.35081892e-002 -3.18749808e-002 -2.03755442e-002
      -1.69476308e-002 1.36783086e-002 4.01228899e-003 -5.02769253e-004
      1.57500505e-002 -7.76667008e-003 -1.87515300e-002 -9.68007735e-005
      2.31465939e-002 2.33771503e-002 -1.54603124e-002 -1.55848879e-002
      2.25591194e-002 2.72543915e-002 1.01677189e-002 -2.83557307e-002
      -2.00366136e-002 -2.01462843e-002 -2.46613100e-002
      -6.45040721e-003 -9.51662473e-003 6.76266733e-004 1.96529515e-002
      7.82647356e-003 -1.12139899e-003 2.67526601e-002 3.00343223e-002
      5.50644612e-003 9.06394329e-003 -4.41553816e-003 -1.66398771e-002
      -1.96678303e-002 -2.66126338e-002 -1.31096467e-002 1.05085401e-002
      2.82418337e-002 2.19409298e-002 -3.36713367e-003 -6.76585361e-003
      -1.63940042e-002 -2.82685515e-002 -2.56715491e-002 3.31089087e-003
      3.68849970e-002 3.84307764e-002 9.67264269e-003 -2.49543805e-002
      -2.76844427e-002 -2.93943528e-002 -1.46704810e-002
      -7.06681516e-003 3.01146153e-002 3.69492285e-002 3.03179659e-002
      -7.02287536e-004 -3.99380811e-002 -4.39930819e-002
      -4.43214513e-002 -4.39257398e-002 -8.92672874e-003 3.62701192e-002
      3.52758095e-002 2.53797807e-002 -1.26956999e-002 -1.30786877e-002
      -1.35872839e-002 -2.00078674e-002 -3.33509706e-002
      -4.22092564e-002 -3.70050245e-003 6.67051375e-002 5.64534627e-002
      1.11531559e-002 -2.31691990e-002 -2.94290129e-002 -4.22701351e-002
      -6.99021891e-002 -7.45075345e-002 -2.26344494e-003 7.07630739e-002
      5.49236611e-002 4.58070589e-003 -4.06576768e-002 -4.85827476e-002
      -5.06599508e-002 -5.28280139e-002 -2.09911317e-002 4.84979264e-002
      6.02488071e-002 2.77537163e-002 -1.47477975e-002 -4.82208170e-002
      -5.25505729e-002 -6.41517863e-002 -8.18092525e-002
      -5.47019877e-002 3.20148766e-002 4.55456860e-002 9.95528884e-003
      -3.30607370e-002 -2.16438845e-002 -2.62987986e-002
      -4.20305282e-002 -6.46532699e-002 -5.99049293e-002 3.89304832e-002
      9.61683467e-002 5.26946038e-002 -3.62217706e-003 -2.90905386e-002
      -3.23988274e-002 -3.66159938e-002 -5.76290973e-002
      -3.50538082e-002 3.26426923e-002 4.69723269e-002 1.16432440e-002
      -2.07724925e-002 -4.04938795e-002 -4.10671979e-002
      -4.75076772e-002 -6.86556622e-002 -1.75107662e-002 5.18245175e-002
      5.34285307e-002 -6.29786449e-003 -3.51414680e-002 -4.53946069e-002
      -4.58249934e-002 -4.66475300e-002 -5.08784875e-002 1.25340815e-003
      5.45633696e-002 7.10645597e-003 -2.43257489e-002 -4.06573229e-002
      -4.91657434e-003 -7.99658988e-003 -3.47674149e-003
      -1.17626647e-002 -1.16813434e-002 2.96679121e-002 3.59773040e-002
      7.27824308e-003 -9.51410271e-003 1.06572192e-002 3.40070669e-003
      -4.14547184e-003 -1.90533549e-002 -3.49484049e-002
      -2.27524750e-002 8.22301209e-003 -1.90474180e-004 -5.05213218e-004
      -1.77242607e-002 -2.13538818e-002 -1.77101623e-002
      -6.98738405e-003 1.69435777e-002 4.41052504e-002 1.04596857e-002
      -7.14962790e-003 -1.86263174e-002 -1.61945203e-003
      -1.01287197e-002 -1.77745800e-002 -1.02367848e-002
      -1.82437636e-002 6.83026505e-004 5.36947791e-003 -3.12978867e-003
      -9.86134820e-003 -1.04384394e-002 -8.26033857e-003
      -1.16453562e-002 -1.17442515e-002 -2.28316281e-002
      -3.58528607e-002 -1.95279550e-002 -1.24695860e-002
      -1.08152544e-002 -1.30836293e-003 4.85500757e-004 2.59633865e-002
      4.74540591e-002 2.22508926e-002 -3.01481113e-002 -1.52644701e-002
      -1.78178761e-003 6.78687473e-004 -2.53251521e-003 4.33987053e-003
      7.89534114e-003 1.58677846e-002 -1.53002050e-003 -3.10086813e-002
      -2.69195773e-002 -2.07421947e-002 -1.68302543e-002 1.33108618e-002
      1.98343564e-002 3.69905271e-002 5.64590432e-002 3.15230601e-002
      -1.72109287e-002 -2.55986731e-002 -2.95357691e-004 7.56838499e-003
      -1.00839902e-002 -1.74096413e-002 6.41419459e-003 2.62850337e-002
      -5.96899074e-003 -5.77697977e-002 -2.65710764e-002
      -1.46547314e-002 -1.19657870e-002 -4.43368871e-003
      -2.09367182e-002 -9.19245370e-003 1.41848028e-002 -1.13300029e-002
      -1.59402378e-002 1.18994843e-002 1.15472674e-002 2.53626262e-003
      3.98758479e-004 -8.85881111e-003 1.96297374e-003 2.66677681e-002
      9.22670215e-003 -4.64239642e-002 -4.05555405e-002 -3.71429045e-003
      4.89183795e-003 8.45490303e-003 -5.50379325e-003 -3.92012298e-003
      7.72765744e-003 -4.94677387e-003 -1.50852958e-002 -3.04561364e-003
      1.23203276e-002 1.04566449e-002 -2.74290070e-002 -3.20469104e-002
      -3.30232531e-002 -1.85656827e-002 -1.82242896e-002 2.20526345e-002
      3.40797380e-002 1.08113140e-002 -1.06800199e-002 -4.90057319e-002
      -5.06303310e-002 -4.93021570e-002 -2.84482036e-002
      -1.19117890e-002 2.88369954e-002 2.98140123e-002 -2.77244835e-003
      -2.78107412e-002 -1.07252188e-002 -2.09049527e-002
      -1.97042339e-002 -3.54790920e-003 -6.27861964e-003 5.79474913e-003
      2.81315856e-002 1.63879953e-002 -3.15344799e-003 -4.85944040e-002
      -5.17028198e-002 -3.83815356e-002 -1.12060476e-002
      -7.14764791e-003 -7.61806546e-003 9.60139278e-003 3.34382686e-003
      -3.73945273e-002 -4.18180637e-002 -4.62728590e-002
      -4.20175008e-002 -2.65797339e-002 2.96114566e-004 5.78854382e-002
      4.93677929e-002 -3.87766748e-003 -1.99946165e-002 -4.18163724e-002
      -4.60844450e-002 -5.76508865e-002 -6.13482520e-002
      -2.92043537e-002 4.66751158e-002 2.21235864e-002 -2.67453250e-002
      -3.36595662e-002 -4.82333563e-002 -5.65424375e-002
      -3.65838595e-002 -7.66795361e-003 9.56087094e-003 1.98359601e-002
      2.86616925e-002 5.75362844e-003 -2.69553214e-002 -4.42804024e-002
      -5.51477857e-002 -5.50969765e-002 -4.10905704e-002 4.83874837e-003
      2.75854655e-002 -1.52745889e-002 -2.75682267e-002 -3.24016325e-002
      -3.77734676e-002 -4.01624106e-002 -4.34386656e-002
      -4.56894115e-002 1.13807060e-002 5.20014837e-002 1.43813277e-002
      -2.27849502e-002 -3.36832330e-002 -4.50546183e-002
      -4.66074459e-002 -4.53807786e-002 -3.26000191e-002 2.64618732e-002
      5.32367453e-002 -1.33257238e-002 -3.56141403e-002 -4.02475446e-002
      -3.50982435e-002 -4.16381806e-002 -3.93490754e-002
      -2.65214089e-002 3.42855416e-002 3.33800167e-002 -1.78118106e-002
      -3.33632827e-002 -3.63055542e-002 -4.37173955e-002
      -4.70004082e-002 -3.92333791e-002 -1.10656759e-002 4.91200387e-002
      3.26617099e-002 -4.06104140e-002 -5.20243868e-002 -4.33902480e-002
      -2.42745783e-002 -2.60991566e-002 -3.00592519e-002
      -5.17277513e-003 3.48487869e-002 3.99542563e-002 2.80613708e-003
      -1.84850004e-002 -2.01722905e-002 -2.29525119e-002
      -2.18068827e-002 -2.77119186e-002 -8.59819911e-003
      -9.80807841e-003 -5.19248517e-003 -7.18652795e-004
      -5.65720117e-003 -1.62779130e-002 -2.23028194e-002
      -2.31142901e-002 -1.43630160e-002 2.36788765e-002 4.01044227e-002
      2.21828632e-002 -1.58328358e-002 -2.68832855e-002 -2.02228818e-002
      -1.07300784e-002 -1.75808538e-002 -8.91684089e-003 7.08236732e-003
      1.19026443e-002 -4.63253958e-003 -9.23323736e-004 5.17254323e-003
      -7.71346781e-003 -7.75844464e-003 4.12501069e-003 3.47459596e-003
      1.41699715e-002 -1.14497337e-002 -2.99654137e-002 -2.50640642e-002
      -2.06573885e-002 -2.11233757e-002 -1.26485117e-002
      -5.41663589e-003 4.68947133e-003 4.64238748e-002 4.29486409e-002
      1.78915833e-003 -7.57876271e-003 -9.16992221e-003 -1.37123000e-002
      -2.22181641e-002 -1.31904602e-003 1.51779095e-003 6.87234278e-004
      -2.07399242e-002 -3.67557071e-002 -1.93390567e-002
      -1.47161046e-002 -2.26051211e-002 -3.30309011e-002
      -2.77503990e-002 -2.35224850e-002 1.43721253e-002 1.44509487e-002
      1.68432947e-002 3.08538284e-002 1.57118961e-002 -1.99871995e-002
      -2.21731458e-002 -2.78994292e-002 -2.44871508e-002 5.54228295e-003
      1.29238563e-002 -7.70680793e-003 -1.69421341e-002 -8.55944585e-003
      -1.32513111e-002 -1.56052820e-002 -2.05293819e-002
      -1.74872708e-002 -4.16890631e-004 8.15836247e-003 1.29517782e-002
      1.58982314e-002 -5.61631052e-004 -5.12091676e-003 -3.76605950e-002
      -4.58256230e-002 -3.81058343e-002 -1.90356001e-002
      -1.32156154e-002 5.59768593e-003 1.72762182e-002 1.31100265e-003
      -2.92594358e-002 -2.66270954e-002 -9.83892102e-003
      -4.44089295e-003 -4.59748879e-003 1.25874300e-002 -7.35739421e-004
      8.80902354e-003 -2.28333063e-002 -3.79129909e-002 -2.27616150e-002
      -1.91452764e-002 -1.26638561e-002 6.45780051e-003 3.02703935e-003
      1.22024752e-002 2.82167532e-002 -8.07262212e-003 -2.19930448e-002
      -4.11452129e-002 -4.10283767e-002 -2.95210537e-002
      -7.26879574e-003 2.74848589e-003 -3.12727946e-003 1.99215394e-002
      -1.58840267e-003 -3.77837867e-002 -2.25962251e-002 1.29659090e-003
      7.06317788e-003 7.76987383e-003 7.32592726e-003 -1.13571174e-002
      5.26712276e-003 -4.63870130e-002 -4.77805808e-002 -3.88168991e-002
      -2.84187160e-002 -1.97288524e-002 6.71932474e-003 -1.92582747e-003
      -1.21548995e-002 8.20813607e-003 -2.59901155e-002 -4.78079356e-002
      -4.00471501e-002 -4.39582318e-002 -2.94129886e-002 4.79890546e-003
      2.22471673e-002 1.59073658e-002 2.76760180e-002 1.43856341e-002
      -2.54757907e-002 -4.15813550e-002 -4.46478464e-002
      -3.80297862e-002 -1.54949473e-002 5.83668007e-003 1.86818354e-002
      -1.54317887e-002 -1.50556853e-002 -2.95530483e-002
      -3.63162681e-002 -3.55842263e-002 -1.92272831e-002 1.57908052e-002
      1.76127683e-002 7.39775365e-003 2.37686075e-002 -1.49689289e-003
      -3.18807662e-002 -4.55646068e-002 -4.06438001e-002
      -1.94398127e-002 1.79827325e-002 1.25979129e-002 -1.16313144e-003
      -1.45138809e-002 -1.40024032e-002 -3.97062786e-002
      -3.22089382e-002 -4.07830253e-002 -2.92771999e-002
      -5.33218081e-005 2.99628899e-002 3.81534197e-003 -2.32700855e-002
      -2.16949172e-002 -3.31855863e-002 -3.74108590e-002
      -4.55632061e-002 -2.77765170e-002 2.11142711e-002 4.44397107e-002
      -1.59649659e-004 -5.20471595e-002 -4.27682772e-002
      -4.18193936e-002 -4.18489128e-002 -4.39068787e-002
      -1.20572036e-003 5.44969104e-002 3.13049667e-002 -1.87024511e-002
      -2.39302218e-002 -1.79960541e-002 -3.87350433e-002
      -4.52189483e-002 -4.25114185e-002 -6.30240422e-004 7.11647868e-002
      4.61742692e-002 -2.33073328e-002 -5.62863797e-002 -3.46628428e-002
      -4.24126647e-002 -1.51032414e-002 -2.39094812e-002 1.61725609e-003
      4.86337170e-002 4.49936464e-002 7.70094618e-003 -2.91182976e-002
      -2.38462370e-002 -1.97728369e-002 -4.94877715e-003
      -1.65925231e-002 -3.77667975e-003 1.52261686e-002 1.19203506e-002
      -7.42201740e-003 -1.16233500e-002 4.85208025e-003 -8.52170680e-003
      -2.07384676e-002 -2.26607677e-002 2.04744972e-002 7.34511465e-002
      4.34391871e-002 6.21492229e-003 -2.75729448e-002 -1.66135859e-002
      -1.76291484e-002 -1.81997214e-002 -2.51671653e-002
      -5.22126851e-004 2.22967267e-002 9.08070244e-003 -9.29066911e-003
      -2.25064214e-002 -1.15828011e-002 -2.21900400e-002
      -1.23828482e-002 2.04422628e-003 1.08037079e-002 8.40350892e-003
      -1.15680406e-002 -2.24519838e-002 -6.28775824e-003 9.98138823e-003
      -6.83447253e-003 -7.25700287e-003 -7.26526557e-003 9.62038001e-004
      7.27714226e-003 7.18942797e-003 1.58606302e-002 4.21900153e-002
      4.85411435e-002 1.55992052e-002 -1.35594169e-002 -4.02405579e-003
      6.89682458e-003 -8.29159189e-003 -3.05663217e-002 -2.57649589e-002
      -2.02787537e-002 -5.77911315e-003 -1.10551538e-002 4.32583416e-004
      9.74947773e-003 1.14210276e-002 3.14254686e-003 -1.50421849e-002
      2.78857001e-003 2.10984908e-002 2.76201870e-002 1.01123536e-002
      -1.85693894e-002 -2.67852470e-002 -2.45465059e-002
      -2.05175765e-002 -3.74682583e-002 -3.37629812e-003 3.58384289e-002
      2.64163427e-002 -4.12646029e-003 -7.33144395e-003 2.49226601e-003
      -1.67515571e-003 -2.41046888e-003 4.70803119e-003 -5.68914169e-004
      2.79493835e-002 8.22619442e-003 -1.66124385e-002 -1.35200312e-002
      -9.93474387e-003 -2.36853100e-002 -3.73665169e-002
      -4.56067547e-002 -1.74336042e-002 9.41044930e-003 1.64251383e-002
      -8.31018388e-003 -1.13215270e-002 -7.17866700e-003
      -1.84175633e-002 -2.18774807e-002 -3.41699347e-002
      -4.58209775e-003 3.79951186e-002 4.31346111e-002 -7.76550081e-003
      -1.35867868e-003 1.66139696e-002 1.31801926e-002 2.19245460e-002
      9.07664001e-003 -8.97996407e-003 1.68920979e-002 -1.68887079e-002
      -2.45176218e-002 -2.53426824e-002 -6.73328619e-003 8.88205878e-003
      1.96012482e-002 -3.11935320e-003 -1.36972908e-002 1.36964926e-002
      -2.61406116e-002 -3.65686864e-002 -1.01941228e-002 9.46214714e-004
      -1.62938866e-003 -3.83612840e-003 -4.33956049e-002
      -2.30074935e-002 2.89205909e-002 2.45747026e-002 -9.77778621e-003
      -1.70681905e-002 1.36381411e-003 2.62862183e-002 3.64714675e-003
      -4.78644557e-002 -4.91077341e-002 -5.81560144e-003
      -1.85870659e-003 -2.18411405e-002 -3.39321941e-002
      -2.37448551e-002 1.89606063e-002 2.74193697e-002 -5.79849165e-003
      -8.86526518e-003 1.62171815e-002 -1.77355595e-002 -3.56015079e-002
      -3.68169509e-002 -2.95743737e-002 3.04772016e-002 4.89762984e-002
      7.88596366e-003 -1.94669943e-002 -1.28915729e-002 -1.93955507e-002
      -3.73603553e-002 -1.91055853e-002 2.40347674e-003 5.07082716e-002
      3.55437025e-002 -3.43753695e-002 -4.67857048e-002 -2.18728185e-002
      -1.42177977e-002 -2.20321901e-002 -1.72927864e-002 5.44959027e-003
      6.14131764e-002 5.23387045e-002 -1.09771192e-002 -5.08791357e-002
      -4.22241390e-002 -3.14823762e-002 -2.25684587e-002
      -3.21988240e-002 -2.70979721e-002 4.48566079e-002 7.38157704e-002
      2.00694073e-002 -4.50535864e-002 -2.94819754e-002 -2.58140694e-002
      -3.00660841e-002 -3.90396044e-002 -1.87457595e-002 3.26740704e-002
      8.91933218e-002 2.57236250e-002 -4.71371822e-002 -5.38073368e-002
      -3.32557037e-002 -2.88125258e-002 -1.09228604e-002 1.02488399e-002
      7.13469982e-002 7.51236677e-002 -3.33145517e-003 -5.93600422e-002
      -4.37208638e-002 -2.98913233e-002 -1.34029994e-002
      -2.58494727e-002 5.67759434e-003 4.35983576e-002 7.16949329e-002
      -1.29106268e-002 -5.75701036e-002 -6.44076467e-002
      -3.87693532e-002 -2.03940496e-002 -1.60010662e-002
      -1.67971663e-003 4.02725860e-002 7.55630061e-002 3.72737609e-002
      6.19522342e-003 -9.41493083e-003 -6.06867578e-003 -5.61609538e-003
      -1.34969465e-002 -1.99778695e-002 2.60228990e-003 2.55603120e-002
      9.15702712e-003 -2.98192562e-003 -6.06023381e-003 -8.73141550e-003
      -1.48998927e-002 -9.34703089e-003 2.28690612e-003 3.28617357e-002
      5.93323223e-002 1.48682175e-002 -9.68113134e-004 -1.98562425e-002
      -7.00312713e-003 -5.58946747e-004 -1.19994972e-002
      -2.08218172e-002 -6.63274108e-003 1.02491844e-002 -6.67539751e-003
      -1.16138486e-002 -1.03749493e-002 -8.81221239e-003
      -9.41082928e-003 7.15701515e-003 1.69349890e-002 2.01183390e-002
      1.09722987e-002 -6.54021790e-003 -6.99449191e-003 -1.23498300e-002
      1.36935175e-003 -3.97072500e-003 9.92362667e-003 2.42221709e-002
      2.72882264e-002 1.27032539e-002 -2.85038468e-003 7.14453310e-003
      1.13460212e-003 9.97103658e-003 2.28261622e-003 3.84179037e-003
      1.62008628e-002 1.50484536e-002 1.23259490e-002 -1.50145454e-004
      -3.49180773e-003 -1.04600694e-002 -8.35258834e-006
      -8.00640974e-003 5.53674251e-003 1.06776664e-002 1.60632562e-002
      1.84897687e-002 6.28920132e-003 2.24770373e-003 -8.13930575e-003
      -1.04627460e-002 -1.62505731e-002 1.73228595e-003 7.48262694e-003
      -5.10703307e-004 -2.00722949e-003 -4.34145238e-003 5.26554696e-003
      1.78947225e-002 1.42358691e-002 -1.30872033e-003 8.51797033e-003
      5.58459479e-003 -3.92208109e-003 -7.91333336e-003 -6.03870256e-003
      1.93981826e-002 5.08764610e-002 6.09222017e-002 2.42011081e-002
      -1.67689137e-002 -1.60895362e-002 -1.17922062e-002 1.59532554e-003
      -1.74896512e-003 -9.94830765e-003 -1.87293850e-002
      -2.19294727e-002 -2.26289462e-002 -1.35394819e-002
      -1.85425263e-002 -2.03354172e-002 -6.30778074e-003
      -6.83138985e-003 1.15038007e-002 1.27571356e-002 2.05099937e-002
      1.02119253e-003 1.61998551e-002 1.66989360e-002 1.31225446e-002
      -2.00123736e-003 -2.56565996e-002 -3.80112440e-003 5.92492409e-002
      6.76651150e-002 2.50737462e-002 2.98989732e-002 2.86100209e-002
      3.42995636e-002 5.96517604e-003 -3.82826887e-002 -4.14511599e-002
      6.14298834e-003 3.12185958e-002 2.34566126e-002 -6.28976524e-003
      -1.73865557e-002 -2.25119703e-002 -1.17062619e-002
      -9.93300043e-003 3.54882632e-003 8.99607968e-003 2.89506000e-002
      1.02702370e-002 7.39718089e-003 -2.57731811e-003 -3.50084249e-003
      -1.32158007e-002 -3.13716419e-002 -2.28352901e-002
      -4.47137002e-003 1.88460499e-002 2.02764776e-002 3.13370079e-002
      3.80288661e-002 5.94002977e-002 3.70129831e-002 -2.81105638e-002
      -3.50368842e-002 1.85433566e-003 2.95881350e-002 2.78402548e-002
      3.14274505e-002 4.38898914e-002 5.67664243e-002 4.29592095e-002
      -1.10947769e-002 -3.04797553e-002 -1.31302550e-002 7.23053748e-003
      2.15269290e-002 2.26830933e-002 8.49672593e-003 8.88902508e-003
      -4.93465737e-003 -4.60259095e-002 -3.00033092e-002 4.13130590e-004
      1.52952187e-002 1.68383960e-002 1.75593998e-002 1.02695553e-002
      1.05180172e-002 -1.46936718e-002 -4.60957550e-002 -3.72406468e-002
      -1.44486139e-002 8.33423401e-004 1.23328511e-002 4.39021178e-002
      5.35643883e-002 6.09158874e-002 6.14105910e-002 -5.96743892e-004
      -2.68177334e-002 -3.15548433e-003 1.18762134e-002 3.23705487e-002
      1.52238673e-002 3.30058262e-002 4.91958298e-002 5.95209524e-002
      -1.11231450e-002 -1.91999283e-002 -1.24310469e-002 3.99074750e-003
      1.37367463e-002 1.66106746e-002 9.51991417e-003 1.48665654e-002
      -2.65292241e-003 -3.23681869e-002 -3.92686352e-002
      -1.08054802e-002 -4.79724869e-004 1.47659481e-002 -7.72208301e-003
      -6.85470644e-003 9.32383758e-004 5.63779660e-003 -2.40554847e-002
      -2.27002464e-002 -1.18743824e-002 -7.06824940e-004
      -1.44963269e-003 9.23168473e-003 1.30182281e-002 3.28205936e-002
      4.46535274e-002 8.73477012e-003 2.86546024e-003 -5.05414186e-003
      1.03344014e-002 1.30232759e-002 1.06553389e-002 1.11703656e-003
      1.43443709e-002 2.19404809e-002 3.45957698e-003 6.74375915e-004
      -5.42207947e-003 5.39175142e-003 5.47971297e-003 -5.52175241e-003
      -5.67007903e-003 5.76651003e-003 1.88927744e-002 1.89575390e-003
      8.39641900e-004 -5.46079129e-003 7.95293786e-003 2.58621317e-003
      -4.51299129e-003 -8.60867836e-003 5.28809754e-003 1.42175453e-002
      -2.71588936e-003 -3.27018672e-003 -1.20079909e-002
      -9.02685588e-006 -5.16092265e-003</_>
    <_>
      -1.71710104e-002 -1.17558781e-002 -1.11171640e-002 6.00233022e-003
      3.17060575e-002 1.77125875e-002 -1.08211767e-002 -1.04459757e-002
      -1.51253538e-002 -2.41927281e-002 -1.34371566e-002
      -9.07338224e-003 2.71376898e-003 4.02882695e-002 3.83514613e-002
      -1.97122619e-002 -2.22176742e-002 -3.05936020e-002
      -1.57629624e-002 -1.63536537e-002 -1.61741916e-002 5.69181424e-003
      2.71910075e-002 2.03921776e-002 -9.89073887e-003 -1.29544316e-002
      -1.04235392e-002 -2.90708467e-002 -1.98812410e-002
      -1.66893080e-002 9.80480760e-003 3.87932472e-002 4.44585271e-002
      -1.67977959e-002 -2.04388704e-002 -2.49857064e-002
      -2.83364654e-002 -1.87930278e-002 -1.40073169e-002 7.87320372e-004
      4.38176021e-002 4.33496423e-002 -1.43624702e-002 -2.13499460e-002
      -2.85852831e-002 -2.60380674e-002 -2.01385301e-002
      -2.08386593e-002 -1.04861669e-002 3.40600498e-002 2.37050131e-002
      -1.67728197e-002 -1.67603120e-002 -2.13763025e-002
      -3.35735455e-002 -2.87954304e-002 -2.37684678e-002 3.88497976e-003
      4.49870266e-002 4.71868291e-002 -6.56161504e-003 -1.93301737e-002
      -2.91797165e-002 -2.01612245e-002 -1.87240355e-002
      -1.80916805e-002 -3.83786415e-003 3.71957906e-002 3.59594412e-002
      -4.92646545e-003 -1.27905644e-002 -1.77991539e-002
      -1.01386663e-002 -9.50758811e-003 -1.33852996e-002
      -1.55266235e-002 -7.63064343e-003 -9.78879724e-003
      -1.35769406e-002 -6.05807640e-003 -8.90377536e-003 1.73768830e-002
      1.03587154e-002 1.04763173e-002 -5.50892786e-004 -1.69794578e-002
      -2.83016246e-002 -7.25334696e-003 9.24204756e-003 1.50906425e-002
      1.22232800e-002 1.29190329e-002 7.05835130e-003 -2.85708532e-003
      -1.39079790e-003 4.31726221e-003 -6.92828558e-004 2.76516774e-003
      5.37660858e-003 4.21279930e-002 4.22099195e-002 3.22541036e-002
      1.25867277e-002 -1.63037721e-002 -1.44547895e-002 1.43300369e-002
      2.53836047e-002 3.91360447e-002 -4.34914604e-003 -3.35529819e-003
      2.04938781e-002 2.31157858e-002 -2.57903729e-002 -5.28513640e-002
      -2.27446891e-002 -8.18225462e-003 -4.37637419e-003
      -1.62273236e-002 -8.38890206e-003 3.38563547e-002 4.88556325e-002
      2.27488065e-003 -2.79074423e-002 -3.12229563e-002 -1.53962569e-002
      -1.44692445e-002 2.49745920e-002 3.58526073e-002 4.64119762e-002
      2.00175270e-002 -4.03212346e-002 -4.11064401e-002 -3.97478201e-004
      1.22977735e-003 1.88762657e-002 6.48500910e-003 1.86057445e-002
      4.64207642e-002 2.41313148e-002 -1.60590243e-002 -9.88926459e-003
      1.27590932e-002 5.11083566e-003 -8.71716940e-004 -1.39257787e-002
      -7.05027813e-003 2.33317576e-002 5.45234010e-002 1.67745873e-002
      -1.83415005e-003 -2.37672385e-002 -1.60232428e-002
      -1.57859046e-002 -1.42877735e-002 -1.17493495e-002 1.14191649e-002
      3.89387123e-002 6.36157580e-003 -1.35766864e-002 -2.29176711e-002
      -2.01383382e-002 -2.12486070e-002 -4.04441124e-003 9.17478639e-004
      1.31594362e-002 6.63069868e-003 1.94107008e-003 1.51027609e-002
      3.50609012e-002 9.48451180e-003 -8.97792261e-003 -7.28425803e-003
      -1.73323546e-002 -1.44485217e-002 -2.82542221e-003 3.80006910e-004
      1.07323080e-002 9.92300641e-003 -2.47131893e-003 -1.34489378e-002
      -6.33286824e-003 -7.44266529e-003 6.52973307e-003 2.79546864e-002
      1.16815949e-002 4.19069082e-003 -7.53833121e-003 -1.46165602e-002
      -1.16584711e-002 -1.20546836e-002 -1.01304157e-002
      -6.27814420e-003 8.90716258e-003 1.56772938e-002 1.40981106e-002
      -1.20116407e-002 -1.21469060e-002 -9.29329451e-003 1.16913533e-003
      -4.61065071e-003 -2.79260357e-003 8.93733092e-003 1.34069799e-002
      1.64819900e-002 9.03580990e-003 2.15169950e-003 -6.58408832e-003
      -8.19821376e-003 -5.59113361e-003 4.83295973e-003 2.29567774e-002
      1.60046965e-002 2.73191817e-002 1.48281013e-003 -8.81422311e-003
      -1.18733319e-002 -2.59697065e-003 -1.64457802e-002
      -2.29828395e-002 -1.29762348e-002 1.00342361e-002 3.64187616e-003
      -1.88242015e-003 1.30545888e-002 2.05911193e-002 -6.24751579e-003
      -1.70094352e-002 -1.94092598e-002 -5.50999120e-003 1.59434397e-002
      2.26736739e-002 -8.03532824e-003 -1.73286640e-003 6.76627317e-003
      3.60894985e-002 -1.49557805e-002 -3.28963473e-002 -3.96559499e-002
      -2.67003775e-002 -2.48405375e-002 -1.26622804e-002 3.66129726e-002
      5.74900731e-002 3.74874026e-002 2.78280443e-003 -1.94338989e-002
      -3.31010967e-002 -2.18976382e-002 -2.04531867e-002
      -1.60138588e-002 2.25971546e-002 4.76824231e-002 -1.23540759e-002
      -2.31435038e-002 -2.58425791e-002 -1.98875125e-002 1.30228996e-002
      1.99790001e-002 -8.90209619e-003 -7.46760704e-003 -3.63003463e-003
      -8.59655847e-004 -8.49773362e-003 -1.68674439e-002
      -1.87951848e-002 6.52426388e-003 2.21770778e-002 7.49675836e-003
      4.99102240e-003 5.96618978e-003 3.17468941e-002 4.40991390e-003
      -7.67914345e-003 -3.94982919e-002 -3.03215981e-002
      -1.28694028e-002 -1.09094745e-002 1.04530612e-002 3.48485783e-002
      4.01744545e-002 2.67106667e-002 1.35188727e-002 -1.98466852e-002
      -1.64798815e-002 7.66722544e-004 5.24800643e-003 3.07848454e-002
      4.34164777e-002 -3.22721258e-004 -4.28207638e-003 -8.08093976e-003
      -2.40040421e-002 -1.29416138e-002 -5.33048529e-003 3.34611512e-003
      -5.77620172e-004 5.37979591e-004 1.57657918e-002 1.69311780e-002
      -8.53041071e-004 -1.40775777e-002 -1.75393578e-002 1.22733852e-002
      3.39950770e-002 1.37717519e-002 8.83405842e-003 5.77696646e-003
      4.87054279e-003 5.12187043e-003 -2.36720163e-002 -2.11167804e-004
      1.42681068e-002 5.20211365e-003 1.34756379e-002 1.69750862e-002
      -1.18247420e-002 -1.27942516e-002 -1.57279000e-002
      -2.12128107e-002 8.36258102e-003 2.97319274e-002 3.74830812e-002
      9.85311717e-003 -2.54694792e-003 4.76019504e-003 1.15004797e-002
      -9.46954766e-004 -2.35584006e-002 -3.82462069e-002 4.18111635e-003
      2.62789521e-002 -3.06557794e-003 -2.69040256e-003 -9.84460302e-003
      -8.44010711e-003 -1.23815192e-003 -2.83033382e-002
      -1.58975888e-002 2.49209031e-002 4.18247543e-002 3.05939722e-003
      -1.44912461e-002 -2.44146250e-002 -2.84090396e-002
      -3.76246646e-002 -4.20253985e-002 1.10335567e-003 5.02712429e-002
      4.21152934e-002 -3.33641237e-003 -1.45622343e-002 -3.58132869e-002
      -4.08954993e-002 -4.65603657e-002 -4.70427498e-002 1.49140311e-002
      4.42419760e-002 4.36423309e-002 -5.03831264e-003 -2.47689486e-002
      -1.81208998e-002 -2.14570556e-002 -2.39392109e-002
      -3.16507146e-002 -1.18267944e-003 4.66510244e-002 4.87759858e-002
      8.30251537e-003 -2.04217546e-002 -2.09828708e-002 -3.04105133e-002
      -3.32712829e-002 -3.64871584e-002 -1.66644342e-002 2.69373618e-002
      1.09148882e-002 -7.88536109e-003 -2.65218485e-002 -3.28715853e-002
      -3.61301191e-002 -3.78592387e-002 -3.69725861e-002 3.79478410e-002
      5.32226451e-002 4.76899147e-002 -7.20530609e-003 -2.52490435e-002
      -2.95073930e-002 -3.15306038e-002 -2.83630211e-002
      -2.60262154e-002 2.71386541e-002 4.46682274e-002 1.07390173e-002
      -1.53404744e-002 -2.59262957e-002 -6.21956168e-003
      -1.29842572e-002 -8.23644362e-003 -3.33677046e-003 2.25656503e-003
      2.35374942e-002 1.44625818e-002 -4.23476333e-003 -1.76700167e-002
      -1.41783860e-002 -1.06349792e-002 -1.63432211e-003 1.66425668e-002
      3.88293690e-003 1.73715316e-002 -6.99025695e-004 -1.49736488e-002
      -2.33092587e-002 -1.12349344e-002 -5.53687615e-003 2.70902249e-003
      9.87473037e-003 1.63893513e-002 2.61469930e-002 1.12966206e-002
      -8.74041021e-003 -1.83534324e-002 -1.76952546e-003 7.36513454e-003
      4.05268557e-003 2.06529163e-002 1.61309876e-002 1.60038285e-002
      -1.36781239e-003 -1.71216130e-002 -2.16333754e-002 4.37318198e-002
      -7.19867647e-003 -3.42237316e-002 -5.39771803e-002
      -6.20149933e-002 -5.33899292e-002 -3.35991085e-002 2.82361880e-002
      7.91548043e-002 4.17333432e-002 8.30371119e-003 -1.10487035e-002
      -5.09384088e-002 -6.95905983e-002 -5.90604879e-002
      -2.91370712e-002 2.48788651e-002 6.55108765e-002 5.51069267e-002
      1.38522908e-002 -3.26968357e-002 -6.60744160e-002 -7.62872845e-002
      -5.58487587e-002 -2.75197141e-002 3.57721858e-002 8.27882588e-002
      5.21164946e-002 3.29174735e-002 5.05561894e-003 -3.36862542e-002
      -6.85316101e-002 -4.46675420e-002 -1.50821647e-002 3.83096412e-002
      6.52650520e-002 1.95475835e-002 3.50087229e-003 1.43220099e-002
      -3.93529125e-002 -6.47887364e-002 -4.66567874e-002
      -3.05589698e-002 -5.25262021e-003 2.95796022e-002 2.38560829e-002
      1.57056917e-002 3.06177735e-002 -2.12942827e-002 -3.86969820e-002
      -1.87817737e-002 -2.38050148e-002 3.65159125e-003 3.08142230e-002
      1.62736475e-002 2.61141285e-002 3.81206125e-002 -8.90208699e-004
      -4.25423793e-002 -2.87863631e-002 -2.43308097e-002
      -1.48638396e-003 1.97462514e-002 1.48524009e-002 2.90072039e-002
      4.60407883e-002 1.77730825e-002 -2.20618839e-003 7.16829672e-003
      -2.03116741e-002 -6.92129461e-003 1.45872077e-002 -6.98746694e-003
      -9.02880542e-003 1.32137761e-002 -2.14930046e-002 -1.44891470e-004
      7.45610055e-003 -2.09228843e-002 -8.93902034e-003 2.31325743e-003
      -3.09619606e-002 -3.03202979e-002 -9.84465517e-003
      -8.04879703e-003 2.72228215e-002 3.81990708e-002 7.44335074e-003
      -2.01986730e-002 -2.22961735e-002 -6.71477290e-003 7.73442350e-003
      2.16036811e-002 7.46489828e-003 1.72771439e-002 5.91531163e-003
      -3.21372487e-002 -2.52904445e-002 -8.89766123e-003
      -3.08812968e-002 -1.12901516e-002 1.12515800e-002 3.59890647e-002
      3.06487810e-002 1.45580620e-002 -4.78064790e-002 -4.07032073e-002
      -3.38179506e-002 -3.36797088e-002 -3.81908901e-002
      -3.41037214e-002 -1.96626429e-002 3.60413529e-002 5.30473925e-002
      1.08944625e-002 -1.84364710e-002 -2.12548543e-002 -3.73064615e-002
      -4.38686684e-002 -4.64299731e-002 -2.88968720e-002 3.23000178e-002
      5.64889275e-002 1.44964429e-002 -1.85575150e-002 -2.34233476e-002
      -3.56568880e-002 -2.91046053e-002 -5.15492586e-003 1.68112572e-002
      3.42477337e-002 2.14733686e-002 -3.82258594e-002 -3.31308618e-002
      -2.97735054e-002 -3.60844098e-002 -3.65854762e-002
      -8.83175619e-003 1.04594799e-002 3.46276127e-002 1.85018945e-002
      -3.01764961e-002 -3.38046029e-002 -3.06330770e-002
      -3.12774368e-002 -3.49053331e-002 -3.58794294e-002
      -1.65726058e-002 4.47019674e-002 4.92619537e-002 6.61472650e-003
      -1.73002835e-002 -2.12706774e-002 -2.96588819e-002
      -3.11792046e-002 -2.58263871e-002 -4.37157787e-003 3.50710787e-002
      3.40493917e-002 -1.41794346e-002 -2.58556921e-002 -2.56454740e-002
      -3.25995088e-002 -3.58213261e-002 -2.29613530e-003 3.32695432e-002
      4.10353653e-002 8.91580340e-003 -2.50011366e-002 -3.19106169e-002
      -2.99782269e-002 -3.24608386e-002 -1.05695212e-002 2.11321749e-002
      3.73840779e-002 3.60207185e-002 -1.58171263e-002 -4.87739667e-002
      -4.23197933e-002 -3.47345844e-002 -1.96138918e-002 2.50106707e-004
      -2.02397048e-003 1.79557633e-002 2.18429137e-002 1.29009699e-002
      -2.13173777e-002 -2.82121655e-002 -2.45854128e-002
      -1.91128869e-002 1.12978416e-002 1.19354678e-002 1.33114327e-002
      9.78319999e-003 -3.07141454e-003 -2.93390416e-002 -3.41039449e-002
      -3.35156582e-002 -8.68982822e-003 1.43285897e-002 3.68799306e-002
      2.91267801e-002 1.48599567e-002 -2.50123404e-002 -3.96378972e-002
      -2.94631328e-002 -2.44578011e-002 3.65352695e-004 2.50636246e-002
      2.84356587e-002 1.11023802e-002 5.62923553e-004 -2.96778176e-002
      -3.42986062e-002 -2.80105416e-002 -2.37655304e-002 4.63581830e-002
      1.30514568e-002 -2.92667281e-002 -4.70636375e-002 -5.27189560e-002
      -3.16166393e-002 -1.18552092e-002 2.32379586e-002 5.91920055e-002
      3.65852229e-002 2.01965272e-002 3.23278084e-003 -2.13144552e-002
      -2.67019663e-002 -3.17189377e-003 3.40421102e-003 2.76129153e-002
      4.49443087e-002 1.15779536e-002 -1.45065086e-003 -2.45817043e-002
      -3.54091115e-002 -2.90027130e-002 -2.22463477e-002
      -1.10335192e-002 9.65059269e-003 2.44894940e-002 6.43560104e-003
      -6.26314478e-003 -1.36076305e-002 -1.72390845e-002
      -7.90635869e-003 1.07774707e-002 1.67390015e-002 2.53272615e-002
      2.68221311e-002 -1.16006529e-003 3.38096358e-003 2.41044573e-002
      5.39860083e-003 -8.50551017e-003 3.14106728e-004 -6.59857877e-003
      2.97074555e-003 6.24257419e-003 -1.14478054e-003 1.78865902e-002
      3.84317562e-002 1.35781066e-002 8.14608671e-003 1.12496167e-002
      -1.41478544e-002 -1.66396927e-002 -6.15256745e-003
      -1.73738170e-002 -2.76245624e-002 -1.01475222e-002
      -1.05565134e-002 4.68103355e-003 1.82265230e-002 1.92977600e-002
      1.40326731e-002 -2.30284198e-003 -3.77687789e-003 -4.98850504e-003
      1.29270484e-003 -9.04649403e-003 1.10701472e-002 1.15803005e-002
      7.58311432e-003 -6.43745530e-003 -1.71182677e-002 8.62196833e-003
      2.99984254e-002 3.84380408e-002 1.97800733e-002 5.08429529e-003
      -3.86941829e-003 -2.61416193e-002 -2.55771521e-002
      -1.14848530e-002 -7.82644562e-003 1.21778054e-002 3.31949219e-002
      3.89980115e-002 2.00889003e-003 -2.40969509e-002 -5.05339280e-002
      -3.68408188e-002 -2.43385471e-002 1.97776463e-002 2.34423522e-002
      1.83718372e-002 -5.03027905e-003 -1.70578454e-002 -1.18715884e-002
      -1.19371675e-002 -2.01105718e-002 -8.07176437e-003 1.53710786e-002
      1.80432200e-002 3.50960121e-002 1.84792913e-002 -2.21287869e-002
      -4.30603176e-002 -4.40070741e-002 -2.87190787e-002
      -7.55551597e-003 -3.02054137e-002 -1.17255999e-002 2.60118358e-002
      3.31712924e-002 9.66299325e-003 -1.14029311e-002 -4.24765237e-002
      -3.04074027e-002 -2.80995294e-002 -3.77933942e-002
      -2.37982702e-002 2.83093937e-002 3.74173373e-002 1.50694326e-002
      -1.96138881e-002 -4.21586744e-002 -3.68539169e-002
      -3.66136581e-002 -1.83879882e-002 -6.76613115e-003 4.70665395e-002
      3.69248800e-002 -7.67870713e-003 -4.26991917e-002 -4.63280194e-002
      -2.97869015e-002 -2.66392231e-002 -3.88676003e-002
      -1.35039296e-002 4.21777628e-002 4.73480597e-002 9.97915305e-003
      -4.99132127e-002 -5.01363166e-002 -4.08184938e-002
      -4.07139063e-002 -2.80067008e-002 -2.87836306e-002 2.93525290e-002
      5.17104641e-002 2.32031196e-002 -3.14596817e-002 -3.55072916e-002
      -3.41117606e-002 -3.08373161e-002 -2.06608847e-002
      -5.21500688e-003 2.90079378e-002 5.25605083e-002 1.91787500e-002
      -5.04860021e-002 -5.20651750e-002 -3.85527909e-002
      -3.00760958e-002 -3.23292315e-002 -3.13859358e-002 3.35352197e-002
      6.08097799e-002 1.78911798e-002 -4.55755480e-002 -3.64486501e-002
      -3.09551507e-002 -3.03674340e-002 -2.02887058e-002
      -2.22923439e-002 1.04566654e-002 4.84411381e-002 1.00359172e-002
      -5.02312966e-002 -4.37671803e-002 -2.89271194e-002
      -2.29997970e-002 1.54219819e-002 2.07030531e-002 3.40023413e-002
      2.98890267e-002 3.48834088e-003 -4.30586413e-002 -3.87558565e-002
      -2.20139883e-002 -1.29290884e-002 2.30329558e-002 3.20047401e-002
      2.23604739e-002 6.48570107e-003 -1.05946064e-002 -2.57436503e-002
      -2.66660694e-002 -1.30862147e-002 -7.07244733e-003 1.29819466e-002
      1.06081869e-002 1.75734088e-002 1.95651390e-002 -2.49496475e-003
      -3.44555974e-002 -3.14015597e-002 -9.51254740e-003 5.80975693e-003
      1.08998530e-002 4.96369228e-003 2.28985399e-003 -3.47517058e-003
      -1.54544152e-002 -2.29785927e-002 -2.00558882e-002
      -7.70986173e-003 4.45478456e-003 3.78856366e-003 -5.83072333e-003
      -1.56825073e-002 -2.27104407e-002 -5.54856751e-003
      -4.59170435e-004 -7.71383103e-003 5.15132817e-003 9.85789206e-003
      -1.80663995e-003 -1.50721800e-002 -2.24342253e-002
      -2.14610398e-002 1.19644562e-002 2.45847739e-002 1.18563958e-002
      1.62301492e-002 1.31117646e-002 2.01047561e-003 6.41814666e-003
      -4.67041926e-003 -1.63297094e-002 -6.08876348e-003 2.21548951e-003
      -6.45567570e-003 -6.72045955e-003 -5.43667376e-003
      -5.13297180e-003 8.68630409e-003 -1.15871243e-002 -1.08656399e-002
      1.46730877e-002 1.56246917e-002 -4.38365713e-003 -7.72928679e-003
      -1.12307742e-002 -1.84859578e-002 -2.89656688e-002
      -2.50472687e-002 -1.51174245e-002 2.14424990e-002 3.57370898e-002
      2.32350845e-002 1.48351789e-002 1.89192523e-003 -9.89346858e-003
      -2.23975051e-002 -2.29078028e-002 -1.97632238e-002 2.74955127e-002
      4.70112823e-002 4.01410833e-002 1.01069482e-002 -3.23257805e-003
      -1.80893466e-002 -1.14683481e-003 -1.70900784e-002
      -1.79200768e-002 2.15611570e-002 2.22589187e-002 -8.68111104e-003
      -1.82271525e-002 -2.21577641e-002 -1.92313977e-002
      -5.07425796e-003 -1.08416406e-002 -1.88075230e-002 1.59321055e-002
      3.25261354e-002 1.31647596e-002 -7.80296512e-003 -2.36268621e-002
      2.99940491e-003 -5.79228206e-003 -1.77972838e-002 -2.72890795e-002
      -1.51707670e-002 7.09059555e-003 1.63530633e-002 -3.33725940e-003
      -1.57108635e-003 1.28619643e-002 1.40867457e-002 3.63838784e-002
      2.55679172e-002 -2.21152008e-002 -3.51287164e-002 -1.74593069e-002
      -1.17581300e-002 5.23106242e-003 -1.18076131e-002 8.85728654e-003
      7.11200712e-003 -2.52155717e-002 -2.30312888e-002 7.66550715e-004
      8.13967641e-003 -1.79821381e-003 -9.50449426e-003 7.62182986e-003
      2.47943811e-002 4.72429581e-002 2.29174308e-002 -2.76305471e-002
      -3.75105627e-002 -1.10387700e-002 -8.20649613e-004 2.08587106e-002
      -1.47469752e-002 -6.51087100e-003 4.40594777e-002 3.59443687e-002
      -1.37542924e-002 -4.42324430e-002 -3.53964716e-002
      -2.28495542e-002 -1.53115494e-002 -2.21696049e-002
      -6.00314583e-004 4.20886055e-002 4.54578362e-002 -7.58764800e-003
      -5.43033369e-002 -4.20795046e-002 -3.10648829e-002
      -2.49917842e-002 9.09431186e-003 1.58055108e-002 4.19513993e-002
      9.75268055e-003 -3.76889631e-002 -4.50263359e-002 -3.02218068e-002
      -1.50593631e-002 1.65129453e-002 1.97679810e-002 2.81290971e-002
      4.15004604e-002 2.12350115e-003 -4.40485850e-002 -5.52346259e-002
      -3.50857750e-002 -2.45289337e-002 5.21817617e-003 -2.25336049e-002
      1.26589235e-004 4.25898805e-002 5.94309382e-002 1.63984038e-002
      -3.33415344e-002 -2.53631379e-002 -1.81733519e-002
      -1.76857337e-002 -1.92105900e-002 -2.76020076e-003 1.91185232e-002
      4.46300507e-002 3.49459401e-003 -3.49559188e-002 -2.54766401e-002
      -1.27127357e-002 -5.46489051e-003 6.08481653e-003 3.83996814e-002
      4.85103652e-002 1.69566032e-002 -2.04330441e-002 -3.82379368e-002
      -2.22261231e-002 -1.34329619e-002 -4.15837113e-003
      -2.48809308e-002 4.84166667e-003 1.20657962e-002 -7.54469214e-003
      -3.99820805e-002 -4.22433540e-002 -2.32663583e-002
      -8.46976601e-003 -8.26821011e-003 1.65414922e-002 1.92772727e-002
      2.14934740e-002 1.87817309e-002 -2.11769075e-004 -1.66105200e-002
      -7.69731030e-003 1.15210945e-002 2.37239227e-002 1.93866622e-002
      1.05842650e-002 1.36206867e-002 7.42177479e-003 5.18478360e-003
      -8.98653828e-003 -1.35788054e-003 9.62642767e-003 2.36026272e-002
      3.55523406e-003 7.24489754e-003 9.65668913e-003 9.19541623e-003
      -2.63632108e-002 -2.16259006e-002 -7.85952061e-003 1.09607726e-002
      1.01141129e-002 1.02840206e-002 2.50038365e-003 8.89991317e-003
      4.64084418e-003 -2.39599310e-002 -2.83503253e-002 -1.29229678e-002
      7.68547412e-003 8.22715741e-003 9.59886878e-004 2.83957236e-002
      7.97485758e-004 -1.02114994e-002 -1.13295373e-002 -8.80966149e-003
      -1.10357152e-002 -7.63439992e-003 -1.18999975e-002 4.29984648e-003
      3.76223773e-002 1.00993831e-002 -1.92995127e-002 2.77769915e-003
      -6.70844165e-004 -1.84272248e-002 -1.64375771e-002
      -2.23587193e-002 2.38018520e-002 3.57284024e-002 1.62118953e-002
      -1.43685397e-002 -2.18034256e-002 -1.42196072e-002
      -1.36392685e-002 -1.13344267e-002 -1.18994126e-002 1.39809242e-002
      3.47447246e-002 1.79717410e-002 -1.70397460e-002 -8.97198729e-003
      -1.53404856e-002 -1.87030826e-002 -2.22271774e-002
      -2.57487576e-002 2.69411551e-003 3.07020601e-002 3.94446030e-003
      -1.56881940e-002 1.78674888e-002 1.22240288e-002 -1.87439062e-002
      -2.51252372e-002 -2.54766140e-002 -1.09791849e-003 2.44413856e-002
      1.88084152e-002 -6.18309807e-003 1.58063825e-002 1.51730627e-002
      -1.43794138e-002 -2.57647317e-002 -2.47191302e-002
      -4.35186317e-003 2.26656143e-002 1.22004738e-002 -1.41571509e-002
      3.70477885e-003 -1.23007456e-004 -2.50683613e-002 -3.63652594e-002
      -3.85400541e-002 -1.31667918e-002 1.81805659e-002 1.56047167e-002
      4.60416498e-003 6.28388673e-003 6.82033692e-003 -3.31142507e-002
      -4.12258841e-002 -3.90385464e-002 1.55175722e-003 3.31234336e-002
      3.63143161e-002 -2.06429232e-003 -6.65244181e-003 -1.33017190e-002
      -1.22139258e-002 -1.17133884e-002 -7.02877296e-003 2.08855905e-002
      3.54392864e-002 4.34731580e-002 6.77976618e-003 -1.88991204e-002
      -1.92391798e-002 -1.24721853e-002 9.85716283e-003 2.75381785e-002
      -1.10985832e-002 1.84170213e-002 2.22781021e-002 8.86157900e-003
      7.33367307e-003 -7.47228647e-003 -2.42175609e-002 -2.47942172e-002
      -2.44365353e-002 -3.36145074e-003 1.15121156e-002 1.93735603e-002
      9.87093244e-003 -6.87767565e-003 -1.52369030e-002 -1.93353668e-002
      -9.07747820e-003 2.01352756e-003 4.58141491e-002 2.79666167e-002
      2.87863780e-002 5.50391106e-003 -2.28284653e-002 -9.86927655e-003
      -1.44227117e-003 2.02655327e-002 5.90163805e-002 4.74313870e-002
      3.47175784e-002 2.19314117e-002 -1.09020323e-002 -3.56216803e-002
      -1.93159841e-002 -5.15542924e-003 7.60919182e-003 4.49219644e-002
      9.31347255e-003 -3.74538405e-003 -8.36279942e-004 -7.09418068e-003
      -2.00451966e-002 -1.03748329e-002 -6.41309191e-003
      -1.24886574e-003 1.49132609e-002 1.03970701e-002 3.24891671e-003
      -1.05339987e-002 -2.53866203e-002 -2.98103616e-002
      -5.27038472e-003 -1.12834037e-003 -8.47478863e-003 9.43307951e-003
      4.31059599e-002 4.20954302e-002 3.46803553e-002 5.47320722e-003
      -2.29189675e-002 -1.35709960e-002 2.71302345e-003 1.22626694e-002
      2.53549926e-002 3.45734064e-003 2.23193280e-002 1.85792837e-002
      4.36580554e-003 -3.10010482e-002 -1.74480733e-002 2.66670482e-003
      1.75305586e-002 9.45356581e-003 1.96309071e-002 2.90909689e-002
      1.15393959e-002 -5.12468815e-003 -1.88098364e-002 -8.19150824e-003
      3.78431589e-003 -2.97810591e-004 6.38494920e-003 7.84425065e-003
      2.22781338e-002 1.26939174e-002 -6.72489358e-003 -2.55051721e-002
      -1.76107809e-002 -3.51696881e-003 1.02031985e-002 7.16577377e-003
      7.27278600e-003 1.38515048e-002 2.01176591e-002 9.79241729e-003
      -2.35910416e-002 -2.08319388e-002 -5.71801839e-003 1.22243268e-002
      9.15807951e-003 1.82229336e-002 1.93599667e-002 2.38367189e-002
      2.26826500e-002 -1.46766147e-002 -1.45078059e-002 -1.15336673e-002
      5.80506958e-003 9.72419698e-003 1.17709003e-002 1.96650326e-002
      1.94786582e-002 2.22162576e-003 -1.62287671e-002 -1.88238211e-002
      -6.17796509e-003 1.21235754e-002 1.37477862e-002 1.21547431e-002
      1.26797641e-002 1.80853829e-002 2.29283925e-002 -8.79037473e-003
      -7.11388234e-003 -6.26157317e-003 1.36399607e-003 4.19993699e-003</_></support_vectors>
  <decision_functions>
    <_>
      <sv_count>1</sv_count>
      <rho>-3.1512687199407213e-001</rho>
      <alpha>
        1.</alpha>
      <index>
        0</index></_>
    <_>
      <sv_count>1</sv_count>
      <rho>3.1593601753315437e-001</rho>
      <alpha>
        1.</alpha>
      <index>
        1</index></_>
    <_>
      <sv_count>1</sv_count>
      <rho>6.6625060124699853e-001</rho>
      <alpha>
        1.</alpha>
      <index>
        2</index></_></decision_functions></my_svm>
</opencv_storage>
