<?xml version="1.0"?>
<opencv_storage>
<my_svm type_id="opencv-ml-svm">
  <svm_type>C_SVC</svm_type>
  <kernel><type>LINEAR</type></kernel>
  <C>1.0000000000000000e-002</C>
  <term_criteria><epsilon>1.1920928955078125e-007</epsilon>
    <iterations>1000</iterations></term_criteria>
  <var_all>576</var_all>
  <var_count>576</var_count>
  <class_count>2</class_count>
  <class_labels type_id="opencv-matrix">
    <rows>1</rows>
    <cols>2</cols>
    <dt>i</dt>
    <data>
      -1 1</data></class_labels>
  <sv_total>1</sv_total>
  <support_vectors>
    <_>
      4.83493432e-002 -9.29327402e-003 -3.49688604e-002 1.49835162e-002
      4.52821255e-002 5.62946219e-003 2.25247815e-002 1.37784882e-002
      5.63757718e-002 -7.14446092e-003 -5.46710119e-002 -1.32042632e-001
      -7.63580129e-002 3.41220722e-002 2.08727382e-002 1.54928230e-002
      4.43303492e-003 -1.35037303e-002 -1.35401227e-002 -8.13341960e-002
      -9.05820057e-002 -6.32491708e-002 -1.59943681e-002
      -1.18195238e-002 -5.64123429e-002 -1.69318859e-002
      -3.86777590e-003 -8.90018642e-002 -1.72362894e-001
      -2.32217044e-001 -1.34760797e-001 -6.12418680e-003
      -2.03982498e-002 -5.04515432e-002 -3.17319520e-002
      -3.89133319e-002 -8.62553157e-003 -2.07740385e-002
      -7.15082660e-002 -1.96788670e-003 1.29167497e-001 1.16112843e-001
      6.40262291e-002 4.64423485e-002 -1.33046759e-002 -2.95656919e-002
      1.53992176e-002 -1.93069130e-002 5.52485846e-002 1.38310298e-001
      2.80238912e-002 -8.00064206e-002 -7.96606317e-002 -5.81283085e-002
      -9.19147283e-002 -1.07156195e-001 -1.65503293e-001
      -8.04322287e-002 -1.58127937e-002 2.80086175e-002 -4.02437635e-002
      -1.43925985e-002 -3.00851576e-002 -3.61371115e-002
      -1.37248980e-002 -3.21598686e-002 -3.48335132e-002
      -4.81239520e-002 -1.25517190e-001 -1.52887300e-001
      -1.22932807e-001 -7.68583938e-002 3.70384678e-002 1.31539069e-002
      2.33791806e-002 9.23627093e-002 1.52506098e-001 1.39977448e-002
      -8.92802775e-002 -1.50881270e-002 2.42175255e-002 -1.35094635e-002
      -3.17043923e-002 -2.33487785e-002 6.16814271e-002 9.02194604e-002
      -2.45295130e-002 -1.31492972e-001 -9.20988154e-003 2.47309287e-003
      2.67647691e-002 5.44717461e-002 8.18930045e-002 5.85426725e-002
      -4.07102555e-002 -2.04631820e-001 -2.06634954e-001
      -7.37936571e-002 -2.25895829e-002 -1.19610783e-002 4.96295281e-002
      8.57430473e-002 8.35357234e-002 -8.35287850e-003 -1.71532795e-001
      -2.05352738e-001 2.71234731e-003 -7.97373056e-003 -3.01724207e-002
      -1.26433270e-002 -1.03958528e-002 1.05120867e-001 1.36817813e-001
      -6.11644126e-002 -2.08037898e-001 -5.74595183e-002
      -4.49979827e-002 1.10806199e-002 -2.54586861e-002 -3.90168093e-002
      8.29552412e-002 1.47002429e-001 -2.86165010e-002 -1.29692674e-001
      -5.71285337e-002 -2.66275741e-002 3.91184818e-003 5.15432060e-002
      8.49945918e-002 1.37300625e-001 4.85137217e-002 -1.74644276e-001
      -2.70625085e-001 -3.49473841e-002 -3.43773477e-002 4.68282364e-002
      7.62766320e-003 3.26432325e-002 8.93250108e-002 -2.50987452e-003
      -1.56298906e-001 -1.80275708e-001 -2.66042594e-002
      -7.40249176e-004 3.56895034e-004 -7.63886869e-002 -4.99579459e-002
      3.80864665e-002 6.98413253e-002 7.05420598e-002 2.44396292e-002
      8.81141797e-002 8.61606970e-002 -1.47986943e-002 -6.29179627e-002
      -9.25646871e-002 -1.05627701e-001 -3.42417844e-002
      -3.13172229e-002 -9.31127183e-003 5.34000508e-002 3.55970301e-002
      4.86548208e-002 -2.85693258e-002 -4.74060066e-002 -5.93081536e-003
      -3.42049338e-002 -1.58490315e-002 2.19151303e-002 1.01468332e-001
      1.26313210e-001 1.58742405e-002 -2.64692660e-002 -5.18871471e-002
      -1.48478657e-001 -6.29967749e-002 -1.49923027e-001
      -6.47858456e-002 3.18513699e-002 4.65649553e-002 1.74464583e-002
      2.66909339e-002 3.62597890e-002 4.05556709e-002 7.28198141e-002
      3.46762165e-002 4.19530505e-003 5.41401058e-002 3.82816866e-002
      1.03364654e-001 1.25751212e-001 1.18955635e-001 1.10877484e-001
      3.92154343e-002 -7.41115510e-002 -4.49957699e-002 -5.03774546e-003
      5.68504333e-002 1.54238753e-002 1.78466775e-002 6.87162951e-002
      1.84806064e-002 -4.18769941e-002 -1.21099629e-001 -5.24943657e-002
      3.34802493e-002 2.67422255e-002 2.45257914e-002 5.58256954e-002
      4.22577858e-002 -3.82270366e-002 -5.28092384e-002 -1.64530337e-001
      -8.52556601e-002 -3.31297442e-002 3.11379321e-002 9.12333801e-002
      1.02019228e-001 1.06140628e-001 7.06858635e-002 -4.32720631e-002
      -1.80113673e-001 -5.69675341e-002 4.86134179e-002 6.16696179e-002
      6.10090308e-002 8.05882365e-002 1.14680000e-001 1.38681099e-001
      1.29361972e-002 -1.50781229e-001 -3.18570212e-002 1.26498163e-001
      4.99421582e-002 2.30112579e-002 3.68120521e-002 2.07543802e-002
      -1.28208011e-001 -1.00758426e-001 -1.62427858e-001
      -4.77234460e-002 9.63968411e-003 -8.27646721e-003 -4.90212406e-004
      6.32306486e-002 8.56010243e-002 -2.75314655e-002 -5.89582585e-002
      -1.30816460e-001 -3.66546377e-003 6.13079257e-002 -1.45264631e-002
      3.57065536e-002 6.16274700e-002 9.85537469e-002 1.77967221e-001
      -5.76415658e-003 -2.38666326e-001 -1.61099866e-001 7.10736811e-002
      2.32771914e-002 9.89789963e-002 9.15333256e-002 1.48721144e-001
      1.58101365e-001 -6.84942305e-002 -1.91056624e-001 -9.80571806e-002
      4.16804776e-002 9.89007875e-002 -1.65072065e-002 4.10623066e-002
      8.00536871e-002 8.97637680e-002 -1.04904659e-001 -2.22492203e-001
      -7.40205077e-003 4.45688590e-002 -4.16491507e-003 7.32525736e-002
      9.08874348e-002 1.61772847e-001 9.68855023e-002 -8.47493559e-002
      -1.55411437e-001 5.38423564e-003 9.26721096e-002 1.01460569e-001
      1.11909375e-001 6.43499419e-002 3.39765027e-002 2.60985699e-002
      -6.40116259e-002 -7.70009831e-002 -2.02531051e-002 8.01116973e-002
      1.54496104e-001 1.82176605e-002 5.77002298e-003 -1.90691222e-002
      -1.07688926e-001 -3.94022353e-002 -1.49560645e-001
      -1.12688825e-001 4.29185061e-003 7.02148452e-002 9.87132937e-002
      6.05339855e-002 5.65699078e-002 7.17210099e-002 -8.86919443e-003
      -6.41835779e-002 -6.16826154e-002 3.86596099e-002 1.02126271e-001
      1.63965789e-003 -3.69401500e-002 -4.19549122e-002 -1.19269639e-003
      1.35382097e-002 -5.98151237e-002 -1.17299378e-001 -4.78449604e-003
      2.74689263e-003 2.38289777e-002 5.87696023e-003 4.57736328e-002
      1.31987743e-002 -6.24016225e-002 -1.33490726e-001 -6.35800734e-002
      3.16892304e-002 6.36053830e-002 4.01416682e-002 1.18233431e-002
      -4.88589406e-002 -9.60241109e-002 -4.99747880e-002
      -1.06233090e-001 -2.69630458e-002 2.80885305e-002 5.04776984e-002
      8.71766824e-003 -5.65275028e-002 -1.80272572e-002 8.07206184e-002
      4.80276309e-002 -9.84968338e-003 -3.97079624e-003 6.19076118e-002
      5.47515303e-002 6.97053690e-003 -7.22210854e-002 -1.08224973e-001
      -1.48130298e-001 1.41543578e-002 -3.29920067e-003 2.40928195e-002
      6.66824952e-002 6.15194477e-002 4.98719774e-002 2.69352291e-002
      -2.76047550e-002 -1.27412066e-001 -8.16602334e-002
      -9.88094285e-002 6.53039385e-003 5.09946346e-002 4.83752824e-002
      3.45714949e-002 8.48008841e-002 1.22173220e-001 -6.71889782e-002
      -3.69081981e-002 -6.32890910e-002 3.95636559e-002 6.73854202e-002
      1.00579225e-002 5.20690903e-002 2.46327706e-002 -1.80893596e-002
      -1.73699036e-001 -6.38791770e-002 1.66722964e-002 3.13796252e-002
      8.20316598e-002 4.61984463e-002 6.95137531e-002 7.00267032e-002
      7.58284330e-002 -1.49579376e-001 -4.01085652e-002 3.71721126e-002
      6.38390332e-002 8.07289928e-002 4.43723127e-002 -4.88537829e-004
      4.46045287e-002 8.87879729e-002 -3.88645865e-002 -1.64004803e-001
      -1.24399327e-001 6.54721856e-002 3.75549607e-002 -1.59503578e-003
      6.43333346e-002 8.53898153e-002 1.53894603e-001 -1.84197482e-002
      -1.13288656e-001 -1.61284700e-001 5.73451109e-002 1.12547942e-001
      8.06758329e-002 5.83229586e-002 5.03308177e-002 -4.96662129e-003
      -2.08782747e-001 -1.57293424e-001 9.55289528e-002 8.94645602e-002
      5.35049438e-002 3.08798514e-002 1.35984272e-001 1.10409088e-001
      1.60427205e-002 -1.45367488e-001 -1.21763512e-001 6.14232980e-002
      1.66064084e-001 1.26308799e-001 1.20089605e-001 3.52216698e-002
      9.52706113e-003 4.39920016e-002 2.90044937e-002 -4.83082272e-002
      -9.77271497e-002 -1.31193042e-001 2.34011910e-003 2.81168353e-002
      -8.21817815e-002 -9.39867646e-002 -3.74535024e-002
      -2.72189081e-002 -2.97909919e-002 -4.81906831e-002
      -1.17470324e-001 -1.84167624e-002 -6.49672896e-002 5.24328053e-002
      7.06210285e-002 7.36650303e-002 4.98177037e-002 -6.59825280e-003
      -9.29028690e-002 -8.40509906e-002 -2.17487453e-003 5.40554225e-002
      -7.61325061e-002 -3.32494229e-002 -2.93687340e-002
      -3.65434736e-002 -2.85961628e-002 -4.98928688e-002
      -8.66923481e-002 -1.39727267e-002 -9.83792320e-002
      -6.90814033e-002 -9.83352736e-002 -5.14710955e-002 3.86929475e-002
      4.79618041e-003 -4.82885428e-002 -6.29182458e-002 2.83818841e-002
      -3.32421921e-002 -7.87428096e-002 -1.00444108e-001
      -1.04911774e-001 -1.16124876e-001 -2.64381655e-002
      -7.36745968e-002 -3.41170914e-002 3.92198749e-002 -3.40899378e-002
      -5.67854866e-002 -7.33389929e-002 -3.30266505e-002 5.05035445e-002
      9.23088267e-002 4.98630702e-002 -2.19574943e-002 3.67745124e-002
      -9.15612355e-002 -5.88651411e-002 -1.07041836e-001
      -1.37844890e-001 -4.47354093e-002 3.12171392e-002 -9.56854969e-003
      -9.51781571e-002 -2.94767562e-002 -6.53536096e-002 5.57805924e-003
      -4.19708677e-002 -7.23170564e-002 -2.03539670e-001
      -8.60224962e-002 -3.02209356e-003 1.57247633e-002 5.41720316e-002
      2.56648660e-002 4.64248918e-002 -2.92201228e-002 -8.95219371e-002
      -1.97815984e-001 -2.46805809e-002 1.00218959e-001 5.48958778e-002
      3.99239175e-002 2.39150357e-002 -8.91438033e-003 -1.07130155e-001
      -1.85017869e-001 -1.51002824e-001 7.50101134e-002 9.15866569e-002
      7.44056981e-003 3.33557874e-002 3.54162231e-002 1.28007196e-002
      -5.46997786e-002 -1.54812172e-001 -1.28416285e-001 1.46940053e-001
      1.87230453e-001 6.64854497e-002 2.90524773e-002 1.78816840e-002
      7.13238195e-002 1.00160381e-002 -1.73847243e-001 -2.54409313e-001
      -2.63625197e-002 1.87828317e-001 8.40056166e-002 4.16297391e-002
      3.23686935e-002 1.49917260e-001 2.13840827e-002 -1.43166304e-001
      -1.82088792e-001 -4.35546301e-002 1.72987536e-001 1.32650197e-001
      1.01737954e-001 1.23905264e-001 -3.79154757e-002 -1.13643542e-001
      -2.53389835e-001 -1.71436071e-001 1.43833145e-001 1.95902601e-001
      5.60180508e-002 1.24636295e-004 -2.16465890e-002 3.59827764e-002
      -1.02665432e-001 -1.96546510e-001 -1.52591333e-001 1.06035776e-001
      2.13627860e-001 1.14806451e-001 5.55278659e-002 5.38550578e-002</_></support_vectors>
  <decision_functions>
    <_>
      <sv_count>1</sv_count>
      <rho>-2.2855556833740418e+000</rho>
      <alpha>
        1.</alpha>
      <index>
        0</index></_></decision_functions></my_svm>
</opencv_storage>
