<?xml version="1.0"?>
<opencv_storage>
<my_svm type_id="opencv-ml-svm">
  <svm_type>C_SVC</svm_type>
  <kernel><type>LINEAR</type></kernel>
  <C>1.0000000000000000e-002</C>
  <term_criteria><epsilon>1.1920928955078125e-007</epsilon>
    <iterations>1000</iterations></term_criteria>
  <var_all>576</var_all>
  <var_count>576</var_count>
  <class_count>2</class_count>
  <class_labels type_id="opencv-matrix">
    <rows>1</rows>
    <cols>2</cols>
    <dt>i</dt>
    <data>
      -1 1</data></class_labels>
  <sv_total>1</sv_total>
  <support_vectors>
    <_>
      2.32708920e-002 1.91013124e-002 1.91945918e-002 -6.26794854e-003
      -2.28973236e-002 -8.03952664e-003 5.18167950e-002 4.64484915e-002
      2.96390802e-002 8.56011640e-003 2.36338805e-002 8.94041546e-003
      -1.22038033e-002 -2.49676425e-002 -1.81518961e-002 6.55102655e-002
      3.59048136e-002 1.50237577e-002 1.77589785e-002 3.20092812e-002
      7.19065219e-003 -1.44437477e-002 -2.42378395e-002 6.15766738e-003
      4.16531712e-002 5.09293051e-003 5.50535566e-004 -2.75918078e-002
      -7.15481304e-003 -1.77955162e-002 -1.90302972e-002
      -5.09582274e-002 -3.22011895e-002 8.20837449e-003 -9.71077662e-003
      -3.93319912e-002 5.54127572e-003 2.18788832e-002 3.16664241e-002
      4.29871082e-002 3.46817188e-002 3.69183421e-002 6.75579831e-002
      1.68491844e-002 6.11132942e-003 -4.45325077e-002 -2.29438841e-002
      -6.49468880e-003 4.94843349e-002 8.58139023e-002 7.23342970e-002
      2.18923036e-002 -3.80478613e-002 -4.75667827e-002 -2.97265965e-002
      -7.81945232e-003 -2.57442379e-003 4.57876874e-003 -4.19247942e-003
      -2.04825327e-002 -3.00453305e-002 -4.40943465e-002
      -4.22383584e-002 -4.01105098e-002 -2.17268765e-002
      -2.39494070e-002 2.64986251e-002 1.05560310e-002 -3.08738723e-002
      -7.45907426e-002 -8.19750428e-002 -5.05452789e-002
      -2.81678177e-002 -1.05912853e-002 -1.40611483e-002 2.81605739e-002
      8.84885564e-002 8.95528123e-002 -9.14157543e-004 -4.95264716e-002
      -3.79515998e-002 3.55442334e-003 3.03002782e-002 2.75852829e-002
      4.55647483e-002 6.51705265e-002 4.05234732e-002 -4.15633768e-002
      -5.38016818e-002 -2.70034522e-002 1.08050890e-002 2.98093501e-002
      2.39910223e-002 6.11202642e-002 2.82469783e-002 -5.53476214e-002
      -1.14230968e-001 -6.25768974e-002 -1.30381547e-002 5.83229177e-002
      7.16883913e-002 7.50588775e-002 9.73755270e-002 2.28551626e-002
      -6.02461658e-002 -1.00312129e-001 -5.12671545e-002 1.94638353e-002
      1.67203415e-002 3.34054828e-002 3.69003341e-002 2.18224507e-002
      2.03931648e-002 -1.52967665e-002 -5.58832996e-002 -5.18170036e-002
      -1.32499440e-002 3.44495401e-002 3.09482701e-002 3.61318327e-002
      3.71744111e-002 3.30375731e-002 2.03719661e-002 4.92099719e-003
      -1.91183353e-003 2.60298457e-002 5.16945086e-002 5.54705150e-002
      6.46034628e-002 6.53431267e-002 -2.38241665e-002 -9.33244154e-002
      -1.08824633e-001 -5.20224050e-002 3.01509891e-002 4.23194654e-002
      2.55474336e-002 4.45324406e-002 2.71093734e-002 -1.16134109e-002
      -4.44744229e-002 -2.28503924e-002 -3.19380104e-003 4.34704050e-002
      3.83117259e-003 3.31765115e-002 2.97406986e-002 2.15476472e-002
      4.33377661e-002 8.22905973e-002 6.82541057e-002 1.23567432e-002
      -1.83797721e-002 -3.50453258e-002 -4.81071329e-004
      -2.19389126e-002 6.58516120e-003 1.41480928e-002 4.51147184e-002
      3.28620262e-002 -1.12699522e-002 -5.19595668e-002 -2.04791576e-002
      -4.91604069e-003 5.22941444e-003 2.21190345e-003 3.07603627e-002
      7.47327358e-002 6.51879907e-002 1.37556605e-002 -3.00803557e-002
      -5.14267199e-002 -4.77072373e-002 -4.50465493e-002
      -2.08876450e-002 6.70277094e-003 1.84947606e-002 1.78446751e-002
      -1.88955795e-002 -5.06427027e-002 -6.35478238e-004 2.48045139e-002
      -3.36840967e-005 3.15965377e-002 3.61506008e-002 6.18070737e-003
      -9.14011057e-003 -6.71365671e-003 -1.30502842e-002 4.89971116e-002
      5.94124496e-002 3.50646973e-002 6.11642376e-002 -4.24064184e-003
      -6.17145784e-002 -6.99146464e-002 -7.06481189e-003 3.56897637e-002
      -1.42853959e-002 -1.35560930e-002 -2.61881836e-002 4.07936331e-003
      1.49214745e-003 -7.64434179e-003 4.12958115e-003 5.46254567e-004
      -1.72385182e-002 5.43158948e-002 3.91912982e-002 2.18791682e-002
      -1.20152498e-003 -3.06617524e-002 -3.69326137e-002 2.59737787e-003
      3.09155174e-002 6.47546351e-002 7.48697519e-002 8.25115740e-002
      6.98300228e-002 7.25039765e-002 -1.71992797e-002 -1.08334385e-001
      -1.06102772e-001 6.36293227e-003 5.30217737e-002 9.20495465e-002
      9.91145521e-002 1.00760005e-001 9.44310427e-002 -2.30004136e-002
      -1.01148218e-001 -8.24656561e-002 3.63668315e-002 8.43294859e-002
      9.29809213e-002 8.07499215e-002 3.97496074e-002 4.57670912e-003
      -5.73586449e-002 -6.75982460e-002 -1.68405790e-002 3.68459933e-002
      8.04031268e-002 1.06470376e-001 1.04321025e-001 5.82723729e-002
      1.59982610e-002 -7.22129345e-002 -7.48652369e-002 2.62936484e-002
      8.25824365e-002 1.00307047e-001 7.12495670e-002 7.23708645e-002
      6.96616098e-002 5.05215265e-002 -8.08814988e-002 -1.21253178e-001
      -6.29507601e-002 3.44906487e-002 7.89452717e-002 7.28159323e-002
      4.68515567e-002 5.04272580e-002 1.82796884e-002 -2.02541761e-002
      -3.77556346e-002 1.75746772e-002 5.00163361e-002 7.80963227e-002
      8.24982524e-002 6.52102157e-002 1.90238487e-002 -4.51393202e-002
      -1.05191536e-001 -7.94098079e-002 4.03720327e-002 8.20880383e-002
      8.85554478e-002 6.71529174e-002 2.94952672e-002 -8.77730269e-003
      -2.80592125e-002 -5.18091731e-002 -3.49145080e-003 6.41232729e-002
      6.97970167e-002 8.34629461e-002 -9.63436498e-004 8.57390650e-003
      1.69511400e-002 1.47842034e-003 5.33952424e-003 2.30215788e-002
      2.01661550e-002 1.08318301e-002 -1.90500764e-003 -5.39772911e-004
      -8.71369988e-003 -1.13179935e-002 -1.04310373e-002
      -3.98146771e-002 -3.89581397e-002 -2.84977462e-002
      -2.03438550e-002 -1.85295120e-002 4.58650067e-002 4.27417085e-002
      4.93625812e-002 3.59064862e-002 2.00726092e-002 1.18556591e-002
      4.70240694e-003 -3.17872036e-004 2.87930164e-002 4.79952767e-002
      3.22572663e-002 2.78629344e-002 2.76010856e-002 -3.09888590e-002
      -2.80056410e-002 -5.13113849e-002 -4.52574641e-002 2.34164167e-002
      8.12812615e-003 -2.40233336e-002 -4.15993296e-002 -1.04388744e-002
      -7.29373004e-003 -1.63204670e-002 -1.08910473e-002 1.58572048e-002
      1.80907082e-002 3.91543582e-002 1.56546617e-003 -2.86602117e-002
      -2.81015486e-002 -2.56282911e-002 1.82327977e-003 1.44750522e-002
      4.29303423e-002 6.60222024e-002 4.10685018e-002 -2.02545943e-003
      -1.32338295e-003 1.44703379e-002 1.74990706e-002 -3.09983455e-003
      -2.75229122e-002 1.75738074e-002 5.23792654e-002 3.02228890e-002
      -6.49239169e-003 -5.14841639e-002 -3.04755550e-002 1.05963917e-002
      3.95528302e-002 2.48160237e-003 5.17669544e-002 6.16005808e-002
      7.57945329e-002 5.40513881e-002 -2.14171205e-002 -4.49045002e-002
      -4.89908606e-002 -3.68261500e-003 1.54154198e-002 3.94551381e-002
      7.04042390e-002 9.53793302e-002 8.81943628e-002 -1.07034482e-002
      -6.03459664e-002 -5.93745485e-002 2.31323089e-003 7.13491067e-002
      7.63809830e-002 7.95780495e-002 5.42571321e-002 2.39953678e-002
      -6.90695420e-002 -7.21757784e-002 -1.77777559e-002 5.55221103e-002
      2.92755403e-002 5.74742779e-002 6.35319948e-002 8.28613341e-002
      2.73260400e-002 -8.70259926e-002 -1.05227970e-001 -2.87875850e-002
      6.38646930e-002 8.85922313e-002 8.87252316e-002 7.95565099e-002
      5.97819984e-002 4.07754332e-002 -3.91696692e-002 -1.09903365e-001
      -8.59715566e-002 -1.06715662e-002 7.20316991e-002 6.52814656e-002
      6.06304146e-002 4.31302451e-002 1.06517710e-002 -4.03305478e-002
      -5.88266701e-002 -3.86484042e-002 4.18676659e-002 7.91006312e-002
      6.31386265e-002 6.19473308e-002 5.42795248e-002 3.50348558e-003
      -9.62282643e-002 -1.30474105e-001 -5.15567325e-002 4.72622439e-002
      8.52307901e-002 6.79534599e-002 5.51754199e-002 4.75713648e-002
      2.50915904e-002 -2.92645376e-002 -5.30014299e-002 -1.25866593e-003
      6.23299815e-002 9.14570466e-002 6.89508319e-002 5.48422225e-002
      1.26085980e-002 -3.49188549e-003 1.82019975e-002 1.84291992e-002
      8.09201319e-003 6.47700951e-003 -4.53631952e-003 -1.72088519e-002
      4.98882215e-003 4.11273504e-004 -2.17136089e-002 -7.93793704e-003
      1.51809286e-002 -3.73016633e-002 -4.76909950e-002 -5.45410104e-002
      -6.79785535e-002 -9.14536510e-003 5.37859788e-003 -1.92024708e-002
      4.68768738e-003 4.23683934e-002 2.77432501e-002 4.42923345e-002
      4.50679511e-002 3.82410288e-002 3.45936492e-002 -3.57040833e-003
      -2.14626659e-002 -4.21334850e-003 1.88442878e-002 -3.79002281e-003
      -4.62559517e-003 1.67390320e-003 4.84595133e-004 2.87365541e-002
      6.07739622e-003 -3.79561409e-002 -4.29227129e-002 6.39829878e-003
      1.79502722e-002 -7.79197225e-003 -4.96404432e-002 -5.00576906e-002
      6.50729658e-003 -1.41316000e-002 -5.81312440e-002 -9.90591422e-002
      -4.17641401e-002 4.02649678e-002 5.17719053e-002 -1.59596261e-002
      -1.66925546e-002 -1.02629615e-002 1.15772849e-002 -1.53725827e-002
      -1.09869726e-002 3.27789783e-002 4.19462882e-002 3.15954462e-002
      9.27825272e-003 -1.31865768e-002 1.84307303e-002 -1.31663401e-002
      -4.56334949e-002 -5.93896732e-002 1.14895934e-002 7.39702731e-002
      8.03432763e-002 4.73445617e-002 2.04274082e-004 -1.87378824e-002
      -2.72805244e-002 -6.11989908e-002 -1.21120140e-001
      -8.24131966e-002 1.46713750e-002 6.11799546e-002 2.48171054e-002
      2.32610591e-002 -1.53424367e-002 -1.30937612e-002 -6.94963410e-002
      -1.25118017e-001 -9.72804502e-002 -1.47778669e-003 6.37365207e-002
      7.16009736e-002 5.72137088e-002 1.32176382e-002 -2.86923666e-002
      -4.00672182e-002 -5.38499355e-002 7.01180240e-003 8.88122022e-002
      9.04615968e-002 6.31157160e-002 2.83761937e-002 -1.72645990e-002
      -1.40890321e-002 -5.32740317e-002 -5.69886714e-002 2.00990005e-003
      8.84392262e-002 9.40966904e-002 8.31564516e-002 6.02814890e-002
      1.00241918e-002 -2.03614738e-002 -8.06817785e-002 -1.23044595e-001
      -1.16440371e-001 -3.27202119e-002 3.90181765e-002 5.42986766e-002
      2.74787657e-002 1.20238122e-003 4.11099708e-003 -2.06416026e-002
      -5.11839725e-002 -6.20166026e-002 3.55637399e-003 3.69366966e-002
      5.20445406e-002 2.20217444e-002 2.83703813e-003 -1.82274301e-002
      -5.87480068e-002 -7.64722303e-002 -4.81920466e-002 3.78741995e-002
      5.28249443e-002 5.19096777e-002 2.27510538e-002 6.03281334e-003
      2.22694185e-002 5.17286314e-003 -1.17378514e-002 -2.03334540e-002
      2.95900479e-002 4.82266545e-002 6.38731420e-002 3.10820937e-002
      1.85457058e-002</_></support_vectors>
  <decision_functions>
    <_>
      <sv_count>1</sv_count>
      <rho>-4.4178065926562531e-002</rho>
      <alpha>
        1.</alpha>
      <index>
        0</index></_></decision_functions></my_svm>
</opencv_storage>
